<?xml version="1.0" encoding="utf-8"?>
<opencv_storage>
<cascade>
  <stageType>BOOST</stageType>
  <featureType>LBP</featureType>
  <height>15</height>
  <width>25</width>
  <stageParams>
    <boostType>GAB</boostType>
    <minHitRate>9.9900001287460327e-001</minHitRate>
    <maxFalseAlarm>5.0000000000000000e-001</maxFalseAlarm>
    <weightTrimRate>9.4999999999999996e-001</weightTrimRate>
    <maxDepth>1</maxDepth>
    <maxWeakCount>100</maxWeakCount></stageParams>
  <featureParams>
    <maxCatCount>256</maxCatCount>
    <featSize>1</featSize></featureParams>
  <stageNum>13</stageNum>
  <stages>
    <!-- stage 0 -->
    <_>
      <maxWeakCount>4</maxWeakCount>
      <stageThreshold>-1.8943750858306885e+000</stageThreshold>
      <weakClassifiers>
        <_>
          <internalNodes>
            0 -1 19 16876017 -48770175 1091639805 -10911465 -2122233093
            -72709748 -879118085 -1081661261</internalNodes>
          <leafValues>
            -8.6440676450729370e-001 8.0877387523651123e-001</leafValues></_>
        <_>
          <internalNodes>
            0 -1 83 -33554433 -277350401 -1 -285933570 -131105 -577 -395
            -51056652</internalNodes>
          <leafValues>
            -8.3743345737457275e-001 6.7467027902603149e-001</leafValues></_>
        <_>
          <internalNodes>
            0 -1 51 -2124306123 -552238825 -787148515 -3309299
            -1199326981 -72384375 -73679893 -1460302865</internalNodes>
          <leafValues>
            -7.7310067415237427e-001 7.2655737400054932e-001</leafValues></_>
        <_>
          <internalNodes>
            0 -1 29 -1575948367 -338427965 1426130137 -304114805
            -1283327489 -359551829 -103941185 1710617521</internalNodes>
          <leafValues>
            -8.7945145368576050e-001 5.8056575059890747e-001</leafValues></_></weakClassifiers></_>
    <!-- stage 1 -->
    <_>
      <maxWeakCount>5</maxWeakCount>
      <stageThreshold>-2.6458718776702881e+000</stageThreshold>
      <weakClassifiers>
        <_>
          <internalNodes>
            0 -1 62 436158335 -1084360705 -377636353 -155721 -8193
            -524291 -1281 -16994307</internalNodes>
          <leafValues>
            -8.4080034494400024e-001 7.4410772323608398e-001</leafValues></_>
        <_>
          <internalNodes>
            0 -1 49 -285741057 -285343745 -1074291201 -285413378
            -4194825 -1 -16782473 -319488004</internalNodes>
          <leafValues>
            -8.3252608776092529e-001 6.1134034395217896e-001</leafValues></_>
        <_>
          <internalNodes>
            0 -1 11 -2088636003 -376978547 151077775 -134250041
            2139988927 -6584177 -374609069 -34079837</internalNodes>
          <leafValues>
            -7.8048962354660034e-001 7.0551145076751709e-001</leafValues></_>
        <_>
          <internalNodes>
            0 -1 65 201031487 -285212681 -268976129 -285278212 -7340697
            -1048577 -131211 -319225932</internalNodes>
          <leafValues>
            -7.6020658016204834e-001 6.4571714401245117e-001</leafValues></_>
        <_>
          <internalNodes>
            0 -1 20 -1055858176 -116289199 285282765 -16449268
            -1148605973 -1148469111 -1148678401 1974852041</internalNodes>
          <leafValues>
            -8.5243535041809082e-001 5.6815069913864136e-001</leafValues></_></weakClassifiers></_>
    <!-- stage 2 -->
    <_>
      <maxWeakCount>8</maxWeakCount>
      <stageThreshold>-2.4684302806854248e+000</stageThreshold>
      <weakClassifiers>
        <_>
          <internalNodes>
            0 -1 41 -782658753 -572679787 -1861021281 -2239073
            -628574017 -6586131 -383726593 -54543461</internalNodes>
          <leafValues>
            -8.2869756221771240e-001 6.5621620416641235e-001</leafValues></_>
        <_>
          <internalNodes>
            0 -1 12 -1517553240 -1014840324 -1878949837 -405822837
            -92017989 -1413021557 -1148482701 -185082889</internalNodes>
          <leafValues>
            -8.3876854181289673e-001 4.1756245493888855e-001</leafValues></_>
        <_>
          <internalNodes>
            0 -1 91 -169869393 -77889089 302096627 -1795185733
            -641472432 -82610005 -473171274 -185615625</internalNodes>
          <leafValues>
            -7.1530061960220337e-001 5.1468831300735474e-001</leafValues></_>
        <_>
          <internalNodes>
            0 -1 39 -305110784 -86126081 -653160225 -807698225
            -478041857 -72675157 -880039441 1287764922</internalNodes>
          <leafValues>
            -8.1207090616226196e-001 3.9386495947837830e-001</leafValues></_>
        <_>
          <internalNodes>
            0 -1 30 -787227711 -979894189 -1324240428 -615133039
            1804111099 -621248343 -1820093967 -709637657</internalNodes>
          <leafValues>
            -6.7206925153732300e-001 4.8577904701232910e-001</leafValues></_>
        <_>
          <internalNodes>
            0 -1 56 -28589641 -426008559 1409912986 -352526181
            -241269619 -1335689023 -1278500747 -54735876</internalNodes>
          <leafValues>
            -7.4024885892868042e-001 4.2752608656883240e-001</leafValues></_>
        <_>
          <internalNodes>
            0 -1 77 -782354436 -2062876624 1090638099 2010337809
            -640890635 461539467 1208189071 2127077006</internalNodes>
          <leafValues>
            -6.9811797142028809e-001 4.6315270662307739e-001</leafValues></_>
        <_>
          <internalNodes>
            0 -1 2 568062955 1272467597 17383437 -1017921127 599898543
            -645691375 319019775 1223685107</internalNodes>
          <leafValues>
            -6.3166427612304688e-001 4.6963703632354736e-001</leafValues></_></weakClassifiers></_>
    <!-- stage 3 -->
    <_>
      <maxWeakCount>6</maxWeakCount>
      <stageThreshold>-1.9927906990051270e+000</stageThreshold>
      <weakClassifiers>
        <_>
          <internalNodes>
            0 -1 17 -268959745 -538971649 430021077 -4203041 -575144961
            -4643877 -71697409 -527369</internalNodes>
          <leafValues>
            -8.1213998794555664e-001 6.0342979431152344e-001</leafValues></_>
        <_>
          <internalNodes>
            0 -1 86 -36175873 -319029377 -100925441 -285283397
            -100663433 -67108867 -68157579 -319496220</internalNodes>
          <leafValues>
            -8.4063643217086792e-001 5.7159453630447388e-001</leafValues></_>
        <_>
          <internalNodes>
            0 -1 81 2139062143 2146435071 -32777 -4231233 -8388641 -1
            -4097 -25362433</internalNodes>
          <leafValues>
            -6.2993586063385010e-001 6.9786167144775391e-001</leafValues></_>
        <_>
          <internalNodes>
            0 -1 67 -1343291393 -286855169 -272760897 -1493368900
            -805388297 -286721 -268435627 -52630604</internalNodes>
          <leafValues>
            -7.7298206090927124e-001 5.3613924980163574e-001</leafValues></_>
        <_>
          <internalNodes>
            0 -1 23 -290459969 -427623506 -137183246 -6305831 -837309009
            -108398129 -5770653 1693973301</internalNodes>
          <leafValues>
            -7.7158266305923462e-001 5.1824587583541870e-001</leafValues></_>
        <_>
          <internalNodes>
            0 -1 46 -460020425 2098283993 -754853379 -38301295
            -931120737 -343309895 -105140929 1555421363</internalNodes>
          <leafValues>
            -6.9048964977264404e-001 5.4465770721435547e-001</leafValues></_></weakClassifiers></_>
    <!-- stage 4 -->
    <_>
      <maxWeakCount>7</maxWeakCount>
      <stageThreshold>-2.8509881496429443e+000</stageThreshold>
      <weakClassifiers>
        <_>
          <internalNodes>
            0 -1 45 -136839297 -289406977 -104859649 -285278209
            -35651585 -33 -278537 -319488012</internalNodes>
          <leafValues>
            -8.5081809759140015e-001 4.4784173369407654e-001</leafValues></_>
        <_>
          <internalNodes>
            0 -1 61 1073561591 -1074003969 -57473 -197 -1207964161 -1
            -32769 -1073954820</internalNodes>
          <leafValues>
            -7.7839332818984985e-001 5.9229356050491333e-001</leafValues></_>
        <_>
          <internalNodes>
            0 -1 98 -8388609 -11538561 -1593377 -386338865 -304611513
            -687865923 -67109003 -991625228</internalNodes>
          <leafValues>
            -7.8990679979324341e-001 4.9801748991012573e-001</leafValues></_>
        <_>
          <internalNodes>
            0 -1 54 782053239 745390079 -16785409 -1426128914 -308281545
            -302055489 -137 -855836164</internalNodes>
          <leafValues>
            -8.0767756700515747e-001 4.7320175170898438e-001</leafValues></_>
        <_>
          <internalNodes>
            0 -1 35 -406537817 -251653997 -184471181 -6881263 -15046209
            -1148682078 -1928607041 1974797239</internalNodes>
          <leafValues>
            -6.9058936834335327e-001 5.5078357458114624e-001</leafValues></_>
        <_>
          <internalNodes>
            0 -1 75 788405847 -318776833 -67291697 -285432913 -302417097
            -142612227 -17965963 -285409808</internalNodes>
          <leafValues>
            -7.1659201383590698e-001 5.1596736907958984e-001</leafValues></_>
        <_>
          <internalNodes>
            0 -1 15 -947524219 -1484684855 -1861582589 1828700569
            1267400606 1242122411 1829406859 1839958183</internalNodes>
          <leafValues>
            -6.7456960678100586e-001 5.4161608219146729e-001</leafValues></_></weakClassifiers></_>
    <!-- stage 5 -->
    <_>
      <maxWeakCount>7</maxWeakCount>
      <stageThreshold>-2.3995664119720459e+000</stageThreshold>
      <weakClassifiers>
        <_>
          <internalNodes>
            0 -1 68 -103416993 -738342409 1363268063 -2293429
            -1073155413 -1181576821 -1333032277 -84421937</internalNodes>
          <leafValues>
            -7.8188216686248779e-001 5.5458515882492065e-001</leafValues></_>
        <_>
          <internalNodes>
            0 -1 5 -448081428 -3034835 -754908356 -10497707 -1467911493
            -108982133 -249042037 -439909517</internalNodes>
          <leafValues>
            -7.1082979440689087e-001 4.3642523884773254e-001</leafValues></_>
        <_>
          <internalNodes>
            0 -1 97 -67964065 2010309557 1342181854 1955828310
            1481384020 -114589542 -8209756 -187433049</internalNodes>
          <leafValues>
            -7.2583681344985962e-001 3.5521182417869568e-001</leafValues></_>
        <_>
          <internalNodes>
            0 -1 9 -9637432 -723587333 837216889 1364320079 -1398948674
            915211249 592781551 286222251</internalNodes>
          <leafValues>
            -4.7801652550697327e-001 5.4462563991546631e-001</leafValues></_>
        <_>
          <internalNodes>
            0 -1 3 1625805508 -610860205 1342374233 -842051558
            1510326411 -763248501 1912832139 -460852413</internalNodes>
          <leafValues>
            -5.0618094205856323e-001 5.3552997112274170e-001</leafValues></_>
        <_>
          <internalNodes>
            0 -1 71 -540158465 -780185217 352698877 -447213345
            -369048653 2030338187 -888551035 -621648</internalNodes>
          <leafValues>
            -6.0891002416610718e-001 3.9419606328010559e-001</leafValues></_>
        <_>
          <internalNodes>
            0 -1 80 -238818003 -178536297 -787409669 -522383018
            -1475827404 -754739181 176261131 1643228047</internalNodes>
          <leafValues>
            -6.8417000770568848e-001 3.8944768905639648e-001</leafValues></_></weakClassifiers></_>
    <!-- stage 6 -->
    <_>
      <maxWeakCount>9</maxWeakCount>
      <stageThreshold>-1.8405609130859375e+000</stageThreshold>
      <weakClassifiers>
        <_>
          <internalNodes>
            0 -1 38 -212469315 -610954081 297898463 -619327277
            -1199449861 -17790823 -1958171649 -1330927457</internalNodes>
          <leafValues>
            -7.6771831512451172e-001 4.0777668356895447e-001</leafValues></_>
        <_>
          <internalNodes>
            0 -1 43 -397113409 -36048679 -117073667 -48299945 -115228433
            -1279180344 51056891 -1918824141</internalNodes>
          <leafValues>
            -5.7383573055267334e-001 4.1789948940277100e-001</leafValues></_>
        <_>
          <internalNodes>
            0 -1 76 -27921922 -637478437 -1862223622 534429915 -74786062
            -1970696056 -536675596 -24326219</internalNodes>
          <leafValues>
            -6.4439773559570312e-001 3.7381166219711304e-001</leafValues></_>
        <_>
          <internalNodes>
            0 -1 22 -1528383583 -602652400 -783464103 -815885687
            -116812373 -116719605 1266938559 1423024615</internalNodes>
          <leafValues>
            -7.5583392381668091e-001 2.7828383445739746e-001</leafValues></_>
        <_>
          <internalNodes>
            0 -1 78 -105452785 -50216418 -1073512357 2127135237
            981899327 -90079102 -511567798 -587873101</internalNodes>
          <leafValues>
            -6.5199512243270874e-001 3.2105848193168640e-001</leafValues></_>
        <_>
          <internalNodes>
            0 -1 8 1393745928 1438925249 310460848 302784512 429496490
            1107836961 168653450 344916642</internalNodes>
          <leafValues>
            -5.4326629638671875e-001 4.1470447182655334e-001</leafValues></_>
        <_>
          <internalNodes>
            0 -1 16 1225118969 -15154743 -1257700919 -408972021
            1090549943 -368279415 2066364895 2041525123</internalNodes>
          <leafValues>
            -4.6307873725891113e-001 4.1619196534156799e-001</leafValues></_>
        <_>
          <internalNodes>
            0 -1 45 -69999683 -355381246 1090553987 -362249798
            -1761171305 -2120740822 -73742078 -52893523</internalNodes>
          <leafValues>
            -6.6448026895523071e-001 3.2777300477027893e-001</leafValues></_>
        <_>
          <internalNodes>
            0 -1 24 -1055833657 -285015919 1091851762 -44199650
            -2004242357 -83656568 -2113165183 1905498883</internalNodes>
          <leafValues>
            -5.8926343917846680e-001 3.5268595814704895e-001</leafValues></_></weakClassifiers></_>
    <!-- stage 7 -->
    <_>
      <maxWeakCount>9</maxWeakCount>
      <stageThreshold>-1.9956475496292114e+000</stageThreshold>
      <weakClassifiers>
        <_>
          <internalNodes>
            0 -1 19 -1009525797 -49080941 1665187199 -685926177
            -91034625 -36034325 -3408389 -2639197</internalNodes>
          <leafValues>
            -7.5719767808914185e-001 2.7848100662231445e-001</leafValues></_>
        <_>
          <internalNodes>
            0 -1 89 -77794321 -237772329 -2109505143 -660668285
            -74317995 -1199465805 -1088202321 -185877849</internalNodes>
          <leafValues>
            -6.6349494457244873e-001 3.5121384263038635e-001</leafValues></_>
        <_>
          <internalNodes>
            0 -1 70 -1190133891 2128245404 -35422209 -285544546
            -254858445 -67406849 -22418859 -16975180</internalNodes>
          <leafValues>
            -7.0183825492858887e-001 3.5020247101783752e-001</leafValues></_>
        <_>
          <internalNodes>
            0 -1 4 1740823020 -645316482 -2130362283 -921758567
            -662322465 -1148911480 520325883 1439155075</internalNodes>
          <leafValues>
            -6.1432456970214844e-001 3.9992228150367737e-001</leafValues></_>
        <_>
          <internalNodes>
            0 -1 81 -673481731 -3422530 -141556801 -12640109 -852170610
            1990146735 -305501441 -55006469</internalNodes>
          <leafValues>
            -5.0784480571746826e-001 4.2165181040763855e-001</leafValues></_>
        <_>
          <internalNodes>
            0 -1 59 -221001865 -95675113 -1807706992 -822562602
            -217151243 -620560278 -896548812 -322638964</internalNodes>
          <leafValues>
            -7.1198660135269165e-001 3.2891973853111267e-001</leafValues></_>
        <_>
          <internalNodes>
            0 -1 26 -1290809303 -1537284625 -1052147708 1910459528
            -256865977 -586969831 -1063280000 1207951287</internalNodes>
          <leafValues>
            -5.8356505632400513e-001 3.4071797132492065e-001</leafValues></_>
        <_>
          <internalNodes>
            0 -1 50 -2100452555 -1860652975 -1862149685 -580284017
            -1861736389 -117210344 167956799 481407415</internalNodes>
          <leafValues>
            -6.4079970121383667e-001 3.0083087086677551e-001</leafValues></_>
        <_>
          <internalNodes>
            0 -1 47 -472531915 -497925750 17203607 -910163705 -662617665
            -1372550774 -2013099595 784108516</internalNodes>
          <leafValues>
            -6.3231080770492554e-001 3.0524361133575439e-001</leafValues></_></weakClassifiers></_>
    <!-- stage 8 -->
    <_>
      <maxWeakCount>10</maxWeakCount>
      <stageThreshold>-1.9130322933197021e+000</stageThreshold>
      <weakClassifiers>
        <_>
          <internalNodes>
            0 -1 52 -237531201 -572534583 -718416385 -136493763
            -251094785 -3432293 -552944901 -1663718673</internalNodes>
          <leafValues>
            -7.2813689708709717e-001 2.4125230312347412e-001</leafValues></_>
        <_>
          <internalNodes>
            0 -1 88 -78185173 -645756911 353081565 -1328032547
            -108426444 1905820290 -1299053801 -186782829</internalNodes>
          <leafValues>
            -7.5338333845138550e-001 2.0270568132400513e-001</leafValues></_>
        <_>
          <internalNodes>
            0 -1 14 -799673881 1805004895 -1794043560 1595379799
            -125188897 -189036415 -2002810714 -168359469</internalNodes>
          <leafValues>
            -6.6639041900634766e-001 2.7846741676330566e-001</leafValues></_>
        <_>
          <internalNodes>
            0 -1 87 -607000581 -1722830281 -1761479273 -420032342
            -506750265 -74907159 -1567915392 -119751692</internalNodes>
          <leafValues>
            -6.2925565242767334e-001 3.5579460859298706e-001</leafValues></_>
        <_>
          <internalNodes>
            0 -1 7 286295498 1565524469 16793937 -146407224 51324
            -75374462 -1995920693 1907851465</internalNodes>
          <leafValues>
            -6.8846869468688965e-001 2.6972880959510803e-001</leafValues></_>
        <_>
          <internalNodes>
            0 -1 100 -1869047164 -1222864861 -2143223660 901878736
            -2140868184 1386512523 9421017 294366081</internalNodes>
          <leafValues>
            -4.5398238301277161e-001 4.3991440534591675e-001</leafValues></_>
        <_>
          <internalNodes>
            0 -1 48 -2116296585 -532557417 -2075953017 -957841318
            -257188746 -609713478 -808780793 -321325844</internalNodes>
          <leafValues>
            -6.9737124443054199e-001 2.6422554254531860e-001</leafValues></_>
        <_>
          <internalNodes>
            0 -1 60 -439835265 273777045 -1878994725 -1622163322
            -108473685 -1148059503 1078296715 681673131</internalNodes>
          <leafValues>
            -5.5376499891281128e-001 3.2207354903221130e-001</leafValues></_>
        <_>
          <internalNodes>
            0 -1 64 -203097100 1083834389 -804073445 1763705103
            -1484144525 -116916086 -1308589599 2076715932</internalNodes>
          <leafValues>
            -7.0522183179855347e-001 2.4531330168247223e-001</leafValues></_>
        <_>
          <internalNodes>
            0 -1 3 711447022 1603666000 16908288 -473497442 864256495
            -2146951030 1350797834 1813879315</internalNodes>
          <leafValues>
            -6.5912604331970215e-001 2.8447523713111877e-001</leafValues></_></weakClassifiers></_>
    <!-- stage 9 -->
    <_>
      <maxWeakCount>12</maxWeakCount>
      <stageThreshold>-1.8552359342575073e+000</stageThreshold>
      <weakClassifiers>
        <_>
          <internalNodes>
            0 -1 62 -655081473 -182726397 -384443681 -4363841
            -1148215633 -209032245 -97518593 -1094927427</internalNodes>
          <leafValues>
            -7.6254719495773315e-001 1.0695587098598480e-001</leafValues></_>
        <_>
          <internalNodes>
            0 -1 33 -481828885 -288374369 -137652134 -90705482
            -874908097 -242973202 -240715962 -270017597</internalNodes>
          <leafValues>
            -6.1831057071685791e-001 3.0700966715812683e-001</leafValues></_>
        <_>
          <internalNodes>
            0 -1 85 -916485281 -727908198 1392738702 -552352043
            -517878853 436371593 -1853689497 -19473665</internalNodes>
          <leafValues>
            -5.1607561111450195e-001 3.4998980164527893e-001</leafValues></_>
        <_>
          <internalNodes>
            0 -1 44 -357042345 -296592953 -1802282497 -94460941
            -308427913 -607938469 -962877241 -319492424</internalNodes>
          <leafValues>
            -6.9645088911056519e-001 2.7640631794929504e-001</leafValues></_>
        <_>
          <internalNodes>
            0 -1 27 1095884193 2030633040 285298710 -910445553
            2055213475 38314151 -1414977117 769611939</internalNodes>
          <leafValues>
            -4.8675081133842468e-001 3.6946782469749451e-001</leafValues></_>
        <_>
          <internalNodes>
            0 -1 99 -1038241516 292872281 1031909752 1575860648
            -1954270209 547509266 930926723 392942724</internalNodes>
          <leafValues>
            -4.6742168068885803e-001 3.7865489721298218e-001</leafValues></_>
        <_>
          <internalNodes>
            0 -1 94 -2120278149 386379891 -249523731 809935187
            -762473867 -1308321786 -461049388 -27990873</internalNodes>
          <leafValues>
            -6.0839486122131348e-001 2.8028392791748047e-001</leafValues></_>
        <_>
          <internalNodes>
            0 -1 13 1359074753 -884932320 1359034807 -1794834367
            -1441159029 -125304703 134325925 361204357</internalNodes>
          <leafValues>
            -6.9922053813934326e-001 2.2017833590507507e-001</leafValues></_>
        <_>
          <internalNodes>
            0 -1 36 -620397942 848494749 -996814818 1428133888
            -809432418 -1207357436 1122078859 186339659</internalNodes>
          <leafValues>
            -4.5285174250602722e-001 3.6797887086868286e-001</leafValues></_>
        <_>
          <internalNodes>
            0 -1 55 784532173 -1400700841 1369539189 -962687230
            -1420177362 -769974139 -1634075802 -1465086216</internalNodes>
          <leafValues>
            -7.1186882257461548e-001 2.6908189058303833e-001</leafValues></_>
        <_>
          <internalNodes>
            0 -1 102 -29110642 1443922130 1879507270 -1001291753
            321847808 -780082774 -936844598 1342671371</internalNodes>
          <leafValues>
            -4.7496303915977478e-001 4.1413724422454834e-001</leafValues></_>
        <_>
          <internalNodes>
            0 -1 57 -78187657 -330673968 16777483 185114635 -2130476159
            -1224507000 -1584870432 998805180</internalNodes>
          <leafValues>
            -5.5678296089172363e-001 3.0799487233161926e-001</leafValues></_></weakClassifiers></_>
    <!-- stage 10 -->
    <_>
      <maxWeakCount>10</maxWeakCount>
      <stageThreshold>-2.0143282413482666e+000</stageThreshold>
      <weakClassifiers>
        <_>
          <internalNodes>
            0 -1 42 -1806577227 -707538691 -1020984353 -12516963
            545366200 -1147626622 321427887 -125066869</internalNodes>
          <leafValues>
            -6.5452206134796143e-001 2.9988330602645874e-001</leafValues></_>
        <_>
          <internalNodes>
            0 -1 31 -1063005237 -892989010 -577647808 -76047606
            1216449259 -825629585 -1075070970 -67912733</internalNodes>
          <leafValues>
            -5.4118692874908447e-001 3.2528162002563477e-001</leafValues></_>
        <_>
          <internalNodes>
            0 -1 73 -44440745 -48655993 16941263 -16707193 -1549621037
            -2147123054 462096735 -992640029</internalNodes>
          <leafValues>
            -5.3013962507247925e-001 3.3740794658660889e-001</leafValues></_>
        <_>
          <internalNodes>
            0 -1 66 -711792861 -1032972769 -405284595 -300793537
            -1545602765 -751584585 -122035452 -323162660</internalNodes>
          <leafValues>
            -7.0748805999755859e-001 2.6879984140396118e-001</leafValues></_>
        <_>
          <internalNodes>
            0 -1 93 -158737692 -602883446 49737351 1908745204 1566030562
            752827372 354336670 327888091</internalNodes>
          <leafValues>
            -3.6297401785850525e-001 4.6862462162971497e-001</leafValues></_>
        <_>
          <internalNodes>
            0 -1 92 -221056577 -167542525 2038797681 1718879889
            -1702440265 1938399533 -1464158091 -118747004</internalNodes>
          <leafValues>
            -6.6728615760803223e-001 2.7482086420059204e-001</leafValues></_>
        <_>
          <internalNodes>
            0 -1 40 -1314724171 -720138237 1090671045 286458176
            847372683 -251559803 856320249 753787125</internalNodes>
          <leafValues>
            -6.3104861974716187e-001 2.6156818866729736e-001</leafValues></_>
        <_>
          <internalNodes>
            0 -1 1 1116711907 352452928 402739978 202063944 985735593
            1252163881 1261082281 747633587</internalNodes>
          <leafValues>
            -5.2008140087127686e-001 3.3982107043266296e-001</leafValues></_>
        <_>
          <internalNodes>
            0 -1 96 -1756302374 1968279891 17401939 -728166246
            -519054784 1896450183 19094502 1890021907</internalNodes>
          <leafValues>
            -6.6446417570114136e-001 2.6551750302314758e-001</leafValues></_>
        <_>
          <internalNodes>
            0 -1 53 -798639504 1904300549 -1056931825 1159016451
            1350587035 -1190526845 1761806843 1318691653</internalNodes>
          <leafValues>
            -4.7613069415092468e-001 3.7148365378379822e-001</leafValues></_></weakClassifiers></_>
    <!-- stage 11 -->
    <_>
      <maxWeakCount>11</maxWeakCount>
      <stageThreshold>-1.5946162939071655e+000</stageThreshold>
      <weakClassifiers>
        <_>
          <internalNodes>
            0 -1 6 -732854305 -128892447 -795770469 -36237229
            -1061113669 2131361962 -1177879365 -1214010437</internalNodes>
          <leafValues>
            -7.1947526931762695e-001 1.2913906574249268e-001</leafValues></_>
        <_>
          <internalNodes>
            0 -1 32 -1391519349 -498425006 -1056606912 -162495784
            -301154038 -251419611 -926171129 -169362569</internalNodes>
          <leafValues>
            -5.9257876873016357e-001 2.3620516061782837e-001</leafValues></_>
        <_>
          <internalNodes>
            0 -1 56 -144838721 -398765639 -65877034 -286500486
            -929444363 -608623477 -89457353 -923219460</internalNodes>
          <leafValues>
            -7.0640856027603149e-001 2.3055203258991241e-001</leafValues></_>
        <_>
          <internalNodes>
            0 -1 79 -1094240423 -715312173 -708713585 1911374227
            -490484569 -213417450 1939272651 1043358324</internalNodes>
          <leafValues>
            -6.5461105108261108e-001 2.4749901890754700e-001</leafValues></_>
        <_>
          <internalNodes>
            0 -1 10 -719293608 1224868106 1434849446 353583701 105980106
            571523584 1351245999 169542394</internalNodes>
          <leafValues>
            -4.5000201463699341e-001 3.6009657382965088e-001</leafValues></_>
        <_>
          <internalNodes>
            0 -1 84 269599231 -1677684480 -2130603526 -201031141
            -1735882569 -1744559991 -1714910812 -2071428062</internalNodes>
          <leafValues>
            -6.8654429912567139e-001 2.4042756855487823e-001</leafValues></_>
        <_>
          <internalNodes>
            0 -1 95 -678502542 -788397815 8716291 806043777 -645496566
            -2012508029 -2013232597 1681082375</internalNodes>
          <leafValues>
            -4.9874183535575867e-001 2.9374787211418152e-001</leafValues></_>
        <_>
          <internalNodes>
            0 -1 37 -1522355834 -2084536295 -1054846892 -2021146614
            2043435681 939589768 184576475 1758270145</internalNodes>
          <leafValues>
            -7.1235775947570801e-001 2.2511099278926849e-001</leafValues></_>
        <_>
          <internalNodes>
            0 -1 69 1897460278 8438296 1073741854 932366345 998892067
            -2002714112 -2004842411 1939374753</internalNodes>
          <leafValues>
            -6.9771510362625122e-001 2.0593842864036560e-001</leafValues></_>
        <_>
          <internalNodes>
            0 -1 63 -770465710 496226642 -2036834915 202590623
            -1744557640 966722178 -1647277633 -655005173</internalNodes>
          <leafValues>
            -4.9628582596778870e-001 3.1092274188995361e-001</leafValues></_>
        <_>
          <internalNodes>
            0 -1 0 1674220168 1498259750 -1866100410 457508978
            1641647608 -758423282 1266773736 122376431</internalNodes>
          <leafValues>
            -4.3109923601150513e-001 3.8585829734802246e-001</leafValues></_></weakClassifiers></_>
    <!-- stage 12 -->
    <_>
      <maxWeakCount>11</maxWeakCount>
      <stageThreshold>-1.6962426900863647e+000</stageThreshold>
      <weakClassifiers>
        <_>
          <internalNodes>
            0 -1 25 1360138730 -251592495 289477106 -48688877
            -2012705877 2056095897 -2137421633 -1283227501</internalNodes>
          <leafValues>
            -6.6236251592636108e-001 1.0464058071374893e-001</leafValues></_>
        <_>
          <internalNodes>
            0 -1 28 -385310837 -713072322 -1056956148 1908387931
            -339105653 -367001462 -2112978549 -309333769</internalNodes>
          <leafValues>
            -4.8523578047752380e-001 3.2026639580726624e-001</leafValues></_>
        <_>
          <internalNodes>
            0 -1 58 -1501129459 -825323407 -79437082 -1023528868
            -396625293 -959708788 -67375321 -388169844</internalNodes>
          <leafValues>
            -6.1816358566284180e-001 2.4941448867321014e-001</leafValues></_>
        <_>
          <internalNodes>
            0 -1 74 1359003759 490733825 497 2057193617 1879607515
            -1711177599 327188748 2128599983</internalNodes>
          <leafValues>
            -4.6274402737617493e-001 3.1530138850212097e-001</leafValues></_>
        <_>
          <internalNodes>
            0 -1 72 -123735073 -170392299 -871272170 -268549174
            -740165451 -369385461 -272195324 -18300000</internalNodes>
          <leafValues>
            -5.8069521188735962e-001 2.5847241282463074e-001</leafValues></_>
        <_>
          <internalNodes>
            0 -1 21 1493612936 -617143704 1554345660 1445950568
            -832428338 511541019 1080554971 1897624207</internalNodes>
          <leafValues>
            -3.6564242839813232e-001 4.5922785997390747e-001</leafValues></_>
        <_>
          <internalNodes>
            0 -1 82 -1604622283 -1764027055 -2130112309 -1342635046
            -1954422232 -1721532272 -601300815 -357632903</internalNodes>
          <leafValues>
            -5.3158020973205566e-001 2.5207254290580750e-001</leafValues></_>
        <_>
          <internalNodes>
            0 -1 101 227843984 294768059 -1794996736 -686619303
            949616642 1197555853 1513546058 88683200</internalNodes>
          <leafValues>
            -5.4718041419982910e-001 2.9697442054748535e-001</leafValues></_>
        <_>
          <internalNodes>
            0 -1 34 -125463352 -524086975 -1862258528 -66658088
            -511669681 1554583556 -1065440251 1088922243</internalNodes>
          <leafValues>
            -6.0705763101577759e-001 2.3868802189826965e-001</leafValues></_>
        <_>
          <internalNodes>
            0 -1 18 -272900648 -1677721606 754896829 804257598
            -537460555 -1628176393 -436867475 -344859180</internalNodes>
          <leafValues>
            -3.6904585361480713e-001 4.3470799922943115e-001</leafValues></_>
        <_>
          <internalNodes>
            0 -1 90 -356259042 823132357 -1878982527 1603485954
            -477527932 -1189961600 -2088071740 2022189463</internalNodes>
          <leafValues>
            -5.4705911874771118e-001 2.5976067781448364e-001</leafValues></_></weakClassifiers></_></stages>
  <features>
    <_>
      <rect>
        0 0 1 2</rect></_>
    <_>
      <rect>
        0 0 3 3</rect></_>
    <_>
      <rect>
        0 0 3 4</rect></_>
    <_>
      <rect>
        0 0 3 5</rect></_>
    <_>
      <rect>
        0 0 4 4</rect></_>
    <_>
      <rect>
        0 0 5 3</rect></_>
    <_>
      <rect>
        0 0 7 2</rect></_>
    <_>
      <rect>
        0 0 8 2</rect></_>
    <_>
      <rect>
        0 1 1 2</rect></_>
    <_>
      <rect>
        0 2 1 1</rect></_>
    <_>
      <rect>
        0 2 1 2</rect></_>
    <_>
      <rect>
        0 2 3 4</rect></_>
    <_>
      <rect>
        0 3 3 4</rect></_>
    <_>
      <rect>
        0 5 4 1</rect></_>
    <_>
      <rect>
        0 7 3 1</rect></_>
    <_>
      <rect>
        1 0 3 3</rect></_>
    <_>
      <rect>
        1 0 4 2</rect></_>
    <_>
      <rect>
        1 0 4 3</rect></_>
    <_>
      <rect>
        1 0 5 1</rect></_>
    <_>
      <rect>
        1 0 5 2</rect></_>
    <_>
      <rect>
        1 0 8 3</rect></_>
    <_>
      <rect>
        1 1 1 2</rect></_>
    <_>
      <rect>
        1 2 4 4</rect></_>
    <_>
      <rect>
        1 6 2 3</rect></_>
    <_>
      <rect>
        1 9 2 1</rect></_>
    <_>
      <rect>
        1 10 5 1</rect></_>
    <_>
      <rect>
        1 12 1 1</rect></_>
    <_>
      <rect>
        2 0 3 2</rect></_>
    <_>
      <rect>
        2 0 3 3</rect></_>
    <_>
      <rect>
        2 0 3 4</rect></_>
    <_>
      <rect>
        2 4 3 1</rect></_>
    <_>
      <rect>
        2 8 1 1</rect></_>
    <_>
      <rect>
        2 9 1 2</rect></_>
    <_>
      <rect>
        2 10 1 1</rect></_>
    <_>
      <rect>
        2 12 1 1</rect></_>
    <_>
      <rect>
        3 1 4 2</rect></_>
    <_>
      <rect>
        4 0 1 1</rect></_>
    <_>
      <rect>
        4 0 3 2</rect></_>
    <_>
      <rect>
        4 0 7 2</rect></_>
    <_>
      <rect>
        4 0 7 4</rect></_>
    <_>
      <rect>
        6 0 2 2</rect></_>
    <_>
      <rect>
        6 0 6 2</rect></_>
    <_>
      <rect>
        6 1 6 1</rect></_>
    <_>
      <rect>
        6 2 3 1</rect></_>
    <_>
      <rect>
        6 9 1 2</rect></_>
    <_>
      <rect>
        6 11 1 1</rect></_>
    <_>
      <rect>
        7 0 5 2</rect></_>
    <_>
      <rect>
        7 2 4 3</rect></_>
    <_>
      <rect>
        7 9 1 1</rect></_>
    <_>
      <rect>
        7 10 1 1</rect></_>
    <_>
      <rect>
        8 0 4 2</rect></_>
    <_>
      <rect>
        8 0 5 3</rect></_>
    <_>
      <rect>
        8 1 3 1</rect></_>
    <_>
      <rect>
        8 1 3 2</rect></_>
    <_>
      <rect>
        8 7 1 1</rect></_>
    <_>
      <rect>
        8 8 1 1</rect></_>
    <_>
      <rect>
        8 11 1 1</rect></_>
    <_>
      <rect>
        9 3 3 4</rect></_>
    <_>
      <rect>
        9 6 1 1</rect></_>
    <_>
      <rect>
        9 12 1 1</rect></_>
    <_>
      <rect>
        10 0 4 3</rect></_>
    <_>
      <rect>
        10 1 1 1</rect></_>
    <_>
      <rect>
        10 1 2 1</rect></_>
    <_>
      <rect>
        10 1 3 1</rect></_>
    <_>
      <rect>
        10 5 3 3</rect></_>
    <_>
      <rect>
        10 8 1 1</rect></_>
    <_>
      <rect>
        10 9 1 1</rect></_>
    <_>
      <rect>
        10 12 1 1</rect></_>
    <_>
      <rect>
        11 0 4 3</rect></_>
    <_>
      <rect>
        11 5 3 3</rect></_>
    <_>
      <rect>
        11 9 1 1</rect></_>
    <_>
      <rect>
        11 9 2 2</rect></_>
    <_>
      <rect>
        11 12 1 1</rect></_>
    <_>
      <rect>
        12 0 4 4</rect></_>
    <_>
      <rect>
        12 1 4 2</rect></_>
    <_>
      <rect>
        12 6 1 1</rect></_>
    <_>
      <rect>
        12 6 3 3</rect></_>
    <_>
      <rect>
        13 0 2 2</rect></_>
    <_>
      <rect>
        13 1 4 3</rect></_>
    <_>
      <rect>
        13 2 1 1</rect></_>
    <_>
      <rect>
        13 3 4 3</rect></_>
    <_>
      <rect>
        14 2 1 1</rect></_>
    <_>
      <rect>
        14 3 1 1</rect></_>
    <_>
      <rect>
        14 12 1 1</rect></_>
    <_>
      <rect>
        14 12 3 1</rect></_>
    <_>
      <rect>
        15 0 3 4</rect></_>
    <_>
      <rect>
        15 10 1 1</rect></_>
    <_>
      <rect>
        15 12 1 1</rect></_>
    <_>
      <rect>
        16 4 3 3</rect></_>
    <_>
      <rect>
        16 5 3 3</rect></_>
    <_>
      <rect>
        16 6 2 3</rect></_>
    <_>
      <rect>
        16 6 3 3</rect></_>
    <_>
      <rect>
        16 12 1 1</rect></_>
    <_>
      <rect>
        17 0 1 1</rect></_>
    <_>
      <rect>
        17 6 1 1</rect></_>
    <_>
      <rect>
        19 6 2 3</rect></_>
    <_>
      <rect>
        19 8 2 2</rect></_>
    <_>
      <rect>
        19 9 2 2</rect></_>
    <_>
      <rect>
        19 12 1 1</rect></_>
    <_>
      <rect>
        20 1 1 1</rect></_>
    <_>
      <rect>
        20 2 1 1</rect></_>
    <_>
      <rect>
        22 3 1 1</rect></_>
    <_>
      <rect>
        22 9 1 2</rect></_></features></cascade>
</opencv_storage>
