<?xml version="1.0" encoding="utf-8"?>
<opencv_storage>
<cascade>
  <stageType>BOOST</stageType>
  <featureType>LBP</featureType>
  <height>15</height>
  <width>25</width>
  <stageParams>
    <boostType>GAB</boostType>
    <minHitRate>9.9900001287460327e-001</minHitRate>
    <maxFalseAlarm>5.0000000000000000e-001</maxFalseAlarm>
    <weightTrimRate>9.4999999999999996e-001</weightTrimRate>
    <maxDepth>1</maxDepth>
    <maxWeakCount>100</maxWeakCount></stageParams>
  <featureParams>
    <maxCatCount>256</maxCatCount>
    <featSize>1</featSize></featureParams>
  <stageNum>12</stageNum>
  <stages>
    <!-- stage 0 -->
    <_>
      <maxWeakCount>6</maxWeakCount>
      <stageThreshold>-2.2980761528015137e+000</stageThreshold>
      <weakClassifiers>
        <_>
          <internalNodes>
            0 -1 34 -275712521 -4203041 -519990435 -844377 -125772289
            -73688693 -74711109 -531465</internalNodes>
          <leafValues>
            -8.4109789133071899e-001 5.1309406757354736e-001</leafValues></_>
        <_>
          <internalNodes>
            0 -1 84 -203818208 -577646433 -778386999 -48266867
            -619974417 -1172721494 -384066901 -856163697</internalNodes>
          <leafValues>
            -7.3290914297103882e-001 4.4765350222587585e-001</leafValues></_>
        <_>
          <internalNodes>
            0 -1 92 -136584194 -287319587 -779370017 -420687394
            -476318281 -1180983145 -607147401 -286458884</internalNodes>
          <leafValues>
            -7.6555103063583374e-001 3.4261837601661682e-001</leafValues></_>
        <_>
          <internalNodes>
            0 -1 9 -446904926 -158232098 -721301058 -6422462 -83100486
            -1146498901 -1123513861 1157741372</internalNodes>
          <leafValues>
            -8.1878376007080078e-001 2.7810218930244446e-001</leafValues></_>
        <_>
          <internalNodes>
            0 -1 67 1162981155 -77667649 -452853671 -2108540 -1190056469
            377782415 -1131189249 217927857</internalNodes>
          <leafValues>
            -6.0350030660629272e-001 3.7092345952987671e-001</leafValues></_>
        <_>
          <internalNodes>
            0 -1 161 -644555650 -183778941 -1874750245 -266358643
            2131691520 816316939 -351855853 1357361303</internalNodes>
          <leafValues>
            -7.1118408441543579e-001 3.5559666156768799e-001</leafValues></_></weakClassifiers></_>
    <!-- stage 1 -->
    <_>
      <maxWeakCount>5</maxWeakCount>
      <stageThreshold>-1.5019223690032959e+000</stageThreshold>
      <weakClassifiers>
        <_>
          <internalNodes>
            0 -1 6 -405670921 -74719969 -721169955 -16314017 -75460421
            -1147598706 -616187461 -2649197</internalNodes>
          <leafValues>
            -8.3055865764617920e-001 4.0565177798271179e-001</leafValues></_>
        <_>
          <internalNodes>
            0 -1 102 -414187145 -539270829 -1224425001 -3423909
            -87900693 -1148481397 1804816379 -1206609217</internalNodes>
          <leafValues>
            -7.4932956695556641e-001 2.9524797201156616e-001</leafValues></_>
        <_>
          <internalNodes>
            0 -1 136 -744761377 -74854221 -1291331343 -417414658
            -359797273 -21266046 -812921883 -21193996</internalNodes>
          <leafValues>
            -6.2296688556671143e-001 3.2353344559669495e-001</leafValues></_>
        <_>
          <internalNodes>
            0 -1 140 -539754706 -170438158 -1879015075 270241887
            -2063496892 -1316912999 -750626822 1693952695</internalNodes>
          <leafValues>
            -7.1286356449127197e-001 3.3431339263916016e-001</leafValues></_>
        <_>
          <internalNodes>
            0 -1 1 1917559000 1394176282 -1609989556 1497367586
            1627390462 -587099444 168373130 225128687</internalNodes>
          <leafValues>
            -4.2829260230064392e-001 4.6729594469070435e-001</leafValues></_></weakClassifiers></_>
    <!-- stage 2 -->
    <_>
      <maxWeakCount>8</maxWeakCount>
      <stageThreshold>-2.5391063690185547e+000</stageThreshold>
      <weakClassifiers>
        <_>
          <internalNodes>
            0 -1 35 17950199 -36217391 -788459041 -4247073 -783750913
            -73693031 -74798593 -4748361</internalNodes>
          <leafValues>
            -8.3913046121597290e-001 4.9615383148193359e-001</leafValues></_>
        <_>
          <internalNodes>
            0 -1 20 -1383336020 -476986468 -1795046977 -270564977
            -108537089 -1282964853 -74470541 -169362573</internalNodes>
          <leafValues>
            -7.9841411113739014e-001 3.6214521527290344e-001</leafValues></_>
        <_>
          <internalNodes>
            0 -1 93 -805306369 -286278369 -71829505 -286985298
            -1074004497 -67895345 -137 -387121156</internalNodes>
          <leafValues>
            -7.7658510208129883e-001 3.9068198204040527e-001</leafValues></_>
        <_>
          <internalNodes>
            0 -1 96 -437130953 -170157703 -783740449 -544242739
            -368865033 -72842353 -7677013 687141871</internalNodes>
          <leafValues>
            -7.0841920375823975e-001 3.8112553954124451e-001</leafValues></_>
        <_>
          <internalNodes>
            0 -1 104 -1519178433 -536374465 -484467913 -856776516
            -1315189385 -51775825 -19169680 -1393755412</internalNodes>
          <leafValues>
            -7.4795323610305786e-001 3.3375978469848633e-001</leafValues></_>
        <_>
          <internalNodes>
            0 -1 126 -237837041 -547437859 -922091441 -1943067429
            -1585206700 -790517611 -1198811269 1625678731</internalNodes>
          <leafValues>
            -7.2840476036071777e-001 3.0354171991348267e-001</leafValues></_>
        <_>
          <internalNodes>
            0 -1 141 -478182561 657648123 937076189 1995699410
            -644113082 -219566936 -1181697983 -52629520</internalNodes>
          <leafValues>
            -6.2548273801803589e-001 3.2919046282768250e-001</leafValues></_>
        <_>
          <internalNodes>
            0 -1 50 -269484125 -65537 -9 -131076 1996423167 -453115905
            1744699391 1978793983</internalNodes>
          <leafValues>
            -4.1245609521865845e-001 5.6379187107086182e-001</leafValues></_></weakClassifiers></_>
    <!-- stage 3 -->
    <_>
      <maxWeakCount>7</maxWeakCount>
      <stageThreshold>-2.8064172267913818e+000</stageThreshold>
      <weakClassifiers>
        <_>
          <internalNodes>
            0 -1 113 1073692671 -524289 -17563649 -1 -1 -131137 -1
            -212995</internalNodes>
          <leafValues>
            -8.4543496370315552e-001 5.4223966598510742e-001</leafValues></_>
        <_>
          <internalNodes>
            0 -1 100 -1354780673 -285278209 -8388611 -1359020033
            -41943041 -24593 -137 -318963716</internalNodes>
          <leafValues>
            -8.3121001720428467e-001 4.9580112099647522e-001</leafValues></_>
        <_>
          <internalNodes>
            0 -1 26 2071459815 1339635165 -9068545 -33818157 -393348609
            -1470725 -118298123 -168301321</internalNodes>
          <leafValues>
            -7.9711848497390747e-001 5.3714877367019653e-001</leafValues></_>
        <_>
          <internalNodes>
            0 -1 117 -285474817 -155291655 -1 -1359021073 2147352439 -65
            -142803115 -386597040</internalNodes>
          <leafValues>
            -7.9428493976593018e-001 4.8917910456657410e-001</leafValues></_>
        <_>
          <internalNodes>
            0 -1 32 687013819 -270542338 -1823516163 -268977227
            2072505343 -24132677 1939864495 1845493559</internalNodes>
          <leafValues>
            -7.2545164823532104e-001 5.3952401876449585e-001</leafValues></_>
        <_>
          <internalNodes>
            0 -1 163 -83886081 -2441289 2128608991 -285286465 -17694969
            -139067393 -4198544 -419561643</internalNodes>
          <leafValues>
            -6.1890423297882080e-001 6.3536918163299561e-001</leafValues></_>
        <_>
          <internalNodes>
            0 -1 75 -1386299425 -772751038 -1996410401 -6823597
            -92177477 -1951818357 428219327 503124405</internalNodes>
          <leafValues>
            -6.6998904943466187e-001 5.4101145267486572e-001</leafValues></_></weakClassifiers></_>
    <!-- stage 4 -->
    <_>
      <maxWeakCount>9</maxWeakCount>
      <stageThreshold>-2.1354665756225586e+000</stageThreshold>
      <weakClassifiers>
        <_>
          <internalNodes>
            0 -1 76 -640295617 -144846689 -779529761 -10645093
            -638469957 -72643653 -1161252869 -57951813</internalNodes>
          <leafValues>
            -8.2782477140426636e-001 2.9549250006675720e-001</leafValues></_>
        <_>
          <internalNodes>
            0 -1 28 -304088625 -422706853 1093048564 -537945638
            -108418385 -1182555507 -343160205 -186123469</internalNodes>
          <leafValues>
            -7.7933764457702637e-001 2.7026337385177612e-001</leafValues></_>
        <_>
          <internalNodes>
            0 -1 135 -524337 -165950153 -733359970 -3174982 -744559405
            -756447601 -538187247 -205908</internalNodes>
          <leafValues>
            -6.6467511653900146e-001 2.9031237959861755e-001</leafValues></_>
        <_>
          <internalNodes>
            0 -1 106 -1009144481 -1852746881 16879775 -581467950
            -100421141 -1685028725 -1744071185 552718063</internalNodes>
          <leafValues>
            -5.1847666501998901e-001 4.5219939947128296e-001</leafValues></_>
        <_>
          <internalNodes>
            0 -1 162 -142936610 -774192256 277872798 2023195665
            -120932268 -111443773 -123421978 -193475849</internalNodes>
          <leafValues>
            -6.4075559377670288e-001 3.2496905326843262e-001</leafValues></_>
        <_>
          <internalNodes>
            0 -1 7 -498926204 -1269235690 285280554 1338487257
            1761620427 -141881205 2030295243 1710584705</internalNodes>
          <leafValues>
            -6.4430952072143555e-001 3.0235031247138977e-001</leafValues></_>
        <_>
          <internalNodes>
            0 -1 82 -203950725 -287764405 1397326811 -431303762
            -540357737 -315436902 -339137805 -321336360</internalNodes>
          <leafValues>
            -6.7306548357009888e-001 3.0964571237564087e-001</leafValues></_>
        <_>
          <internalNodes>
            0 -1 177 -1985948912 520835345 -1065324216 1063063809
            -71301395 59065019 -623319589 89076506</internalNodes>
          <leafValues>
            -4.7534087300300598e-001 4.1400584578514099e-001</leafValues></_>
        <_>
          <internalNodes>
            0 -1 109 -238618639 13734225 -2147464965 1536461275
            -1710112110 -661978727 -561067883 2080150244</internalNodes>
          <leafValues>
            -6.4015460014343262e-001 2.8163641691207886e-001</leafValues></_></weakClassifiers></_>
    <!-- stage 5 -->
    <_>
      <maxWeakCount>14</maxWeakCount>
      <stageThreshold>-2.1616363525390625e+000</stageThreshold>
      <weakClassifiers>
        <_>
          <internalNodes>
            0 -1 59 -2091072009 -242148079 -1336552745 -36188075
            -132056321 -2551637 -1979577157 -141096061</internalNodes>
          <leafValues>
            -7.7804017066955566e-001 1.4058776199817657e-001</leafValues></_>
        <_>
          <internalNodes>
            0 -1 5 583531400 -15266559 1392705543 -943881717 839096811
            696877066 2047054731 -322446477</internalNodes>
          <leafValues>
            -6.9648629426956177e-001 2.1322898566722870e-001</leafValues></_>
        <_>
          <internalNodes>
            0 -1 116 2115888433 -300318153 1227171644 -357651798
            -1198527209 -409358081 -387715467 -1090722108</internalNodes>
          <leafValues>
            -6.8778014183044434e-001 2.2874642908573151e-001</leafValues></_>
        <_>
          <internalNodes>
            0 -1 124 -793842913 -144746411 -2129604325 2060948161
            -611999709 1552031872 -1056873877 1558167583</internalNodes>
          <leafValues>
            -6.0931414365768433e-001 3.0115389823913574e-001</leafValues></_>
        <_>
          <internalNodes>
            0 -1 79 -1429036746 -154238501 -771125178 1991512829
            -1870092281 1084227729 -754335053 1826922664</internalNodes>
          <leafValues>
            -7.2048324346542358e-001 2.0987583696842194e-001</leafValues></_>
        <_>
          <internalNodes>
            0 -1 36 -381619834 -233238389 16863385 1293357441 -242704221
            2022572042 -1324662133 -997854975</internalNodes>
          <leafValues>
            -7.0876210927963257e-001 2.0893615484237671e-001</leafValues></_>
        <_>
          <internalNodes>
            0 -1 11 1160802660 1704232525 -1845164982 16842818
            -252071446 -402435951 453947019 203369407</internalNodes>
          <leafValues>
            -4.2544102668762207e-001 3.5884529352188110e-001</leafValues></_>
        <_>
          <internalNodes>
            0 -1 112 -21172995 -2134251 -947952729 -1677774849
            -155394358 -2073265042 1559461055 -1643162529</internalNodes>
          <leafValues>
            -2.4836084246635437e-001 6.2785977125167847e-001</leafValues></_>
        <_>
          <internalNodes>
            0 -1 134 -1454165978 -2087714552 -1287008002 1877619355
            -2117416937 -1096570878 -1029638096 -623318108</internalNodes>
          <leafValues>
            -6.2763917446136475e-001 2.3607149720191956e-001</leafValues></_>
        <_>
          <internalNodes>
            0 -1 54 -790920029 -498990656 1362114770 -54076800
            -1547130785 1535800131 -1575835115 1088942327</internalNodes>
          <leafValues>
            -6.2718623876571655e-001 2.3827542364597321e-001</leafValues></_>
        <_>
          <internalNodes>
            0 -1 154 1336730821 -594878945 2013137809 1540353788
            -427830282 1869414366 913643203 97325727</internalNodes>
          <leafValues>
            -3.6725938320159912e-001 4.1595211625099182e-001</leafValues></_>
        <_>
          <internalNodes>
            0 -1 111 -225911836 -938753659 -1056866285 -343682421
            -469121997 -1878818807 -628424185 -807474552</internalNodes>
          <leafValues>
            -5.2053278684616089e-001 2.7532091736793518e-001</leafValues></_>
        <_>
          <internalNodes>
            0 -1 183 -1207904018 -1332886443 -134133514 -420903601
            319329031 117936272 -2003694970 578259619</internalNodes>
          <leafValues>
            -5.2732992172241211e-001 2.9334846138954163e-001</leafValues></_>
        <_>
          <internalNodes>
            0 -1 148 1309738596 2014349880 -2109567227 299040816
            1451426275 1790660808 25995912 296429198</internalNodes>
          <leafValues>
            -5.2314567565917969e-001 2.8851416707038879e-001</leafValues></_></weakClassifiers></_>
    <!-- stage 6 -->
    <_>
      <maxWeakCount>12</maxWeakCount>
      <stageThreshold>-2.1215388774871826e+000</stageThreshold>
      <weakClassifiers>
        <_>
          <internalNodes>
            0 -1 69 -440926217 -235316833 -1279805985 -551816749
            -892683777 -1126048817 -7729221 -274337609</internalNodes>
          <leafValues>
            -7.2618615627288818e-001 1.9730509817600250e-001</leafValues></_>
        <_>
          <internalNodes>
            0 -1 52 -176694277 -337132065 -929956528 -71322634
            -796163793 -136859845 -5796762 -265</internalNodes>
          <leafValues>
            -5.2949768304824829e-001 4.1294974088668823e-001</leafValues></_>
        <_>
          <internalNodes>
            0 -1 132 -270696587 132106451 -1073561089 1845492723
            -1201673505 -416130822 -17241153 -1346732293</internalNodes>
          <leafValues>
            -5.9747648239135742e-001 3.3148983120918274e-001</leafValues></_>
        <_>
          <internalNodes>
            0 -1 101 -180893953 -420390541 -1598306721 -1359038154
            -632821763 -338703969 -353771659 -386334788</internalNodes>
          <leafValues>
            -7.0075976848602295e-001 2.5984710454940796e-001</leafValues></_>
        <_>
          <internalNodes>
            0 -1 144 -803940881 855925121 -1752098482 2080572243
            -108352939 -242513536 -1970167116 1693942467</internalNodes>
          <leafValues>
            -7.8046160936355591e-001 2.3448663949966431e-001</leafValues></_>
        <_>
          <internalNodes>
            0 -1 179 -1033575602 -784281399 1087416727 287681539
            -359737151 313853138 -1473598566 6225926</internalNodes>
          <leafValues>
            -4.2442610859870911e-001 3.6988112330436707e-001</leafValues></_>
        <_>
          <internalNodes>
            0 -1 98 -1344431310 -1814157469 -1946137415 -406899388
            692365807 957939807 -1079410445 -991149983</internalNodes>
          <leafValues>
            -6.5434986352920532e-001 2.1972218155860901e-001</leafValues></_>
        <_>
          <internalNodes>
            0 -1 18 1379152156 -9473894 278443430 300108180 -1367217410
            2000514380 69906895 296441999</internalNodes>
          <leafValues>
            -4.1436755657196045e-001 3.7946990132331848e-001</leafValues></_>
        <_>
          <internalNodes>
            0 -1 119 -1495396483 -419712561 -553046641 -356588886
            -384962442 -73462563 -1095133148 -1209483888</internalNodes>
          <leafValues>
            -5.8954697847366333e-001 2.6699501276016235e-001</leafValues></_>
        <_>
          <internalNodes>
            0 -1 77 -1056840412 -763362864 25231486 -1021763446
            151163043 -1333165175 318832810 210078106</internalNodes>
          <leafValues>
            -7.6427072286605835e-001 2.0968276262283325e-001</leafValues></_>
        <_>
          <internalNodes>
            0 -1 57 -1862168187 1893146905 17862939 1761607696
            -1333772155 1686667305 33087 1677887896</internalNodes>
          <leafValues>
            -5.0800639390945435e-001 2.8783997893333435e-001</leafValues></_>
        <_>
          <internalNodes>
            0 -1 114 1905914292 603996394 809668778 420511753
            -1291136478 -1718943607 -1577022944 2007794405</internalNodes>
          <leafValues>
            -7.2150117158889771e-001 1.9491761922836304e-001</leafValues></_></weakClassifiers></_>
    <!-- stage 7 -->
    <_>
      <maxWeakCount>14</maxWeakCount>
      <stageThreshold>-2.2841022014617920e+000</stageThreshold>
      <weakClassifiers>
        <_>
          <internalNodes>
            0 -1 56 -278277635 -149868455 -486293277 -12609769 -92087885
            -83154549 -81204785 -1347433597</internalNodes>
          <leafValues>
            -7.2727274894714355e-001 1.9047619402408600e-001</leafValues></_>
        <_>
          <internalNodes>
            0 -1 41 -1008874012 -412176210 -2128019006 -207628465
            -1475618565 -376469354 -477950410 -168559821</internalNodes>
          <leafValues>
            -6.8249666690826416e-001 2.1442650258541107e-001</leafValues></_>
        <_>
          <internalNodes>
            0 -1 129 -204506535 1573060870 1879187317 -141679681
            -922682225 -19711798 -311694913 -1099104565</internalNodes>
          <leafValues>
            -5.3672575950622559e-001 3.1438922882080078e-001</leafValues></_>
        <_>
          <internalNodes>
            0 -1 121 -621422601 -439117795 956404216 -294065229
            1703671399 -357594871 -70536428 -1130561884</internalNodes>
          <leafValues>
            -6.7917913198471069e-001 2.2644965350627899e-001</leafValues></_>
        <_>
          <internalNodes>
            0 -1 14 1447864580 1565182545 808542562 290511364 -243159926
            17498131 1095827627 474965131</internalNodes>
          <leafValues>
            -4.4011986255645752e-001 3.4242001175880432e-001</leafValues></_>
        <_>
          <internalNodes>
            0 -1 123 -551882993 -1148743221 70019 -602826669 -2121094999
            411207810 -1593767381 1725291207</internalNodes>
          <leafValues>
            -4.9102964997291565e-001 2.9761523008346558e-001</leafValues></_>
        <_>
          <internalNodes>
            0 -1 100 -1431862365 -322317965 270094868 -1461794408
            967379223 1602388106 -2098754954 -320020312</internalNodes>
          <leafValues>
            -7.5448864698410034e-001 1.8643580377101898e-001</leafValues></_>
        <_>
          <internalNodes>
            0 -1 107 -724287635 -1873690585 -502933289 -1076034091
            -926754131 1938784904 1686128895 438876197</internalNodes>
          <leafValues>
            -5.3421515226364136e-001 2.5893956422805786e-001</leafValues></_>
        <_>
          <internalNodes>
            0 -1 55 1367472432 437739525 -1793799680 1970816289
            -566105216 103156374 -463213217 789291093</internalNodes>
          <leafValues>
            -3.8719820976257324e-001 3.6628758907318115e-001</leafValues></_>
        <_>
          <internalNodes>
            0 -1 147 -1055665666 -736603888 340791470 -1139703549
            -2138324761 -642088804 503032688 -1676358734</internalNodes>
          <leafValues>
            -6.6523385047912598e-001 1.9503495097160339e-001</leafValues></_>
        <_>
          <internalNodes>
            0 -1 48 -2099865341 -677904138 -1878982135 -2075918331
            -2147282807 -1190592512 21563403 1726283907</internalNodes>
          <leafValues>
            -5.7543075084686279e-001 2.5906196236610413e-001</leafValues></_>
        <_>
          <internalNodes>
            0 -1 178 1841992794 1124455373 1115984052 -576087708
            -2144821133 688619539 -930562964 795859017</internalNodes>
          <leafValues>
            -4.1798800230026245e-001 3.3932375907897949e-001</leafValues></_>
        <_>
          <internalNodes>
            0 -1 72 -746425473 -1500184162 1946386643 -959708770
            1757546535 1686372739 -2082823211 -93017176</internalNodes>
          <leafValues>
            -5.8197623491287231e-001 2.4568602442741394e-001</leafValues></_>
        <_>
          <internalNodes>
            0 -1 33 1543495648 -4120 -134222877 -402653195 2143256503
            -402653185 -268468289 1845458339</internalNodes>
          <leafValues>
            -3.4768408536911011e-001 4.7962257266044617e-001</leafValues></_></weakClassifiers></_>
    <!-- stage 8 -->
    <_>
      <maxWeakCount>18</maxWeakCount>
      <stageThreshold>-2.2113428115844727e+000</stageThreshold>
      <weakClassifiers>
        <_>
          <internalNodes>
            0 -1 31 -946340959 1439408264 -654208683 1709129797
            1526968234 446333066 2067892467 -1445987961</internalNodes>
          <leafValues>
            -8.0960696935653687e-001 3.5761591047048569e-002</leafValues></_>
        <_>
          <internalNodes>
            0 -1 70 -1856114263 -1181499247 1096012176 -1623129641
            -490610244 2101575936 1250066859 -729052791</internalNodes>
          <leafValues>
            -6.0536330938339233e-001 2.6853254437446594e-001</leafValues></_>
        <_>
          <internalNodes>
            0 -1 29 -1571305502 688927891 285328378 2111811743
            -1425474561 -186936192 -1144514140 -525898857</internalNodes>
          <leafValues>
            -7.0233309268951416e-001 2.4493649601936340e-001</leafValues></_>
        <_>
          <internalNodes>
            0 -1 88 68285238 -967749292 285331966 2127757321 -1862227870
            -1196851045 -2139023136 2088993250</internalNodes>
          <leafValues>
            -7.5636637210845947e-001 2.1337200701236725e-001</leafValues></_>
        <_>
          <internalNodes>
            0 -1 150 -1210181574 -1323626080 1378927767 1377409137
            -1030782604 1762509633 -760500244 -95113610</internalNodes>
          <leafValues>
            -6.0633718967437744e-001 2.2817668318748474e-001</leafValues></_>
        <_>
          <internalNodes>
            0 -1 156 1900462322 -672864787 38617088 1896143184 179809411
            382976458 565690771 335221946</internalNodes>
          <leafValues>
            -4.2031505703926086e-001 3.9660578966140747e-001</leafValues></_>
        <_>
          <internalNodes>
            0 -1 19 1230963283 2130521417 -1074823320 1559160806
            -1078510502 2138996536 268385375 39815419</internalNodes>
          <leafValues>
            -3.1587105989456177e-001 5.0744777917861938e-001</leafValues></_>
        <_>
          <internalNodes>
            0 -1 138 -612204210 -753941750 -2113863237 949080212
            -1953986393 -1702852992 -1966471165 -1460370777</internalNodes>
          <leafValues>
            -5.5589103698730469e-001 3.0203428864479065e-001</leafValues></_>
        <_>
          <internalNodes>
            0 -1 61 -481830605 1356747093 16527 -625180544 134877368
            604672270 168534155 -1820030325</internalNodes>
          <leafValues>
            -5.1315599679946899e-001 3.0665418505668640e-001</leafValues></_>
        <_>
          <internalNodes>
            0 -1 49 965838209 -917499568 1610679714 2132101452
            1776978169 -382730103 -1560247599 1905428675</internalNodes>
          <leafValues>
            -6.5713357925415039e-001 2.5977611541748047e-001</leafValues></_>
        <_>
          <internalNodes>
            0 -1 58 1358983840 2006254246 554565672 847846534 1921444970
            285548859 2020022522 570925641</internalNodes>
          <leafValues>
            -4.9683812260627747e-001 2.9493474960327148e-001</leafValues></_>
        <_>
          <internalNodes>
            0 -1 103 -1433786995 -963603659 -754760755 1726779398
            -129248137 -876510075 -204755691 -564331580</internalNodes>
          <leafValues>
            -6.5875035524368286e-001 2.4095363914966583e-001</leafValues></_>
        <_>
          <internalNodes>
            0 -1 64 1610996987 1895981402 -787279487 -1660202938
            -662648429 -357695409 -1434005007 682076567</internalNodes>
          <leafValues>
            -4.1751191020011902e-001 3.9235424995422363e-001</leafValues></_>
        <_>
          <internalNodes>
            0 -1 158 -663500282 -1812988170 -67309915 -369513218
            255653623 491585253 1840897295 -1151136649</internalNodes>
          <leafValues>
            -3.3021968603134155e-001 5.0578588247299194e-001</leafValues></_>
        <_>
          <internalNodes>
            0 -1 168 -40330321 263903909 -881116185 2144305108
            -1126373724 310886139 77590722 836738953</internalNodes>
          <leafValues>
            -3.3061531186103821e-001 4.7657975554466248e-001</leafValues></_>
        <_>
          <internalNodes>
            0 -1 83 -751308449 -602439415 1393129787 -969768878
            -1723432421 -345028452 -1836328665 -424410180</internalNodes>
          <leafValues>
            -6.1773991584777832e-001 2.7793031930923462e-001</leafValues></_>
        <_>
          <internalNodes>
            0 -1 173 -81539457 -255221605 -1996220846 -260734967
            -224468924 -1272807223 403235720 1415047847</internalNodes>
          <leafValues>
            -4.5152255892753601e-001 3.7976801395416260e-001</leafValues></_>
        <_>
          <internalNodes>
            0 -1 171 310948683 293807471 1092919572 -852720931
            -670489242 873496659 420042014 87373545</internalNodes>
          <leafValues>
            -5.4899740219116211e-001 2.6721623539924622e-001</leafValues></_></weakClassifiers></_>
    <!-- stage 9 -->
    <_>
      <maxWeakCount>26</maxWeakCount>
      <stageThreshold>-2.9918801784515381e+000</stageThreshold>
      <weakClassifiers>
        <_>
          <internalNodes>
            0 -1 46 -268502017 -687644597 92279077 -145913443
            -1458906181 -125729094 -939276149 -405307261</internalNodes>
          <leafValues>
            -8.1758421659469604e-001 1.3909223675727844e-001</leafValues></_>
        <_>
          <internalNodes>
            0 -1 51 -1950895202 -500763246 199681 -24673976 35624558
            -1442673014 -642020570 -253245129</internalNodes>
          <leafValues>
            -6.8532174825668335e-001 2.8314492106437683e-001</leafValues></_>
        <_>
          <internalNodes>
            0 -1 128 1259218781 1556267014 -1862267690 2141049047
            -528430965 420716688 998726458 -90286070</internalNodes>
          <leafValues>
            -6.7372632026672363e-001 2.6283186674118042e-001</leafValues></_>
        <_>
          <internalNodes>
            0 -1 91 -1856941601 -468188909 17829975 -1911414576
            687866099 -1357839719 -2008962377 -1191409000</internalNodes>
          <leafValues>
            -5.7868683338165283e-001 2.9990980029106140e-001</leafValues></_>
        <_>
          <internalNodes>
            0 -1 13 -1022299896 -535735983 1363153157 390415104
            -1744791302 -653786998 759947 587793056</internalNodes>
          <leafValues>
            -6.6680806875228882e-001 2.6773673295974731e-001</leafValues></_>
        <_>
          <internalNodes>
            0 -1 90 -1445872827 -464857638 -921592743 1725206952
            1629212199 1904437513 -404499849 -323424068</internalNodes>
          <leafValues>
            -6.5855473279953003e-001 2.1411447227001190e-001</leafValues></_>
        <_>
          <internalNodes>
            0 -1 21 -170391420 1506360687 1871348152 503261864
            -1343881329 -1790130302 1025014778 2139872507</internalNodes>
          <leafValues>
            -3.3166915178298950e-001 5.1503467559814453e-001</leafValues></_>
        <_>
          <internalNodes>
            0 -1 74 -71959103 -1086236 -1745436875 -73138526 -1476471312
            -436961291 -1090684961 242842977</internalNodes>
          <leafValues>
            -3.1765133142471313e-001 5.3199857473373413e-001</leafValues></_>
        <_>
          <internalNodes>
            0 -1 81 -882097289 -393042923 -441347693 -290815944
            -2071265006 -1098249533 -877050891 -119752536</internalNodes>
          <leafValues>
            -7.0027762651443481e-001 2.5758147239685059e-001</leafValues></_>
        <_>
          <internalNodes>
            0 -1 25 1155781376 13076750 17235968 -677968498 587432661
            42139790 -2138857401 1822778295</internalNodes>
          <leafValues>
            -6.2745898962020874e-001 2.5370582938194275e-001</leafValues></_>
        <_>
          <internalNodes>
            0 -1 151 -1579337636 162727255 -175586465 -1235545825
            -1832091564 -473268224 -930821404 -91690956</internalNodes>
          <leafValues>
            -6.3601148128509521e-001 2.1205371618270874e-001</leafValues></_>
        <_>
          <internalNodes>
            0 -1 30 -131541004 -101094806 316085712 1549737763
            1609694968 -152829963 2143654123 571088875</internalNodes>
          <leafValues>
            -3.2251381874084473e-001 5.1226490736007690e-001</leafValues></_>
        <_>
          <internalNodes>
            0 -1 71 577614855 -99602366 -1570466685 -634880 76317096
            -1199151318 -1626668158 -1644436335</internalNodes>
          <leafValues>
            -4.9917137622833252e-001 3.2002782821655273e-001</leafValues></_>
        <_>
          <internalNodes>
            0 -1 174 -2110943684 1747309644 1669498757 502649844
            837069941 775227001 693411906 1500488703</internalNodes>
          <leafValues>
            -4.3863582611083984e-001 3.8716661930084229e-001</leafValues></_>
        <_>
          <internalNodes>
            0 -1 164 -715458113 -449213439 554713282 -360128302
            -1736261503 -1800927064 -1433569212 -185301276</internalNodes>
          <leafValues>
            -5.9504866600036621e-001 2.4288392066955566e-001</leafValues></_>
        <_>
          <internalNodes>
            0 -1 86 -644806603 -1719562095 -2118121017 -977203008
            -1341619981 -1686110208 528399 138846858</internalNodes>
          <leafValues>
            -5.5436307191848755e-001 3.3275622129440308e-001</leafValues></_>
        <_>
          <internalNodes>
            0 -1 85 -1438190863 -1559175008 402680051 -1249851372
            -1425976105 -1465900992 -785559541 258819224</internalNodes>
          <leafValues>
            -6.0694551467895508e-001 1.8588717281818390e-001</leafValues></_>
        <_>
          <internalNodes>
            0 -1 115 -1075834593 -465432568 -1878540139 -355860341
            453251383 1493373327 -354690608 -355941452</internalNodes>
          <leafValues>
            -5.7905119657516479e-001 2.6669764518737793e-001</leafValues></_>
        <_>
          <internalNodes>
            0 -1 22 1512737314 1577787416 486604819 -645856759 547029391
            -2146680291 873169546 1171853791</internalNodes>
          <leafValues>
            -4.0559944510459900e-001 3.8958474993705750e-001</leafValues></_>
        <_>
          <internalNodes>
            0 -1 63 -787447539 1690439691 -1609490026 -191561710
            -2134212593 2076223762 -526855998 -539823434</internalNodes>
          <leafValues>
            -3.8252553343772888e-001 3.6781609058380127e-001</leafValues></_>
        <_>
          <internalNodes>
            0 -1 122 1889556560 420904981 -1861709812 1520552271
            176693388 34261121 1076072985 204118047</internalNodes>
          <leafValues>
            -5.6243711709976196e-001 2.7027684450149536e-001</leafValues></_>
        <_>
          <internalNodes>
            0 -1 16 -524069406 84410564 -1325400053 -1551548404
            193038523 462520456 50495639 278366914</internalNodes>
          <leafValues>
            -6.1683613061904907e-001 2.1586808562278748e-001</leafValues></_>
        <_>
          <internalNodes>
            0 -1 137 -825472424 -517189842 -320046554 1434283115
            1576950917 -1395135044 1280800737 -1709621057</internalNodes>
          <leafValues>
            -3.4201103448867798e-001 4.4764792919158936e-001</leafValues></_>
        <_>
          <internalNodes>
            0 -1 44 -714914688 1662432541 1099997329 1369510019
            -367688691 974805137 2048366728 289432011</internalNodes>
          <leafValues>
            -4.4535288214683533e-001 3.0888131260871887e-001</leafValues></_>
        <_>
          <internalNodes>
            0 -1 180 -4804831 -1628704801 2146431742 -1070861573
            1332658007 1476229109 -683213314 -766611975</internalNodes>
          <leafValues>
            -3.5647562146186829e-001 4.0718114376068115e-001</leafValues></_>
        <_>
          <internalNodes>
            0 -1 175 -1599288095 1335665776 1352697235 1972880260
            -1337678033 -1998585456 544471611 400237843</internalNodes>
          <leafValues>
            -3.8401851058006287e-001 3.4140464663505554e-001</leafValues></_></weakClassifiers></_>
    <!-- stage 10 -->
    <_>
      <maxWeakCount>31</maxWeakCount>
      <stageThreshold>-2.9931330680847168e+000</stageThreshold>
      <weakClassifiers>
        <_>
          <internalNodes>
            0 -1 94 -537922753 -788299769 67175691 -788328445 1704323
            151060483 26271899 -1343575044</internalNodes>
          <leafValues>
            -6.9588553905487061e-001 1.4427860081195831e-001</leafValues></_>
        <_>
          <internalNodes>
            0 -1 131 -1059722113 1070530953 -847134453 806604179
            -2012551056 1510588597 -1836918565 -228349581</internalNodes>
          <leafValues>
            -6.6243404150009155e-001 2.6477324962615967e-001</leafValues></_>
        <_>
          <internalNodes>
            0 -1 99 -2023018961 -301206690 -923545441 -291212630
            -1616173725 -1416525822 772320610 -1057186120</internalNodes>
          <leafValues>
            -7.8799158334732056e-001 2.1516223251819611e-001</leafValues></_>
        <_>
          <internalNodes>
            0 -1 2 1108149302 860164358 18961408 965378074 268520110
            -1040170112 2099362187 1919361967</internalNodes>
          <leafValues>
            -3.3942037820816040e-001 4.3162307143211365e-001</leafValues></_>
        <_>
          <internalNodes>
            0 -1 34 -385303806 -633274110 134384132 588058759 -889027957
            -368703486 1212727945 -394014137</internalNodes>
          <leafValues>
            -6.2608617544174194e-001 2.4050846695899963e-001</leafValues></_>
        <_>
          <internalNodes>
            0 -1 143 -925764633 -709143621 -1602093039 -827284763
            -2102819193 -108066423 -468792796 2078079480</internalNodes>
          <leafValues>
            -5.7889741659164429e-001 2.2615551948547363e-001</leafValues></_>
        <_>
          <internalNodes>
            0 -1 27 1103602188 88018947 268517383 1367855379 -1149140589
            805404677 520855562 845656321</internalNodes>
          <leafValues>
            -3.8624545931816101e-001 3.1526249647140503e-001</leafValues></_>
        <_>
          <internalNodes>
            0 -1 12 625295607 604049665 83923104 -1343291376 -268369686
            553705480 1082165305 -981342207</internalNodes>
          <leafValues>
            -6.4388167858123779e-001 2.0649334788322449e-001</leafValues></_>
        <_>
          <internalNodes>
            0 -1 37 1283469894 -1098688679 1209079503 147004957
            1402544264 1628640289 1233816814 237002814</internalNodes>
          <leafValues>
            -5.1126706600189209e-001 2.5894016027450562e-001</leafValues></_>
        <_>
          <internalNodes>
            0 -1 92 -331225362 -967047207 1962976120 1792840650
            -1700134649 1877721862 2058082323 -453189960</internalNodes>
          <leafValues>
            -7.4862861633300781e-001 1.5328913927078247e-001</leafValues></_>
        <_>
          <internalNodes>
            0 -1 160 -25165985 -411041986 -16777475 2130181885
            2147384831 -285278346 1861609343 1626599031</internalNodes>
          <leafValues>
            -3.2272124290466309e-001 4.1953298449516296e-001</leafValues></_>
        <_>
          <internalNodes>
            0 -1 127 -235178858 33604160 50831371 1430634505 -510948864
            1342505888 -1048538891 -1146312239</internalNodes>
          <leafValues>
            -5.0690537691116333e-001 2.5625050067901611e-001</leafValues></_>
        <_>
          <internalNodes>
            0 -1 165 -1347819057 1329280963 805157754 1676275197
            1038870509 1441781591 1304231871 1071632383</internalNodes>
          <leafValues>
            -2.9121455550193787e-001 5.1530534029006958e-001</leafValues></_>
        <_>
          <internalNodes>
            0 -1 73 -1055731371 -292155319 -62712425 -319766437
            -1543339207 -293600381 -134201177 -466572860</internalNodes>
          <leafValues>
            -6.0953366756439209e-001 1.8850114941596985e-001</leafValues></_>
        <_>
          <internalNodes>
            0 -1 38 1800407684 969879842 25287914 1393632399 -301833663
            276824072 908262092 638332378</internalNodes>
          <leafValues>
            -4.5140734314918518e-001 3.2287591695785522e-001</leafValues></_>
        <_>
          <internalNodes>
            0 -1 74 -1844381312 -686204794 1954756987 -79437374
            -410844758 -595089391 -1308396101 -396502859</internalNodes>
          <leafValues>
            -3.9960989356040955e-001 3.9521428942680359e-001</leafValues></_>
        <_>
          <internalNodes>
            0 -1 159 -1969889372 1538071054 -1489805493 499989631
            -1264945581 1447771596 104974484 468328243</internalNodes>
          <leafValues>
            -4.3809136748313904e-001 3.3615639805793762e-001</leafValues></_>
        <_>
          <internalNodes>
            0 -1 130 -1067571919 1073811497 1073811791 588055891
            -1062361548 -1417314000 -1450841449 -1408718075</internalNodes>
          <leafValues>
            -5.8710902929306030e-001 1.9864243268966675e-001</leafValues></_>
        <_>
          <internalNodes>
            0 -1 15 1504547851 -1167330000 1876618308 2108632625
            -1090823173 -21004417 -1115740934 2053579763</internalNodes>
          <leafValues>
            -2.5014466047286987e-001 5.8051425218582153e-001</leafValues></_>
        <_>
          <internalNodes>
            0 -1 167 -1701590659 -1896358409 -1217466371 -983433367
            -2021761871 1392508927 1388443546 -290484496</internalNodes>
          <leafValues>
            -2.7894309163093567e-001 4.7689580917358398e-001</leafValues></_>
        <_>
          <internalNodes>
            0 -1 10 1415126615 1633863764 2013630080 2908297 1633368734
            -647009133 576383117 3386397</internalNodes>
          <leafValues>
            -4.8553153872489929e-001 2.3174364864826202e-001</leafValues></_>
        <_>
          <internalNodes>
            0 -1 78 -1765502185 1384157201 -805281791 -653918070
            -1862172541 134250496 -1543432789 -860261091</internalNodes>
          <leafValues>
            -5.2016299962997437e-001 2.4830548465251923e-001</leafValues></_>
        <_>
          <internalNodes>
            0 -1 65 -4241 -16777217 -131 -4 654112502 -940113921
            2130706430 1341980668</internalNodes>
          <leafValues>
            -3.0763196945190430e-001 4.8166182637214661e-001</leafValues></_>
        <_>
          <internalNodes>
            0 -1 172 -724807605 -171286120 1082228763 -1039957929
            -1073018202 562733082 1249903438 -854111725</internalNodes>
          <leafValues>
            -3.4141346812248230e-001 3.9228203892707825e-001</leafValues></_>
        <_>
          <internalNodes>
            0 -1 156 1507607483 1604241823 1562598440 1768182137
            162736513 29331137 -2085759592 204395434</internalNodes>
          <leafValues>
            -4.2827004194259644e-001 2.6613631844520569e-001</leafValues></_>
        <_>
          <internalNodes>
            0 -1 105 1904268087 -230682623 -1744694456 -246283780
            -1837006385 -89128958 -1837061454 -560152388</internalNodes>
          <leafValues>
            -3.8065239787101746e-001 3.3672326803207397e-001</leafValues></_>
        <_>
          <internalNodes>
            0 -1 0 2140519737 1446715734 539787912 -2146252964
            -1187300430 1917845902 -689601829 256208622</internalNodes>
          <leafValues>
            -4.2293170094490051e-001 2.8561872243881226e-001</leafValues></_>
        <_>
          <internalNodes>
            0 -1 169 -735979036 2022625312 16941198 -766345086
            -1031501820 545693825 143305221 6621446</internalNodes>
          <leafValues>
            -7.1722590923309326e-001 1.7073625326156616e-001</leafValues></_>
        <_>
          <internalNodes>
            0 -1 53 -1018851135 -1040184958 135471300 1985126481
            -2010472434 908066820 -1836235724 -1026311869</internalNodes>
          <leafValues>
            -4.9509671330451965e-001 2.2617919743061066e-001</leafValues></_>
        <_>
          <internalNodes>
            0 -1 152 -57094577 -742272752 -1861695045 1533103898
            1142952387 326730013 -828792562 188410577</internalNodes>
          <leafValues>
            -3.9813378453254700e-001 3.0414623022079468e-001</leafValues></_>
        <_>
          <internalNodes>
            0 -1 133 -1054694322 621084802 805306774 168955923
            -1937659882 16941062 -1606234412 2016920263</internalNodes>
          <leafValues>
            -7.6949173212051392e-001 1.4479196071624756e-001</leafValues></_></weakClassifiers></_>
    <!-- stage 11 -->
    <_>
      <maxWeakCount>47</maxWeakCount>
      <stageThreshold>-3.3478579521179199e+000</stageThreshold>
      <weakClassifiers>
        <_>
          <internalNodes>
            0 -1 8 -791377967 2031157441 268501273 1599426568 -880748398
            478881930 136366090 -136085104</internalNodes>
          <leafValues>
            -8.0562448501586914e-001 1.0709117352962494e-001</leafValues></_>
        <_>
          <internalNodes>
            0 -1 89 84002288 -259522094 16777684 370737153 -1994342349
            815857835 -2147481568 -1400663646</internalNodes>
          <leafValues>
            -8.3812952041625977e-001 2.0024518668651581e-001</leafValues></_>
        <_>
          <internalNodes>
            0 -1 42 -1701461105 1640075720 -1051655936 -105971508
            -1549630382 -475398013 -2137292718 -1242072149</internalNodes>
          <leafValues>
            -5.3579890727996826e-001 3.2132780551910400e-001</leafValues></_>
        <_>
          <internalNodes>
            0 -1 118 -204938443 1157791751 1091576023 -1723760431
            -2122285033 -2113339261 252248095 -927872060</internalNodes>
          <leafValues>
            -6.2902867794036865e-001 2.5365439057350159e-001</leafValues></_>
        <_>
          <internalNodes>
            0 -1 157 -1735865158 1301436244 459959780 -2122809931
            -548100884 -539591212 534183609 433828333</internalNodes>
          <leafValues>
            -3.2302117347717285e-001 4.3822100758552551e-001</leafValues></_>
        <_>
          <internalNodes>
            0 -1 110 -1396370105 -398372693 1887765691 -1034939240
            -1559671693 -435484148 -1960071628 -119744092</internalNodes>
          <leafValues>
            -6.1694926023483276e-001 1.9490715861320496e-001</leafValues></_>
        <_>
          <internalNodes>
            0 -1 45 -437791072 2134703737 -285214946 1572208638
            -1660953095 -536871049 -813736453 767541171</internalNodes>
          <leafValues>
            -3.2234138250350952e-001 4.0993973612785339e-001</leafValues></_>
        <_>
          <internalNodes>
            0 -1 40 1206888705 -536888143 -272794857 -10536513
            1878969782 -1073743873 -277643938 2130648238</internalNodes>
          <leafValues>
            -2.3714560270309448e-001 5.5465972423553467e-001</leafValues></_>
        <_>
          <internalNodes>
            0 -1 146 -1319702289 269680897 830575027 2015379520
            -1064664333 -1328969718 -1073040656 -184786704</internalNodes>
          <leafValues>
            -6.5150392055511475e-001 2.3319500684738159e-001</leafValues></_>
        <_>
          <internalNodes>
            0 -1 68 -742356811 -711602025 1367708116 -806017678
            -665464107 2072608842 -1744287719 -849000445</internalNodes>
          <leafValues>
            -3.8038358092308044e-001 3.8600644469261169e-001</leafValues></_>
        <_>
          <internalNodes>
            0 -1 170 -1341620212 -898735468 1409934729 169855667
            -779345807 294879616 -1072983473 1115007594</internalNodes>
          <leafValues>
            -3.8451513648033142e-001 3.6266636848449707e-001</leafValues></_>
        <_>
          <internalNodes>
            0 -1 87 -1790919209 -35076861 -737591291 -571721585
            -1602157413 -889159391 1216737411 -957414007</internalNodes>
          <leafValues>
            -4.1851860284805298e-001 3.6347979307174683e-001</leafValues></_>
        <_>
          <internalNodes>
            0 -1 63 -715487953 -425946297 -1341455728 -197603182
            -1983790070 1052049450 -2135947193 1615246242</internalNodes>
          <leafValues>
            -5.9950214624404907e-001 2.6534724235534668e-001</leafValues></_>
        <_>
          <internalNodes>
            0 -1 39 -165036908 -264562437 -1798559224 1571383859
            -973321994 -205668937 -1782120501 -351850755</internalNodes>
          <leafValues>
            -3.1414479017257690e-001 4.6515181660652161e-001</leafValues></_>
        <_>
          <internalNodes>
            0 -1 155 -803478617 1562378256 -2112843628 2118209876
            -106172060 1091272832 -1298087248 1677757058</internalNodes>
          <leafValues>
            -7.5242871046066284e-001 2.1006496250629425e-001</leafValues></_>
        <_>
          <internalNodes>
            0 -1 80 132080439 -335396558 -2013257381 -904859375
            427950148 -1737882984 -1735253615 -869498455</internalNodes>
          <leafValues>
            -6.1804443597793579e-001 1.5242940187454224e-001</leafValues></_>
        <_>
          <internalNodes>
            0 -1 60 -9 -268435459 -196619 -285343745 -1 905248766 -65538
            1342111743</internalNodes>
          <leafValues>
            -2.0699399709701538e-001 7.0731693506240845e-001</leafValues></_>
        <_>
          <internalNodes>
            0 -1 47 1216463305 -1488961472 -2113793983 620822536
            -1022852885 455149737 -1870609791 -1584815485</internalNodes>
          <leafValues>
            -5.2033579349517822e-001 2.7380394935607910e-001</leafValues></_>
        <_>
          <internalNodes>
            0 -1 149 -111165364 -641177191 -1501069126 10294098
            186272545 1210228750 568594867 433816231</internalNodes>
          <leafValues>
            -5.2181553840637207e-001 2.3589247465133667e-001</leafValues></_>
        <_>
          <internalNodes>
            0 -1 125 -178574502 291238485 -805257085 -242137971
            604275339 -1878945783 541762219 -1343216844</internalNodes>
          <leafValues>
            -4.5316600799560547e-001 2.8028920292854309e-001</leafValues></_>
        <_>
          <internalNodes>
            0 -1 3 1500448299 -164294 -287376001 1837026686 1593806838
            2130575192 1535092863 773529371</internalNodes>
          <leafValues>
            -2.7668663859367371e-001 5.3229397535324097e-001</leafValues></_>
        <_>
          <internalNodes>
            0 -1 62 -1852747761 -909048685 285556967 2018148534 65898
            461570178 -2146958205 -250609536</internalNodes>
          <leafValues>
            -5.0634294748306274e-001 2.2400397062301636e-001</leafValues></_>
        <_>
          <internalNodes>
            0 -1 148 772770799 -577732480 1084260391 294463620
            1968114562 109052841 -804617590 437117914</internalNodes>
          <leafValues>
            -3.9524182677268982e-001 2.8556066751480103e-001</leafValues></_>
        <_>
          <internalNodes>
            0 -1 4 1202190588 -276889740 -1364231924 -43155953
            -1369576021 1604149085 -404784373 -413163725</internalNodes>
          <leafValues>
            -2.5794690847396851e-001 4.9674007296562195e-001</leafValues></_>
        <_>
          <internalNodes>
            0 -1 85 -1564417312 1898087558 -535654142 -239959659
            -1851785178 -2147458939 1078018701 468536808</internalNodes>
          <leafValues>
            -5.0700926780700684e-001 2.2022935748100281e-001</leafValues></_>
        <_>
          <internalNodes>
            0 -1 179 -197006417 -140189987 249560999 -1725580169
            -287499813 788176887 -1183084866 -2048407510</internalNodes>
          <leafValues>
            -1.9206362962722778e-001 6.0848468542098999e-001</leafValues></_>
        <_>
          <internalNodes>
            0 -1 181 2143947342 1409810837 -1056898675 -1069938427
            37896704 -696204657 -2011123605 1300447819</internalNodes>
          <leafValues>
            -4.1843369603157043e-001 2.6512637734413147e-001</leafValues></_>
        <_>
          <internalNodes>
            0 -1 142 -2088622881 -1937403104 -234847990 -1446526109
            -2004172112 -778993270 -1736269676 -1279729184</internalNodes>
          <leafValues>
            -3.4000355005264282e-001 3.3057060837745667e-001</leafValues></_>
        <_>
          <internalNodes>
            0 -1 21 -170373120 2009649381 1237369138 -677445607
            -1719601010 -1667791462 858957976 328027610</internalNodes>
          <leafValues>
            -3.8076633214950562e-001 3.0588454008102417e-001</leafValues></_>
        <_>
          <internalNodes>
            0 -1 158 477268715 -1829928970 -117641553 -874795906
            -4866309 1566506982 -34021751 -538198926</internalNodes>
          <leafValues>
            -1.8631480634212494e-001 5.8604216575622559e-001</leafValues></_>
        <_>
          <internalNodes>
            0 -1 108 -784845520 1744994440 -2129457142 285343749
            1092747429 196744 16785441 467189996</internalNodes>
          <leafValues>
            -7.1775281429290771e-001 1.5764401853084564e-001</leafValues></_>
        <_>
          <internalNodes>
            0 -1 95 -1157755913 931032927 -83886281 -1107296385
            -25210961 -671285412 2122186047 -401179553</internalNodes>
          <leafValues>
            -2.5093659758567810e-001 4.5874497294425964e-001</leafValues></_>
        <_>
          <internalNodes>
            0 -1 97 -1068457168 -511524854 16779273 1644265474 37033
            -738164601 -1467339557 246483777</internalNodes>
          <leafValues>
            -5.8480089902877808e-001 1.9306278228759766e-001</leafValues></_>
        <_>
          <internalNodes>
            0 -1 120 133400559 -1363673089 -65545 -2228257 2147450703
            -167772161 -587272345 -5640202</internalNodes>
          <leafValues>
            -2.2038155794143677e-001 4.7466650605201721e-001</leafValues></_>
        <_>
          <internalNodes>
            0 -1 66 -233403776 1277383403 2031571022 186234626
            -795806997 138446852 438682431 1839415513</internalNodes>
          <leafValues>
            -4.1663125157356262e-001 2.5676801800727844e-001</leafValues></_>
        <_>
          <internalNodes>
            0 -1 139 -16812225 -8471297 1442316030 1128267511 -259
            -1084793218 -431030401 -290291985</internalNodes>
          <leafValues>
            -2.5639495253562927e-001 3.6401259899139404e-001</leafValues></_>
        <_>
          <internalNodes>
            0 -1 166 -1053313162 356635419 -2147469363 511749682
            -1840635901 1756200964 946454703 828350635</internalNodes>
          <leafValues>
            -4.1014984250068665e-001 2.5430262088775635e-001</leafValues></_>
        <_>
          <internalNodes>
            0 -1 101 306218478 1107821579 -1874849726 1313902878
            -2130669372 -2130575349 -385214457 1492682392</internalNodes>
          <leafValues>
            -8.2488042116165161e-001 1.0476335883140564e-001</leafValues></_>
        <_>
          <internalNodes>
            0 -1 182 1321239079 352915808 1074266136 1180258451
            1233658432 1853972777 453674000 -257228613</internalNodes>
          <leafValues>
            -3.4061062335968018e-001 2.8498443961143494e-001</leafValues></_>
        <_>
          <internalNodes>
            0 -1 17 -1068646268 -91160512 16842901 -2049048573
            -2094825334 -1862205312 1619197954 1619329154</internalNodes>
          <leafValues>
            -5.6052571535110474e-001 1.6911998391151428e-001</leafValues></_>
        <_>
          <internalNodes>
            0 -1 145 823251823 303628421 -1073708975 1280346128
            -905793501 302190785 -1969581312 1820371872</internalNodes>
          <leafValues>
            -8.1406551599502563e-001 1.0474906861782074e-001</leafValues></_>
        <_>
          <internalNodes>
            0 -1 23 1497342067 1006493692 -6292587 2147352545
            -1208133729 -75583493 1844379519 -1493325830</internalNodes>
          <leafValues>
            -1.9428497552871704e-001 5.2793079614639282e-001</leafValues></_>
        <_>
          <internalNodes>
            0 -1 43 1359020224 -1006436303 1360003328 -728493679
            -2138570646 419430536 8947858 1688436914</internalNodes>
          <leafValues>
            -6.6495752334594727e-001 1.3562740385532379e-001</leafValues></_>
        <_>
          <internalNodes>
            0 -1 176 -1103321703 -1343324324 2147466723 1434349535
            -845570189 -1080034057 2034089819 -940843781</internalNodes>
          <leafValues>
            -1.6932611167430878e-001 5.5910056829452515e-001</leafValues></_>
        <_>
          <internalNodes>
            0 -1 153 -2112733070 497091208 -1876909052 557924744
            1082188282 -1731549046 -1953938685 671409044</internalNodes>
          <leafValues>
            -5.5720597505569458e-001 1.6223816573619843e-001</leafValues></_>
        <_>
          <internalNodes>
            0 -1 37 -100876315 -274497541 1602026639 -171458888
            -822448534 2113365885 789366783 -1101436866</internalNodes>
          <leafValues>
            -1.4738827943801880e-001 4.9283781647682190e-001</leafValues></_>
        <_>
          <internalNodes>
            0 -1 24 269553923 1114113 285282768 604045313 170 830504962
            134382234 59377808</internalNodes>
          <leafValues>
            -4.8495715856552124e-001 1.6428603231906891e-001</leafValues></_></weakClassifiers></_></stages>
  <features>
    <_>
      <rect>
        0 0 1 1</rect></_>
    <_>
      <rect>
        0 0 1 2</rect></_>
    <_>
      <rect>
        0 0 1 4</rect></_>
    <_>
      <rect>
        0 0 1 5</rect></_>
    <_>
      <rect>
        0 0 2 2</rect></_>
    <_>
      <rect>
        0 0 3 5</rect></_>
    <_>
      <rect>
        0 0 4 4</rect></_>
    <_>
      <rect>
        0 0 5 3</rect></_>
    <_>
      <rect>
        0 0 7 2</rect></_>
    <_>
      <rect>
        0 0 8 4</rect></_>
    <_>
      <rect>
        0 1 1 1</rect></_>
    <_>
      <rect>
        0 1 1 2</rect></_>
    <_>
      <rect>
        0 1 6 1</rect></_>
    <_>
      <rect>
        0 1 8 3</rect></_>
    <_>
      <rect>
        0 2 1 1</rect></_>
    <_>
      <rect>
        0 2 1 4</rect></_>
    <_>
      <rect>
        0 2 3 3</rect></_>
    <_>
      <rect>
        0 2 3 4</rect></_>
    <_>
      <rect>
        0 3 1 1</rect></_>
    <_>
      <rect>
        0 3 1 4</rect></_>
    <_>
      <rect>
        0 3 3 4</rect></_>
    <_>
      <rect>
        0 4 1 1</rect></_>
    <_>
      <rect>
        0 4 1 2</rect></_>
    <_>
      <rect>
        0 4 1 3</rect></_>
    <_>
      <rect>
        0 4 8 3</rect></_>
    <_>
      <rect>
        0 5 2 3</rect></_>
    <_>
      <rect>
        0 5 4 1</rect></_>
    <_>
      <rect>
        0 6 1 3</rect></_>
    <_>
      <rect>
        0 6 3 3</rect></_>
    <_>
      <rect>
        0 7 3 1</rect></_>
    <_>
      <rect>
        1 0 2 1</rect></_>
    <_>
      <rect>
        1 0 3 3</rect></_>
    <_>
      <rect>
        1 0 3 4</rect></_>
    <_>
      <rect>
        1 0 4 2</rect></_>
    <_>
      <rect>
        1 0 4 3</rect></_>
    <_>
      <rect>
        1 0 5 2</rect></_>
    <_>
      <rect>
        1 0 5 4</rect></_>
    <_>
      <rect>
        1 1 1 1</rect></_>
    <_>
      <rect>
        1 2 1 2</rect></_>
    <_>
      <rect>
        1 4 1 1</rect></_>
    <_>
      <rect>
        1 4 1 3</rect></_>
    <_>
      <rect>
        1 7 2 2</rect></_>
    <_>
      <rect>
        1 11 1 1</rect></_>
    <_>
      <rect>
        1 12 2 1</rect></_>
    <_>
      <rect>
        2 1 1 1</rect></_>
    <_>
      <rect>
        2 1 2 2</rect></_>
    <_>
      <rect>
        2 1 4 2</rect></_>
    <_>
      <rect>
        2 3 2 2</rect></_>
    <_>
      <rect>
        2 3 3 4</rect></_>
    <_>
      <rect>
        2 4 3 1</rect></_>
    <_>
      <rect>
        2 4 4 3</rect></_>
    <_>
      <rect>
        2 8 1 2</rect></_>
    <_>
      <rect>
        2 10 1 1</rect></_>
    <_>
      <rect>
        2 11 1 1</rect></_>
    <_>
      <rect>
        2 12 1 1</rect></_>
    <_>
      <rect>
        3 0 2 1</rect></_>
    <_>
      <rect>
        3 0 3 2</rect></_>
    <_>
      <rect>
        3 0 7 1</rect></_>
    <_>
      <rect>
        3 1 1 1</rect></_>
    <_>
      <rect>
        3 1 5 1</rect></_>
    <_>
      <rect>
        3 2 6 4</rect></_>
    <_>
      <rect>
        3 6 3 3</rect></_>
    <_>
      <rect>
        3 10 2 1</rect></_>
    <_>
      <rect>
        3 11 1 1</rect></_>
    <_>
      <rect>
        4 1 3 1</rect></_>
    <_>
      <rect>
        4 4 4 3</rect></_>
    <_>
      <rect>
        5 0 1 1</rect></_>
    <_>
      <rect>
        5 0 3 2</rect></_>
    <_>
      <rect>
        5 0 4 1</rect></_>
    <_>
      <rect>
        5 1 3 1</rect></_>
    <_>
      <rect>
        5 1 6 1</rect></_>
    <_>
      <rect>
        5 3 1 1</rect></_>
    <_>
      <rect>
        5 11 1 1</rect></_>
    <_>
      <rect>
        5 12 1 1</rect></_>
    <_>
      <rect>
        6 0 2 1</rect></_>
    <_>
      <rect>
        6 0 3 2</rect></_>
    <_>
      <rect>
        6 0 6 2</rect></_>
    <_>
      <rect>
        6 1 6 4</rect></_>
    <_>
      <rect>
        6 2 1 2</rect></_>
    <_>
      <rect>
        6 6 2 2</rect></_>
    <_>
      <rect>
        6 7 1 1</rect></_>
    <_>
      <rect>
        6 10 1 1</rect></_>
    <_>
      <rect>
        6 11 1 1</rect></_>
    <_>
      <rect>
        6 12 1 1</rect></_>
    <_>
      <rect>
        7 0 6 4</rect></_>
    <_>
      <rect>
        7 1 1 1</rect></_>
    <_>
      <rect>
        7 1 5 2</rect></_>
    <_>
      <rect>
        7 3 1 1</rect></_>
    <_>
      <rect>
        7 5 6 3</rect></_>
    <_>
      <rect>
        7 6 6 3</rect></_>
    <_>
      <rect>
        7 7 1 1</rect></_>
    <_>
      <rect>
        7 9 5 2</rect></_>
    <_>
      <rect>
        7 10 1 1</rect></_>
    <_>
      <rect>
        7 12 1 1</rect></_>
    <_>
      <rect>
        8 0 3 5</rect></_>
    <_>
      <rect>
        8 0 4 1</rect></_>
    <_>
      <rect>
        8 0 5 3</rect></_>
    <_>
      <rect>
        8 1 3 2</rect></_>
    <_>
      <rect>
        8 2 1 1</rect></_>
    <_>
      <rect>
        8 9 1 1</rect></_>
    <_>
      <rect>
        8 10 1 1</rect></_>
    <_>
      <rect>
        8 11 1 1</rect></_>
    <_>
      <rect>
        9 0 3 2</rect></_>
    <_>
      <rect>
        9 6 1 1</rect></_>
    <_>
      <rect>
        9 9 1 1</rect></_>
    <_>
      <rect>
        9 12 1 1</rect></_>
    <_>
      <rect>
        10 0 4 3</rect></_>
    <_>
      <rect>
        10 1 2 1</rect></_>
    <_>
      <rect>
        10 3 3 4</rect></_>
    <_>
      <rect>
        10 5 3 3</rect></_>
    <_>
      <rect>
        10 7 1 1</rect></_>
    <_>
      <rect>
        10 9 1 2</rect></_>
    <_>
      <rect>
        11 0 3 1</rect></_>
    <_>
      <rect>
        11 1 1 1</rect></_>
    <_>
      <rect>
        11 6 3 3</rect></_>
    <_>
      <rect>
        11 7 1 1</rect></_>
    <_>
      <rect>
        11 8 1 1</rect></_>
    <_>
      <rect>
        11 12 1 1</rect></_>
    <_>
      <rect>
        12 0 4 4</rect></_>
    <_>
      <rect>
        12 6 1 1</rect></_>
    <_>
      <rect>
        12 7 1 1</rect></_>
    <_>
      <rect>
        12 10 1 1</rect></_>
    <_>
      <rect>
        13 0 2 1</rect></_>
    <_>
      <rect>
        13 0 4 4</rect></_>
    <_>
      <rect>
        13 1 4 3</rect></_>
    <_>
      <rect>
        13 2 1 1</rect></_>
    <_>
      <rect>
        13 2 4 3</rect></_>
    <_>
      <rect>
        13 4 2 3</rect></_>
    <_>
      <rect>
        14 0 3 3</rect></_>
    <_>
      <rect>
        14 2 1 1</rect></_>
    <_>
      <rect>
        14 3 1 1</rect></_>
    <_>
      <rect>
        14 4 2 1</rect></_>
    <_>
      <rect>
        15 1 1 2</rect></_>
    <_>
      <rect>
        15 6 2 1</rect></_>
    <_>
      <rect>
        15 7 1 1</rect></_>
    <_>
      <rect>
        15 9 1 2</rect></_>
    <_>
      <rect>
        15 12 1 1</rect></_>
    <_>
      <rect>
        16 0 2 1</rect></_>
    <_>
      <rect>
        16 1 3 4</rect></_>
    <_>
      <rect>
        16 3 1 1</rect></_>
    <_>
      <rect>
        16 5 3 3</rect></_>
    <_>
      <rect>
        16 7 1 1</rect></_>
    <_>
      <rect>
        16 8 1 1</rect></_>
    <_>
      <rect>
        16 9 1 2</rect></_>
    <_>
      <rect>
        16 9 3 2</rect></_>
    <_>
      <rect>
        16 10 1 1</rect></_>
    <_>
      <rect>
        16 12 1 1</rect></_>
    <_>
      <rect>
        16 12 2 1</rect></_>
    <_>
      <rect>
        17 0 1 1</rect></_>
    <_>
      <rect>
        17 0 2 1</rect></_>
    <_>
      <rect>
        17 5 1 1</rect></_>
    <_>
      <rect>
        17 7 1 1</rect></_>
    <_>
      <rect>
        18 0 1 1</rect></_>
    <_>
      <rect>
        18 0 2 2</rect></_>
    <_>
      <rect>
        18 1 2 1</rect></_>
    <_>
      <rect>
        18 9 2 2</rect></_>
    <_>
      <rect>
        19 0 1 1</rect></_>
    <_>
      <rect>
        19 0 1 2</rect></_>
    <_>
      <rect>
        19 0 2 3</rect></_>
    <_>
      <rect>
        19 1 2 1</rect></_>
    <_>
      <rect>
        19 3 2 4</rect></_>
    <_>
      <rect>
        19 8 2 2</rect></_>
    <_>
      <rect>
        19 9 2 2</rect></_>
    <_>
      <rect>
        19 11 1 1</rect></_>
    <_>
      <rect>
        19 12 1 1</rect></_>
    <_>
      <rect>
        20 0 1 1</rect></_>
    <_>
      <rect>
        20 1 1 1</rect></_>
    <_>
      <rect>
        20 1 1 2</rect></_>
    <_>
      <rect>
        20 2 1 1</rect></_>
    <_>
      <rect>
        20 9 1 1</rect></_>
    <_>
      <rect>
        21 1 1 2</rect></_>
    <_>
      <rect>
        21 2 1 1</rect></_>
    <_>
      <rect>
        21 6 1 2</rect></_>
    <_>
      <rect>
        21 9 1 2</rect></_>
    <_>
      <rect>
        22 1 1 1</rect></_>
    <_>
      <rect>
        22 1 1 2</rect></_>
    <_>
      <rect>
        22 2 1 2</rect></_>
    <_>
      <rect>
        22 3 1 1</rect></_>
    <_>
      <rect>
        22 3 1 2</rect></_>
    <_>
      <rect>
        22 5 1 2</rect></_>
    <_>
      <rect>
        22 9 1 1</rect></_>
    <_>
      <rect>
        22 9 1 2</rect></_>
    <_>
      <rect>
        22 11 1 1</rect></_>
    <_>
      <rect>
        22 12 1 1</rect></_></features></cascade>
</opencv_storage>
