<?xml version="1.0" encoding="utf-8"?>
<opencv_storage>
<cascade>
  <stageType>BOOST</stageType>
  <featureType>LBP</featureType>
  <height>15</height>
  <width>25</width>
  <stageParams>
    <boostType>GAB</boostType>
    <minHitRate>9.9900001287460327e-001</minHitRate>
    <maxFalseAlarm>5.0000000000000000e-001</maxFalseAlarm>
    <weightTrimRate>9.4999999999999996e-001</weightTrimRate>
    <maxDepth>1</maxDepth>
    <maxWeakCount>100</maxWeakCount></stageParams>
  <featureParams>
    <maxCatCount>256</maxCatCount>
    <featSize>1</featSize></featureParams>
  <stageNum>20</stageNum>
  <stages>
    <!-- stage 0 -->
    <_>
      <maxWeakCount>5</maxWeakCount>
      <stageThreshold>-2.5099351406097412e+000</stageThreshold>
      <weakClassifiers>
        <_>
          <internalNodes>
            0 -1 35 16876017 -48770175 1091639805 -10911465 -2122233093
            -72709748 -879183621 -1081661263</internalNodes>
          <leafValues>
            -8.6149096488952637e-001 8.0284774303436279e-001</leafValues></_>
        <_>
          <internalNodes>
            0 -1 134 -33554433 -277350401 -1 -285933570 -131105 -524865
            -395 -51056652</internalNodes>
          <leafValues>
            -8.3915305137634277e-001 6.7965364456176758e-001</leafValues></_>
        <_>
          <internalNodes>
            0 -1 54 -644360223 -1346154021 -539100673 -8396397
            1171098111 -339768417 -202407437 -168453129</internalNodes>
          <leafValues>
            -7.8599804639816284e-001 6.8267762660980225e-001</leafValues></_>
        <_>
          <internalNodes>
            0 -1 101 -1233653761 -285507585 -37750787 -285278721 -9
            -1048577 -266377 -318972164</internalNodes>
          <leafValues>
            -7.3922353982925415e-001 6.9074416160583496e-001</leafValues></_>
        <_>
          <internalNodes>
            0 -1 106 -1043265227 -44596439 -1727172133 -2260705
            -1332364613 -1181056837 -15090705 681949675</internalNodes>
          <leafValues>
            -7.8774642944335938e-001 7.1593052148818970e-001</leafValues></_></weakClassifiers></_>
    <!-- stage 1 -->
    <_>
      <maxWeakCount>7</maxWeakCount>
      <stageThreshold>-2.9202091693878174e+000</stageThreshold>
      <weakClassifiers>
        <_>
          <internalNodes>
            0 -1 33 -1593780233 -36056355 1359073677 -577956475
            -1683891205 -108297846 -105907265 -527433</internalNodes>
          <leafValues>
            -8.4366577863693237e-001 6.8972748517990112e-001</leafValues></_>
        <_>
          <internalNodes>
            0 -1 95 -268439553 -285345857 -1074291201 -285282306
            -55574529 -1 -2109577 -318963720</internalNodes>
          <leafValues>
            -8.2716202735900879e-001 5.5811274051666260e-001</leafValues></_>
        <_>
          <internalNodes>
            0 -1 107 -1929629825 -1082792065 -373711361 -147465
            -1090617857 -138805281 1860172543 -21184795</internalNodes>
          <leafValues>
            -7.0398849248886108e-001 6.6145843267440796e-001</leafValues></_>
        <_>
          <internalNodes>
            0 -1 25 -1343619098 -359755325 1504608900 -2124851 -75244545
            -74219378 -1414808793 -185082061</internalNodes>
          <leafValues>
            -7.9066091775894165e-001 5.4665476083755493e-001</leafValues></_>
        <_>
          <internalNodes>
            0 -1 36 -720271029 -854490671 -1862205063 1608384833
            -1199557729 -1080917846 2047535855 1692764555</internalNodes>
          <leafValues>
            -7.1329677104949951e-001 5.3986823558807373e-001</leafValues></_>
        <_>
          <internalNodes>
            0 -1 140 -576847913 -214319337 -1111491585 -318849124
            -337129993 -71582761 -68185243 -117637136</internalNodes>
          <leafValues>
            -7.2781264781951904e-001 5.9309709072113037e-001</leafValues></_>
        <_>
          <internalNodes>
            0 -1 117 -775903475 -572876521 386470151 -19049129
            -803161793 -103047037 1527479087 2021429991</internalNodes>
          <leafValues>
            -8.1639850139617920e-001 4.3321242928504944e-001</leafValues></_></weakClassifiers></_>
    <!-- stage 2 -->
    <_>
      <maxWeakCount>6</maxWeakCount>
      <stageThreshold>-2.1730570793151855e+000</stageThreshold>
      <weakClassifiers>
        <_>
          <internalNodes>
            0 -1 5 -456001537 -34610725 -1995370081 -912264753
            -1617298497 -217114213 -75245061 -2623497</internalNodes>
          <leafValues>
            -8.2557612657546997e-001 6.2771457433700562e-001</leafValues></_>
        <_>
          <internalNodes>
            0 -1 66 -1827623645 -170061475 -1861218025 -142257765
            -92104465 -625442630 -108409857 -188897089</internalNodes>
          <leafValues>
            -7.4110805988311768e-001 5.0748229026794434e-001</leafValues></_>
        <_>
          <internalNodes>
            0 -1 167 -70517921 -86576717 -2147450414 -487128869
            -108808176 -384063357 1880312564 -185078829</internalNodes>
          <leafValues>
            -7.7130275964736938e-001 4.6614065766334534e-001</leafValues></_>
        <_>
          <internalNodes>
            0 -1 44 -1346391109 -1599938108 402792466 -104877608
            -91518721 -670064509 -283920269 1961360295</internalNodes>
          <leafValues>
            -6.9497990608215332e-001 4.4800305366516113e-001</leafValues></_>
        <_>
          <internalNodes>
            0 -1 100 -712252469 -631762811 -1303932517 -829026146
            -475797365 -511672192 -909919629 -16978996</internalNodes>
          <leafValues>
            -6.8896603584289551e-001 5.0147211551666260e-001</leafValues></_>
        <_>
          <internalNodes>
            0 -1 35 159908257 -505597743 -2130640583 -408972862
            -782694465 -41184839 -1702733637 1173822451</internalNodes>
          <leafValues>
            -7.7378451824188232e-001 4.0589281916618347e-001</leafValues></_></weakClassifiers></_>
    <!-- stage 3 -->
    <_>
      <maxWeakCount>7</maxWeakCount>
      <stageThreshold>-2.5863223075866699e+000</stageThreshold>
      <weakClassifiers>
        <_>
          <internalNodes>
            0 -1 43 -8390673 -276971521 -68026881 -8331 -873463809
            -543322921 -286540041 -134742057</internalNodes>
          <leafValues>
            -8.6540281772613525e-001 5.6635516881942749e-001</leafValues></_>
        <_>
          <internalNodes>
            0 -1 84 -268468353 -285213697 -33554433 -293667329 -4210689
            -1 -9 -319489548</internalNodes>
          <leafValues>
            -8.1704843044281006e-001 6.3752198219299316e-001</leafValues></_>
        <_>
          <internalNodes>
            0 -1 99 802537343 -1074302977 -1208098819 -268436483
            2146959359 -69206017 -1078273 -320024479</internalNodes>
          <leafValues>
            -7.3585641384124756e-001 6.7072325944900513e-001</leafValues></_>
        <_>
          <internalNodes>
            0 -1 153 -268488865 -1398802497 -2097153 -286855201 -32907
            -9 -8458447 -329973771</internalNodes>
          <leafValues>
            -7.5512039661407471e-001 5.9600961208343506e-001</leafValues></_>
        <_>
          <internalNodes>
            0 -1 80 -135375 -1 -131329 -18 -1 -50331649 -1 753401855</internalNodes>
          <leafValues>
            -6.4171928167343140e-001 6.8325901031494141e-001</leafValues></_>
        <_>
          <internalNodes>
            0 -1 110 -270008321 -826300457 -438304913 -1359159521
            -542376459 -5267541 -340131979 -318964240</internalNodes>
          <leafValues>
            -7.0868444442749023e-001 6.5473169088363647e-001</leafValues></_>
        <_>
          <internalNodes>
            0 -1 18 -455879187 -511655672 -1056894757 -308309560
            -653546305 -24076149 -1449939389 771226421</internalNodes>
          <leafValues>
            -7.7473872900009155e-001 6.1253130435943604e-001</leafValues></_></weakClassifiers></_>
    <!-- stage 4 -->
    <_>
      <maxWeakCount>6</maxWeakCount>
      <stageThreshold>-2.0874502658843994e+000</stageThreshold>
      <weakClassifiers>
        <_>
          <internalNodes>
            0 -1 112 1065304063 -1107362337 -294913 -1073742849
            -18874625 -136193 -37889 -196611</internalNodes>
          <leafValues>
            -8.2358318567276001e-001 5.8669352531433105e-001</leafValues></_>
        <_>
          <internalNodes>
            0 -1 120 -655361 -1348470913 -1314817 -285802529 -2097289
            -318771203 -139 -51052940</internalNodes>
          <leafValues>
            -8.2810586690902710e-001 5.7329046726226807e-001</leafValues></_>
        <_>
          <internalNodes>
            0 -1 96 1807744887 787480447 -38290433 -1359020034 -524289
            -528929 -131209 -386596884</internalNodes>
          <leafValues>
            -7.4715620279312134e-001 5.6558257341384888e-001</leafValues></_>
        <_>
          <internalNodes>
            0 -1 69 -1074003969 -16282181 -1079773761 -525649 -84936707
            -88083995 -609239361 -1073742339</internalNodes>
          <leafValues>
            -6.8952345848083496e-001 7.1191221475601196e-001</leafValues></_>
        <_>
          <internalNodes>
            0 -1 81 -1879097481 -1360074753 -2103489 -855834635
            268205951 -50561025 -536875019 1827995636</internalNodes>
          <leafValues>
            -7.9424077272415161e-001 4.8643192648887634e-001</leafValues></_>
        <_>
          <internalNodes>
            0 -1 130 -213702795 -138030601 17334279 -2893673 -127823809
            -75445101 -645822085 1761009647</internalNodes>
          <leafValues>
            -7.7471947669982910e-001 5.1448643207550049e-001</leafValues></_></weakClassifiers></_>
    <!-- stage 5 -->
    <_>
      <maxWeakCount>5</maxWeakCount>
      <stageThreshold>-1.3960741758346558e+000</stageThreshold>
      <weakClassifiers>
        <_>
          <internalNodes>
            0 -1 111 -102893185 -637550369 289456543 -10550817
            -670500661 -242908774 -914240837 -92013905</internalNodes>
          <leafValues>
            -7.6681220531463623e-001 6.0224717855453491e-001</leafValues></_>
        <_>
          <internalNodes>
            0 -1 33 -515703421 -69646055 -250539788 -81030659 134383787
            -70679935 2131856299 -443046045</internalNodes>
          <leafValues>
            -6.7214000225067139e-001 4.6791890263557434e-001</leafValues></_>
        <_>
          <internalNodes>
            0 -1 19 -581240926 -44363689 335643092 -539688929 -611802722
            822640674 -1643738945 -505313118</internalNodes>
          <leafValues>
            -6.7438983917236328e-001 3.8804793357849121e-001</leafValues></_>
        <_>
          <internalNodes>
            0 -1 18 -405875320 -280821308 -1069498337 -820534138
            -267630405 -1329430523 -1049632461 1950854979</internalNodes>
          <leafValues>
            -6.8523836135864258e-001 3.5792955756187439e-001</leafValues></_>
        <_>
          <internalNodes>
            0 -1 166 -574423938 1975760329 -1073627136 -255622962
            1674768900 -526876638 -92034298 1952929959</internalNodes>
          <leafValues>
            -7.0309948921203613e-001 3.7373700737953186e-001</leafValues></_></weakClassifiers></_>
    <!-- stage 6 -->
    <_>
      <maxWeakCount>8</maxWeakCount>
      <stageThreshold>-1.8775477409362793e+000</stageThreshold>
      <weakClassifiers>
        <_>
          <internalNodes>
            0 -1 77 -599396065 -177155937 1342394845 -2256867 -921065281
            -102135111 -1450532869 -54551877</internalNodes>
          <leafValues>
            -7.9962193965911865e-001 4.4360902905464172e-001</leafValues></_>
        <_>
          <internalNodes>
            0 -1 14 -1008470553 -582593963 -1726916399 -304934445
            -1863461 -75398245 -1156994417 -239748429</internalNodes>
          <leafValues>
            -6.3955420255661011e-001 3.5112172365188599e-001</leafValues></_>
        <_>
          <internalNodes>
            0 -1 139 -6556673 -166025337 -779894758 -79175339 -746391161
            -1987992549 -471078143 -202572804</internalNodes>
          <leafValues>
            -6.6667109727859497e-001 3.7486380338668823e-001</leafValues></_>
        <_>
          <internalNodes>
            0 -1 144 -35920113 -49163813 1074790589 -1730686757
            -1303844796 -125597301 -1434228529 1954536191</internalNodes>
          <leafValues>
            -6.3266831636428833e-001 3.6788976192474365e-001</leafValues></_>
        <_>
          <internalNodes>
            0 -1 70 -519002725 -113209327 16800217 -44462061 2047901847
            -75364221 -1610544647 1955824305</internalNodes>
          <leafValues>
            -4.5668822526931763e-001 5.0007015466690063e-001</leafValues></_>
        <_>
          <internalNodes>
            0 -1 84 -204222117 -523071333 285491287 -296038076
            -1593128425 -393686910 -1148599821 -52905764</internalNodes>
          <leafValues>
            -6.6953223943710327e-001 3.3896610140800476e-001</leafValues></_>
        <_>
          <internalNodes>
            0 -1 150 1543032968 -708580226 -2030132623 299703881
            785968045 1283304158 686167968 525271663</internalNodes>
          <leafValues>
            -4.7151648998260498e-001 4.8392400145530701e-001</leafValues></_>
        <_>
          <internalNodes>
            0 -1 4 1325915011 1493623060 1392576341 794382544 706686207
            198123521 327689195 1755026338</internalNodes>
          <leafValues>
            -5.4102760553359985e-001 4.3939065933227539e-001</leafValues></_></weakClassifiers></_>
    <!-- stage 7 -->
    <_>
      <maxWeakCount>10</maxWeakCount>
      <stageThreshold>-1.7192687988281250e+000</stageThreshold>
      <weakClassifiers>
        <_>
          <internalNodes>
            0 -1 62 -405537281 -581322473 -1325327917 -572845921
            -108940549 -107314045 -115631125 -340401261</internalNodes>
          <leafValues>
            -7.4312794208526611e-001 3.2523363828659058e-001</leafValues></_>
        <_>
          <internalNodes>
            0 -1 124 -305314433 1430901199 -1874698121 -49343489
            -964445701 -636649045 1662953711 -1440685073</internalNodes>
          <leafValues>
            -7.0807284116744995e-001 2.8571870923042297e-001</leafValues></_>
        <_>
          <internalNodes>
            0 -1 57 -336093497 -288435838 -1322809776 -163127814
            -108533954 -1278565461 -1807821244 -151537325</internalNodes>
          <leafValues>
            -6.4089345932006836e-001 3.1141021847724915e-001</leafValues></_>
        <_>
          <internalNodes>
            0 -1 138 -226232865 1117294866 -1069234694 1339195675
            -204566921 -1836643309 -879969420 -930830112</internalNodes>
          <leafValues>
            -6.9317317008972168e-001 3.1561312079429626e-001</leafValues></_>
        <_>
          <internalNodes>
            0 -1 136 -10754257 -108883549 17924479 -1801748277
            -1450473152 -1996357502 -1190950229 1623526311</internalNodes>
          <leafValues>
            -6.7758220434188843e-001 2.9880443215370178e-001</leafValues></_>
        <_>
          <internalNodes>
            0 -1 22 1206382850 -2021359578 -805109504 -578432820
            151617675 -2105442166 -1853642217 984988161</internalNodes>
          <leafValues>
            -7.0822721719741821e-001 2.5682401657104492e-001</leafValues></_>
        <_>
          <internalNodes>
            0 -1 89 -2066435280 -787377807 -779616103 -308625389
            -805293073 1938391194 134291883 145555924</internalNodes>
          <leafValues>
            -7.0124453306198120e-001 2.6158544421195984e-001</leafValues></_>
        <_>
          <internalNodes>
            0 -1 95 -1039664641 -424062693 1394612536 -324377894
            -523527049 -359043389 -190853565 -453973064</internalNodes>
          <leafValues>
            -7.5840681791305542e-001 2.4689881503582001e-001</leafValues></_>
        <_>
          <internalNodes>
            0 -1 71 -16777545 -285278209 -65803 -1 -65545 -1602289922
            -65547 268238846</internalNodes>
          <leafValues>
            -4.2169755697250366e-001 4.8094648122787476e-001</leafValues></_>
        <_>
          <internalNodes>
            0 -1 10 1924194776 1476226796 2080161244 -753728909
            -1074153030 -1973820161 524203742 1036977903</internalNodes>
          <leafValues>
            -3.8355141878128052e-001 5.2624511718750000e-001</leafValues></_></weakClassifiers></_>
    <!-- stage 8 -->
    <_>
      <maxWeakCount>9</maxWeakCount>
      <stageThreshold>-1.7546632289886475e+000</stageThreshold>
      <weakClassifiers>
        <_>
          <internalNodes>
            0 -1 123 -681710721 -551579491 -921450089 -592508449
            -1971062085 -75398493 -1694135893 -16807697</internalNodes>
          <leafValues>
            -7.5589311122894287e-001 1.7545239627361298e-001</leafValues></_>
        <_>
          <internalNodes>
            0 -1 107 -795328641 -709238275 -1072310785 -1089388271
            -1285241925 -209067890 1240202687 -1095191007</internalNodes>
          <leafValues>
            -6.0629403591156006e-001 2.9843145608901978e-001</leafValues></_>
        <_>
          <internalNodes>
            0 -1 121 -106049069 -493968881 -251144741 -421727737
            -1414555146 -355750645 -65414027 -118693040</internalNodes>
          <leafValues>
            -7.4050104618072510e-001 2.8326728940010071e-001</leafValues></_>
        <_>
          <internalNodes>
            0 -1 54 -652872283 -984449007 421597598 2131824781 671131899
            -1450668915 -2118991195 -726420553</internalNodes>
          <leafValues>
            -6.7144232988357544e-001 3.0135905742645264e-001</leafValues></_>
        <_>
          <internalNodes>
            0 -1 27 -1043087100 -317882038 86550 -681852230 -1601967841
            -1450475102 -1582573021 2008539235</internalNodes>
          <leafValues>
            -6.1853730678558350e-001 2.8249305486679077e-001</leafValues></_>
        <_>
          <internalNodes>
            0 -1 125 -506688683 -1089154991 1073938583 -721383157
            -1837053399 -1996390271 -1064630133 719693986</internalNodes>
          <leafValues>
            -5.3851437568664551e-001 3.2970803976058960e-001</leafValues></_>
        <_>
          <internalNodes>
            0 -1 108 -265628687 43552961 269505563 1225261059 -116686093
            -401932150 302574513 2073594760</internalNodes>
          <leafValues>
            -5.9166079759597778e-001 3.0298364162445068e-001</leafValues></_>
        <_>
          <internalNodes>
            0 -1 37 -582700600 -618192288 502623985 1463481454
            -1910004018 243105722 -932764229 1881907935</internalNodes>
          <leafValues>
            -3.6353987455368042e-001 4.9727463722229004e-001</leafValues></_>
        <_>
          <internalNodes>
            0 -1 53 -1596270453 -787218146 -2147414015 1142685961
            612534504 268435594 1663503983 1420106415</internalNodes>
          <leafValues>
            -5.4752928018569946e-001 3.3500349521636963e-001</leafValues></_></weakClassifiers></_>
    <!-- stage 9 -->
    <_>
      <maxWeakCount>12</maxWeakCount>
      <stageThreshold>-1.7853069305419922e+000</stageThreshold>
      <weakClassifiers>
        <_>
          <internalNodes>
            0 -1 87 -208629321 -101584809 1359036889 -37142343
            -251616773 -72351663 -1954444293 -1663721553</internalNodes>
          <leafValues>
            -7.7215188741683960e-001 1.3426265120506287e-001</leafValues></_>
        <_>
          <internalNodes>
            0 -1 32 1335350689 1430893004 -746581577 -947136307
            457421226 1250429071 2070121115 -1107314553</internalNodes>
          <leafValues>
            -5.3081226348876953e-001 3.3715075254440308e-001</leafValues></_>
        <_>
          <internalNodes>
            0 -1 167 -249891842 -145177721 1209077837 2082412563
            -659842478 1898676621 -70018308 -252200013</internalNodes>
          <leafValues>
            -5.6463021039962769e-001 3.2355788350105286e-001</leafValues></_>
        <_>
          <internalNodes>
            0 -1 96 -174730753 -445654566 -2080206693 -863207204
            -259270217 -243201377 -1031689613 -1060316936</internalNodes>
          <leafValues>
            -6.4072668552398682e-001 3.0509462952613831e-001</leafValues></_>
        <_>
          <internalNodes>
            0 -1 74 -613091135 2146430180 -1762214019 -73154910
            -403421714 -973701129 -19957766 1870230629</internalNodes>
          <leafValues>
            -3.8344487547874451e-001 4.7510471940040588e-001</leafValues></_>
        <_>
          <internalNodes>
            0 -1 118 -720058097 957977552 1141572038 -254410531
            -1073704960 1771245696 135080046 2095046859</internalNodes>
          <leafValues>
            -7.2485661506652832e-001 2.2335100173950195e-001</leafValues></_>
        <_>
          <internalNodes>
            0 -1 109 1938968867 -432381799 -117337088 -332250917
            -1971295709 -1859450653 -1727273216 -118705596</internalNodes>
          <leafValues>
            -7.3331880569458008e-001 2.2047676146030426e-001</leafValues></_>
        <_>
          <internalNodes>
            0 -1 0 1904873672 1502073103 340018206 1880162434 2092972730
            855687818 1527475770 1078137038</internalNodes>
          <leafValues>
            -4.9947884678840637e-001 3.2718533277511597e-001</leafValues></_>
        <_>
          <internalNodes>
            0 -1 44 -2141748834 -427388216 268476688 -82603968 8437899
            -1853718391 -2130509197 1690286951</internalNodes>
          <leafValues>
            -6.3571959733963013e-001 2.5008621811866760e-001</leafValues></_>
        <_>
          <internalNodes>
            0 -1 148 -1068384034 -610729984 -1138753348 -198112495
            -536165653 -629145463 -1584690444 -801864798</internalNodes>
          <leafValues>
            -5.9356176853179932e-001 2.8314313292503357e-001</leafValues></_>
        <_>
          <internalNodes>
            0 -1 162 516734994 -1752923323 -2126486524 1568999709
            -1743724149 8687627 25203744 402229669</internalNodes>
          <leafValues>
            -4.7747689485549927e-001 3.7716323137283325e-001</leafValues></_>
        <_>
          <internalNodes>
            0 -1 79 345018389 -1781448623 272634322 1600716880 813728408
            -1325363064 570468779 1887961377</internalNodes>
          <leafValues>
            -4.6932959556579590e-001 3.9700412750244141e-001</leafValues></_></weakClassifiers></_>
    <!-- stage 10 -->
    <_>
      <maxWeakCount>9</maxWeakCount>
      <stageThreshold>-1.4254651069641113e+000</stageThreshold>
      <weakClassifiers>
        <_>
          <internalNodes>
            0 -1 50 -918422023 -183979576 -922744609 -540044993
            -100599377 -292880253 -611816721 -336069965</internalNodes>
          <leafValues>
            -7.3841398954391479e-001 1.7285944521427155e-001</leafValues></_>
        <_>
          <internalNodes>
            0 -1 46 -750524445 -851747633 1426067862 -179883791
            -1183086085 -821328701 -106327881 -404252477</internalNodes>
          <leafValues>
            -6.0461723804473877e-001 2.6597231626510620e-001</leafValues></_>
        <_>
          <internalNodes>
            0 -1 132 -178297123 1363378486 2065761043 -15530581
            -1014183762 -1293338981 -486577669 -1158102373</internalNodes>
          <leafValues>
            -5.0535255670547485e-001 4.0452903509140015e-001</leafValues></_>
        <_>
          <internalNodes>
            0 -1 105 -1473378481 -961660595 -788066025 -956499564
            -554965645 -91626359 -117706377 -623051844</internalNodes>
          <leafValues>
            -6.2351459264755249e-001 2.7492496371269226e-001</leafValues></_>
        <_>
          <internalNodes>
            0 -1 102 -21140763 -1645355164 1056880823 503266735
            -327254396 -1224935812 1971256351 205479551</internalNodes>
          <leafValues>
            -3.2784628868103027e-001 5.3328448534011841e-001</leafValues></_>
        <_>
          <internalNodes>
            0 -1 171 -2003256664 -870803453 -2145832444 855890368
            -2053528190 1921159304 814742225 294500233</internalNodes>
          <leafValues>
            -4.4356945157051086e-001 3.7237092852592468e-001</leafValues></_>
        <_>
          <internalNodes>
            0 -1 64 -891891149 -565034537 285280437 -695459732 412451005
            1670316171 -1551185173 -134944801</internalNodes>
          <leafValues>
            -5.2684086561203003e-001 3.3893361687660217e-001</leafValues></_>
        <_>
          <internalNodes>
            0 -1 20 -241562096 -805166310 -1606275070 897074345
            -528350535 1610728532 642506959 131727854</internalNodes>
          <leafValues>
            -4.1366511583328247e-001 4.2150565981864929e-001</leafValues></_>
        <_>
          <internalNodes>
            0 -1 114 1636039542 570700528 337384522 957089859
            -2113893834 -804650264 1510131873 1606192001</internalNodes>
          <leafValues>
            -6.7224806547164917e-001 2.4611306190490723e-001</leafValues></_></weakClassifiers></_>
    <!-- stage 11 -->
    <_>
      <maxWeakCount>11</maxWeakCount>
      <stageThreshold>-1.9030323028564453e+000</stageThreshold>
      <weakClassifiers>
        <_>
          <internalNodes>
            0 -1 97 -741237513 -1782262475 -737034179 -75120307
            -225915963 -275979029 -353525025 -51010081</internalNodes>
          <leafValues>
            -6.4243257045745850e-001 1.8630412220954895e-001</leafValues></_>
        <_>
          <internalNodes>
            0 -1 5 -338437138 -83114933 1402569035 1229144267 -611988577
            -1081606136 442604543 -103289929</internalNodes>
          <leafValues>
            -5.7074296474456787e-001 2.6453104615211487e-001</leafValues></_>
        <_>
          <internalNodes>
            0 -1 92 601600597 -296857450 -99381223 -490414946 -446465513
            1967065538 -70673369 -318988292</internalNodes>
          <leafValues>
            -6.9084316492080688e-001 2.4000684916973114e-001</leafValues></_>
        <_>
          <internalNodes>
            0 -1 144 -217973873 1435173395 88711569 819925005 -225855232
            -1459584990 -1157418097 -240800857</internalNodes>
          <leafValues>
            -4.9660757184028625e-001 3.4355840086936951e-001</leafValues></_>
        <_>
          <internalNodes>
            0 -1 61 1969165232 1627439392 536924310 -509931114
            -225744735 -1743481982 -1831914598 699390353</internalNodes>
          <leafValues>
            -4.3256375193595886e-001 3.4655734896659851e-001</leafValues></_>
        <_>
          <internalNodes>
            0 -1 100 -1456757989 -524101289 944050674 -526986960
            1367581879 2005636122 -343696861 -856895044</internalNodes>
          <leafValues>
            -7.2040796279907227e-001 2.3072715103626251e-001</leafValues></_>
        <_>
          <internalNodes>
            0 -1 126 -455903399 1427704739 1103135169 1972068881
            -2138929429 -536280814 537040363 728003412</internalNodes>
          <leafValues>
            -5.4662185907363892e-001 2.5905776023864746e-001</leafValues></_>
        <_>
          <internalNodes>
            0 -1 1 -283964658 1392776970 16393 831009036 158 -1339420540
            1363316874 843913663</internalNodes>
          <leafValues>
            -3.8868880271911621e-001 3.7598106265068054e-001</leafValues></_>
        <_>
          <internalNodes>
            0 -1 186 -667880707 -760182886 -801009232 -356409332
            456142951 -1684815616 -360207994 565414602</internalNodes>
          <leafValues>
            -4.9952626228332520e-001 2.9890400171279907e-001</leafValues></_>
        <_>
          <internalNodes>
            0 -1 146 -307757057 1017368589 -1601548089 1712327177
            -477103627 -666124113 -526874080 2140701096</internalNodes>
          <leafValues>
            -7.0400542020797729e-001 2.2852079570293427e-001</leafValues></_>
        <_>
          <internalNodes>
            0 -1 13 -1441675130 -48758374 32771 -854654958 -1560049249
            462094474 -805186973 1619370422</internalNodes>
          <leafValues>
            -6.4439040422439575e-001 2.3109632730484009e-001</leafValues></_></weakClassifiers></_>
    <!-- stage 12 -->
    <_>
      <maxWeakCount>13</maxWeakCount>
      <stageThreshold>-1.9261397123336792e+000</stageThreshold>
      <weakClassifiers>
        <_>
          <internalNodes>
            0 -1 38 559006207 -745336812 25448863 -553179899 -1451192149
            -1685438323 -1610577873 -142407551</internalNodes>
          <leafValues>
            -7.3480665683746338e-001 8.0291971564292908e-002</leafValues></_>
        <_>
          <internalNodes>
            0 -1 88 -1042681547 1719701759 16843019 1402675459 537073827
            -654245246 687902639 -1997020693</internalNodes>
          <leafValues>
            -6.0080671310424805e-001 2.0431806147098541e-001</leafValues></_>
        <_>
          <internalNodes>
            0 -1 86 1359081980 1410355219 1099010398 1657297100
            169914620 958005643 -1920431900 -930289270</internalNodes>
          <leafValues>
            -6.9711005687713623e-001 1.9244815409183502e-001</leafValues></_>
        <_>
          <internalNodes>
            0 -1 48 -1870671479 1709916480 -788430848 -103082972
            -1551849642 -1573379453 -2138079168 -169366549</internalNodes>
          <leafValues>
            -4.4990128278732300e-001 3.6575490236282349e-001</leafValues></_>
        <_>
          <internalNodes>
            0 -1 40 2034281184 830668962 -914166136 1362181799
            -1576333183 824320521 406501083 84877791</internalNodes>
          <leafValues>
            -3.8675263524055481e-001 3.8043716549873352e-001</leafValues></_>
        <_>
          <internalNodes>
            0 -1 119 1835858553 -326990182 1161822467 -1045159669
            -482176953 -2128904189 -376737739 -67310908</internalNodes>
          <leafValues>
            -5.7822644710540771e-001 2.4508579075336456e-001</leafValues></_>
        <_>
          <internalNodes>
            0 -1 149 -389361980 -40860848 10920999 293668488 1438746278
            705300490 295412386 25931423</internalNodes>
          <leafValues>
            -3.8889947533607483e-001 3.8952142000198364e-001</leafValues></_>
        <_>
          <internalNodes>
            0 -1 98 861115921 -1051860991 5259509 -2091300137
            -1708547895 -1710653173 201359785 732711073</internalNodes>
          <leafValues>
            -5.6118065118789673e-001 2.6078033447265625e-001</leafValues></_>
        <_>
          <internalNodes>
            0 -1 51 -469527007 1418248205 -1543363326 1284833514
            -1744590430 1083162635 1762345103 1694470801</internalNodes>
          <leafValues>
            -4.6382042765617371e-001 2.8903368115425110e-001</leafValues></_>
        <_>
          <internalNodes>
            0 -1 94 -1411784677 -416742927 -937357099 -825753454
            -1065108978 -1446073854 -1182213549 -1561538328</internalNodes>
          <leafValues>
            -6.3311797380447388e-001 2.3976810276508331e-001</leafValues></_>
        <_>
          <internalNodes>
            0 -1 170 -1424977580 1502848347 -779811452 463322207
            981481617 1638318157 745245967 1058764025</internalNodes>
          <leafValues>
            -4.2608234286308289e-001 3.3756908774375916e-001</leafValues></_>
        <_>
          <internalNodes>
            0 -1 165 -1415842990 -804712063 1091665947 340591489
            -125161392 -342325114 -2012094237 1619198531</internalNodes>
          <leafValues>
            -5.7346099615097046e-001 2.4327559769153595e-001</leafValues></_>
        <_>
          <internalNodes>
            0 -1 76 -50737775 -1610649602 -21127227 1876950772 -8950532
            1870462375 -176863877 1693814111</internalNodes>
          <leafValues>
            -3.6574217677116394e-001 4.0398672223091125e-001</leafValues></_></weakClassifiers></_>
    <!-- stage 13 -->
    <_>
      <maxWeakCount>11</maxWeakCount>
      <stageThreshold>-1.7156450748443604e+000</stageThreshold>
      <weakClassifiers>
        <_>
          <internalNodes>
            0 -1 55 -1017125493 -128516020 50397455 -1622212404
            311036143 -1211367414 44804347 -1208629113</internalNodes>
          <leafValues>
            -6.8325304985046387e-001 4.3478261679410934e-002</leafValues></_>
        <_>
          <internalNodes>
            0 -1 6 -955133453 -1256992622 1090553287 -853602089
            -1828329070 -1195210581 1484988811 -373032781</internalNodes>
          <leafValues>
            -5.0874727964401245e-001 2.8334262967109680e-001</leafValues></_>
        <_>
          <internalNodes>
            0 -1 65 -1008760902 -977133322 -805306080 -138419456
            -2061842770 146577423 -1309416715 -773543803</internalNodes>
          <leafValues>
            -5.1536047458648682e-001 2.5399386882781982e-001</leafValues></_>
        <_>
          <internalNodes>
            0 -1 145 -1575542188 -1852177904 -1023201019 -648046080
            -1014527419 -343179230 -393706880 -74667084</internalNodes>
          <leafValues>
            -6.6775178909301758e-001 2.2337210178375244e-001</leafValues></_>
        <_>
          <internalNodes>
            0 -1 179 -670774140 -550224624 1471790895 1604321157
            1367125711 2146758653 2138029359 357514474</internalNodes>
          <leafValues>
            -3.5359117388725281e-001 4.0213578939437866e-001</leafValues></_>
        <_>
          <internalNodes>
            0 -1 23 2100570701 1500719604 947746671 1998391910
            -1285555541 1287486431 1291787950 151849612</internalNodes>
          <leafValues>
            -3.4518784284591675e-001 3.9634484052658081e-001</leafValues></_>
        <_>
          <internalNodes>
            0 -1 85 -677946529 -535674493 33572251 -425020968
            -1865935831 -86498754 720088690 -355158032</internalNodes>
          <leafValues>
            -6.8032878637313843e-001 1.8996298313140869e-001</leafValues></_>
        <_>
          <internalNodes>
            0 -1 127 1346692877 -183721791 134283395 -1073545216
            -2012708302 939722880 101392958 1118667243</internalNodes>
          <leafValues>
            -7.1802961826324463e-001 1.9025850296020508e-001</leafValues></_>
        <_>
          <internalNodes>
            0 -1 15 1380713032 1900855498 831408853 289657127
            -1064769272 100925848 1135804591 271537823</internalNodes>
          <leafValues>
            -4.8715233802795410e-001 2.5962063670158386e-001</leafValues></_>
        <_>
          <internalNodes>
            0 -1 147 -679675905 -1810116334 356884948 1849704761
            -1608875533 -905445244 -1193084508 2095847664</internalNodes>
          <leafValues>
            -6.3559710979461670e-001 2.1285878121852875e-001</leafValues></_>
        <_>
          <internalNodes>
            0 -1 60 1508957952 444469616 286296066 1830572585
            -1568437560 59248774 558803791 1796987472</internalNodes>
          <leafValues>
            -4.3089523911476135e-001 3.3439204096794128e-001</leafValues></_></weakClassifiers></_>
    <!-- stage 14 -->
    <_>
      <maxWeakCount>15</maxWeakCount>
      <stageThreshold>-1.9274867773056030e+000</stageThreshold>
      <weakClassifiers>
        <_>
          <internalNodes>
            0 -1 90 -1145515087 -619474554 -1162743783 -705363806
            -1191058769 -1630105583 143651503 -922755927</internalNodes>
          <leafValues>
            -6.9503915309906006e-001 8.7747037410736084e-002</leafValues></_>
        <_>
          <internalNodes>
            0 -1 8 -804224041 1351975321 -1878949539 1263669272
            1073915027 1015152776 201328767 -135034732</internalNodes>
          <leafValues>
            -5.2145224809646606e-001 2.6236554980278015e-001</leafValues></_>
        <_>
          <internalNodes>
            0 -1 56 -1483214670 -926772982 59817987 -258271160
            -493630194 -1576894309 -2121236442 -1326978233</internalNodes>
          <leafValues>
            -5.4144084453582764e-001 2.5857549905776978e-001</leafValues></_>
        <_>
          <internalNodes>
            0 -1 104 -1747533020 1180565982 131167 1571160090 348152647
            -1325334517 -2121102668 -611807048</internalNodes>
          <leafValues>
            -6.6512948274612427e-001 2.4938720464706421e-001</leafValues></_>
        <_>
          <internalNodes>
            0 -1 111 1137288005 -2029485961 -805238604 1430356161 958647
            -1030717280 324247711 1794238671</internalNodes>
          <leafValues>
            -5.2833163738250732e-001 2.6013237237930298e-001</leafValues></_>
        <_>
          <internalNodes>
            0 -1 30 1501996194 358154392 822232082 1095631202 2047648809
            8388790 -1690099413 208377750</internalNodes>
          <leafValues>
            -4.0704959630966187e-001 3.4881576895713806e-001</leafValues></_>
        <_>
          <internalNodes>
            0 -1 115 245512823 -298532703 42489935 -359116350
            -1686043071 -620189673 -893877711 -286458192</internalNodes>
          <leafValues>
            -6.7236340045928955e-001 1.9961243867874146e-001</leafValues></_>
        <_>
          <internalNodes>
            0 -1 154 -578107240 865697403 1509158313 -2095721363
            -1674003789 1039613629 1301348018 1434427311</internalNodes>
          <leafValues>
            -2.7922853827476501e-001 5.2620261907577515e-001</leafValues></_>
        <_>
          <internalNodes>
            0 -1 9 -700917682 -529686498 -1475752892 17236089 789827230
            999907402 846514861 137521598</internalNodes>
          <leafValues>
            -4.1001686453819275e-001 3.2862031459808350e-001</leafValues></_>
        <_>
          <internalNodes>
            0 -1 158 -2092595396 2045313221 -1585298742 -1101889334
            -259078976 -1853423501 -1415911212 -795029836</internalNodes>
          <leafValues>
            -5.3859192132949829e-001 2.5335925817489624e-001</leafValues></_>
        <_>
          <internalNodes>
            0 -1 24 1077809240 -918552236 -1290796455 -1286424437
            1610809499 277479430 180896043 204942347</internalNodes>
          <leafValues>
            -3.9542517066001892e-001 3.6544221639633179e-001</leafValues></_>
        <_>
          <internalNodes>
            0 -1 16 -2041163320 -569048752 65667 151978116 -1825898289
            -1056899070 302221343 1350631610</internalNodes>
          <leafValues>
            -5.2169907093048096e-001 2.7330526709556580e-001</leafValues></_>
        <_>
          <internalNodes>
            0 -1 142 -720157293 -1861156861 -1069547367 -785940411
            1913962637 12648448 1286062378 -1145163762</internalNodes>
          <leafValues>
            -5.3830605745315552e-001 2.9886987805366516e-001</leafValues></_>
        <_>
          <internalNodes>
            0 -1 173 -1308053176 -2012515955 1079350405 75434517
            827621893 399706502 -2137673200 2006311348</internalNodes>
          <leafValues>
            -4.8248493671417236e-001 3.0593287944793701e-001</leafValues></_>
        <_>
          <internalNodes>
            0 -1 159 1356239760 1140769237 906062596 1899363869
            1501903262 824915097 92776382 1441469119</internalNodes>
          <leafValues>
            -4.1579645872116089e-001 3.6852288246154785e-001</leafValues></_></weakClassifiers></_>
    <!-- stage 15 -->
    <_>
      <maxWeakCount>13</maxWeakCount>
      <stageThreshold>-1.5296204090118408e+000</stageThreshold>
      <weakClassifiers>
        <_>
          <internalNodes>
            0 -1 34 -250883591 -178955695 1417972511 -13959143
            -125790025 -1734350198 -478041845 -343678847</internalNodes>
          <leafValues>
            -5.6404137611389160e-001 2.9729729890823364e-001</leafValues></_>
        <_>
          <internalNodes>
            0 -1 91 16982836 -963624893 17367388 1980301313 318816295
            143196299 109072 -56426334</internalNodes>
          <leafValues>
            -7.8455173969268799e-001 1.4755968749523163e-001</leafValues></_>
        <_>
          <internalNodes>
            0 -1 33 -511002848 -200990653 -2130667432 -854892284
            421560450 -1157627901 671647883 -509087049</internalNodes>
          <leafValues>
            -6.1984878778457642e-001 2.0457434654235840e-001</leafValues></_>
        <_>
          <internalNodes>
            0 -1 152 -372556225 851775537 -2143628389 815007803
            -1232420604 572817458 -670766908 2081729701</internalNodes>
          <leafValues>
            -6.7953246831893921e-001 1.8431255221366882e-001</leafValues></_>
        <_>
          <internalNodes>
            0 -1 103 -1085228011 -1529773439 1 -218036213 -2138931061
            -804651005 82383902 234423689</internalNodes>
          <leafValues>
            -5.0239813327789307e-001 2.4270313978195190e-001</leafValues></_>
        <_>
          <internalNodes>
            0 -1 156 -1070939966 -1886943087 -2147155752 -539229486
            65359744 44797476 981639554 350211319</internalNodes>
          <leafValues>
            -3.7552490830421448e-001 3.3698433637619019e-001</leafValues></_>
        <_>
          <internalNodes>
            0 -1 128 10638420 146801027 823296219 285217223 -1006002170
            -528285542 -1073708859 -1970763579</internalNodes>
          <leafValues>
            -6.7391395568847656e-001 1.7795088887214661e-001</leafValues></_>
        <_>
          <internalNodes>
            0 -1 168 -1782477400 1596813713 -2003784646 1400973382
            1066017293 420287381 1521336594 1146086396</internalNodes>
          <leafValues>
            -4.5967540144920349e-001 2.7458736300468445e-001</leafValues></_>
        <_>
          <internalNodes>
            0 -1 163 141789714 -1745961090 -654545244 -639980328
            1068824311 -1622212889 2109595055 -168972989</internalNodes>
          <leafValues>
            -3.1964021921157837e-001 4.2289382219314575e-001</leafValues></_>
        <_>
          <internalNodes>
            0 -1 73 -1023352112 1346802839 -799383502 1262609714
            -1987905104 270971015 -1547362804 488055521</internalNodes>
          <leafValues>
            -3.8562560081481934e-001 3.4086415171623230e-001</leafValues></_>
        <_>
          <internalNodes>
            0 -1 185 1401629518 -695969660 37044245 1151533553
            1880002563 581116042 2066264074 -362332109</internalNodes>
          <leafValues>
            -4.0502628684043884e-001 3.3814379572868347e-001</leafValues></_>
        <_>
          <internalNodes>
            0 -1 67 -434691710 1212785472 -251641207 -561370880
            -1328545622 -629136345 -1188919131 360751493</internalNodes>
          <leafValues>
            -6.1180233955383301e-001 1.9536660611629486e-001</leafValues></_>
        <_>
          <internalNodes>
            0 -1 150 -782744362 1367458071 -2141542798 461903941
            420088577 1213825043 947923763 433750695</internalNodes>
          <leafValues>
            -4.9191543459892273e-001 2.6258376240730286e-001</leafValues></_></weakClassifiers></_>
    <!-- stage 16 -->
    <_>
      <maxWeakCount>16</maxWeakCount>
      <stageThreshold>-2.1901609897613525e+000</stageThreshold>
      <weakClassifiers>
        <_>
          <internalNodes>
            0 -1 78 1368445363 294650107 133 1360101504 269488363
            -1853882334 -1559887733 -659300181</internalNodes>
          <leafValues>
            -6.9298243522644043e-001 3.2448377460241318e-002</leafValues></_>
        <_>
          <internalNodes>
            0 -1 116 -1035594089 1896050699 180224 -1862201205
            -905838462 1090584579 135299241 -1074221123</internalNodes>
          <leafValues>
            -5.4978489875793457e-001 1.9090028107166290e-001</leafValues></_>
        <_>
          <internalNodes>
            0 -1 52 100897152 -788266876 1342242817 84213772 1107361803
            1224933377 -2147352190 -1130284414</internalNodes>
          <leafValues>
            -5.7662159204483032e-001 2.1809807419776917e-001</leafValues></_>
        <_>
          <internalNodes>
            0 -1 72 -1052684009 1179767059 1879146881 -431980026 8521546
            -2004844406 1351286930 -386626672</internalNodes>
          <leafValues>
            -6.3675683736801147e-001 2.3420448601245880e-001</leafValues></_>
        <_>
          <internalNodes>
            0 -1 41 -261306875 -47838716 -1230302802 222801510
            -2056137019 -1781590574 -467910721 247154915</internalNodes>
          <leafValues>
            -3.7544476985931396e-001 4.0154832601547241e-001</leafValues></_>
        <_>
          <internalNodes>
            0 -1 28 1382361384 419791108 134318664 1797637575 1162891532
            86086169 1226186767 196645831</internalNodes>
          <leafValues>
            -4.1554772853851318e-001 3.4006044268608093e-001</leafValues></_>
        <_>
          <internalNodes>
            0 -1 182 268544587 -996130735 99087 1350910039 -1025735805
            271974865 558084810 1002038</internalNodes>
          <leafValues>
            -3.7637528777122498e-001 3.7342444062232971e-001</leafValues></_>
        <_>
          <internalNodes>
            0 -1 26 268439829 1048576 285217082 419758081 139 1904771208
            536871083 -2088697726</internalNodes>
          <leafValues>
            -3.8192620873451233e-001 3.6093682050704956e-001</leafValues></_>
        <_>
          <internalNodes>
            0 -1 47 1413480654 -1928331200 1073741824 -690798582
            -2139062264 -1727889408 -2146926358 598933635</internalNodes>
          <leafValues>
            -4.5875412225723267e-001 3.3979433774948120e-001</leafValues></_>
        <_>
          <internalNodes>
            0 -1 137 -380632698 33919490 1343334471 892340242
            -2104983551 278923274 -1577017311 -795573708</internalNodes>
          <leafValues>
            -6.7527514696121216e-001 2.1218337118625641e-001</leafValues></_>
        <_>
          <internalNodes>
            0 -1 59 -870022266 466403479 8389221 -1189740017 62923008
            1510637889 369150400 825858692</internalNodes>
          <leafValues>
            -5.0934153795242310e-001 3.0020037293434143e-001</leafValues></_>
        <_>
          <internalNodes>
            0 -1 45 -1031643134 1128661002 17891334 -174324530 8486955
            16941188 -2101311471 145457287</internalNodes>
          <leafValues>
            -5.8306223154067993e-001 2.1971021592617035e-001</leafValues></_>
        <_>
          <internalNodes>
            0 -1 176 -1201109622 -1044870573 2130326314 1502574207
            -1640514214 397932149 99968893 331334362</internalNodes>
          <leafValues>
            -3.6136949062347412e-001 4.3620041012763977e-001</leafValues></_>
        <_>
          <internalNodes>
            0 -1 143 -833854895 666965504 277086531 -1339977723
            -1071607628 690388995 34242699 -1167006077</internalNodes>
          <leafValues>
            -4.6989679336547852e-001 3.3190774917602539e-001</leafValues></_>
        <_>
          <internalNodes>
            0 -1 2 1090931072 -920354648 -922746096 134500362
            -1475795795 1493799055 -888977367 -2021676305</internalNodes>
          <leafValues>
            -4.0321099758148193e-001 3.6850637197494507e-001</leafValues></_>
        <_>
          <internalNodes>
            0 -1 17 1353711961 -16244319 -2076655228 1494442382
            -464789322 -332889907 1074176249 1358186568</internalNodes>
          <leafValues>
            -4.0767401456832886e-001 3.5215401649475098e-001</leafValues></_></weakClassifiers></_>
    <!-- stage 17 -->
    <_>
      <maxWeakCount>22</maxWeakCount>
      <stageThreshold>-2.0416944026947021e+000</stageThreshold>
      <weakClassifiers>
        <_>
          <internalNodes>
            0 -1 3 -684531837 -1189365407 -71322659 929560379 -50873360
            -169880011 -135942530 -4211233</internalNodes>
          <leafValues>
            -5.1195150613784790e-001 5.7029175758361816e-001</leafValues></_>
        <_>
          <internalNodes>
            0 -1 93 16781462 -2147483584 16842906 268501249 4707
            134742025 -2139029488 -2004811646</internalNodes>
          <leafValues>
            -7.7644008398056030e-001 1.7436079680919647e-001</leafValues></_>
        <_>
          <internalNodes>
            0 -1 34 -444558856 352391681 8397076 -634191859 -804743037
            -1743028094 -2088654839 -1350352896</internalNodes>
          <leafValues>
            -3.6287140846252441e-001 4.1860884428024292e-001</leafValues></_>
        <_>
          <internalNodes>
            0 -1 174 -1002135926 -378638614 692857797 -1684717788
            -2025263924 782155770 2131662415 992968823</internalNodes>
          <leafValues>
            -2.6599511504173279e-001 5.8845239877700806e-001</leafValues></_>
        <_>
          <internalNodes>
            0 -1 113 1103111258 1364918545 8 1344339969 1074368662
            285540360 -2147483517 -1172291197</internalNodes>
          <leafValues>
            -5.9518003463745117e-001 2.5111463665962219e-001</leafValues></_>
        <_>
          <internalNodes>
            0 -1 181 143705240 272826771 -1073706916 1629159582
            1905267382 -1879047279 421756936 390938172</internalNodes>
          <leafValues>
            -5.0942254066467285e-001 3.1444570422172546e-001</leafValues></_>
        <_>
          <internalNodes>
            0 -1 151 1580700864 -244691074 1576533627 930903359
            -2022718467 939439980 306365832 -1481375753</internalNodes>
          <leafValues>
            -2.7766543626785278e-001 6.4328163862228394e-001</leafValues></_>
        <_>
          <internalNodes>
            0 -1 133 286286752 1124139265 536969474 -167682036 134971669
            83951756 142835745 -101154688</internalNodes>
          <leafValues>
            -5.2487426996231079e-001 3.3195334672927856e-001</leafValues></_>
        <_>
          <internalNodes>
            0 -1 172 -527633468 -804764928 268861696 -2088335327
            -1879048084 1376256006 578913122 871051941</internalNodes>
          <leafValues>
            -4.3643847107887268e-001 3.9823317527770996e-001</leafValues></_>
        <_>
          <internalNodes>
            0 -1 42 -131285562 1929034274 894348872 1841949362
            -134944258 595443382 -1790593041 -77500690</internalNodes>
          <leafValues>
            -3.0071303248405457e-001 5.9496742486953735e-001</leafValues></_>
        <_>
          <internalNodes>
            0 -1 155 1517899311 -1885083002 -1500856790 1363803865
            872898315 -847282179 -1167522573 2129839159</internalNodes>
          <leafValues>
            -3.3937898278236389e-001 4.5960274338722229e-001</leafValues></_>
        <_>
          <internalNodes>
            0 -1 141 1590615705 -634888226 -51561694 -1778570133
            2096997597 -1400410961 1567856635 -1442055497</internalNodes>
          <leafValues>
            -2.3642031848430634e-001 7.0669466257095337e-001</leafValues></_>
        <_>
          <internalNodes>
            0 -1 10 1081287262 -1515294723 2054991352 1362339636
            -9323862 1247767933 507313855 -547449105</internalNodes>
          <leafValues>
            -3.2902282476425171e-001 4.8410138487815857e-001</leafValues></_>
        <_>
          <internalNodes>
            0 -1 180 -217802098 1484684790 -1082282141 -1629946628
            -864097185 971341557 -822722750 -496263561</internalNodes>
          <leafValues>
            -2.6455074548721313e-001 6.3135170936584473e-001</leafValues></_>
        <_>
          <internalNodes>
            0 -1 39 1644528272 1132628057 52750489 23955459 1371570304
            -1070661309 553781770 325339172</internalNodes>
          <leafValues>
            -5.9588605165481567e-001 3.4722504019737244e-001</leafValues></_>
        <_>
          <internalNodes>
            0 -1 58 -787427184 -1031798784 268435456 -805240780
            134250508 571031706 -2121758542 -2088591161</internalNodes>
          <leafValues>
            -5.2696007490158081e-001 3.1022077798843384e-001</leafValues></_>
        <_>
          <internalNodes>
            0 -1 68 -2075704622 998670993 1744962048 32408738
            -2046787573 39952518 39961257 1761854181</internalNodes>
          <leafValues>
            -5.5087721347808838e-001 3.4271579980850220e-001</leafValues></_>
        <_>
          <internalNodes>
            0 -1 21 1396396361 683224877 385593152 432807931 -1372209201
            1819246463 458645086 -1171933198</internalNodes>
          <leafValues>
            -3.3914116024971008e-001 4.8934477567672729e-001</leafValues></_>
        <_>
          <internalNodes>
            0 -1 63 2004900162 364576805 1476411421 320346254
            -1069533128 271327279 813791266 1718788656</internalNodes>
          <leafValues>
            -5.1797240972518921e-001 3.1719291210174561e-001</leafValues></_>
        <_>
          <internalNodes>
            0 -1 83 1343225915 -259342079 9 -167116792 -1744666494
            696352896 -2013134838 -392658808</internalNodes>
          <leafValues>
            -4.8134222626686096e-001 3.6239030957221985e-001</leafValues></_>
        <_>
          <internalNodes>
            0 -1 29 -1188710981 761015930 1995838698 291503987
            1073028645 -974921865 2102736840 1220451359</internalNodes>
          <leafValues>
            -3.9124557375907898e-001 4.5701473951339722e-001</leafValues></_>
        <_>
          <internalNodes>
            0 -1 178 613091676 -1341013619 1210650952 -1458011557
            721453744 1208614912 1820925953 1543536640</internalNodes>
          <leafValues>
            -6.0929125547409058e-001 2.6055628061294556e-001</leafValues></_></weakClassifiers></_>
    <!-- stage 18 -->
    <_>
      <maxWeakCount>18</maxWeakCount>
      <stageThreshold>-2.4641070365905762e+000</stageThreshold>
      <weakClassifiers>
        <_>
          <internalNodes>
            0 -1 169 -1024737137 -754254908 1660861836 -1451168397
            83469424 -2030674059 -830020177 -341056625</internalNodes>
          <leafValues>
            -5.3203344345092773e-001 1.</leafValues></_>
        <_>
          <internalNodes>
            0 -1 75 1610711272 1346437248 16388 -721350527 -2146416496
            -1206812660 -2147450230 -1987739519</internalNodes>
          <leafValues>
            -5.2968680858612061e-001 4.5311391353607178e-001</leafValues></_>
        <_>
          <internalNodes>
            0 -1 37 1544196264 460743420 212168369 1915748073 -819043321
            -1619034341 -1033622117 -76908769</internalNodes>
          <leafValues>
            -3.4033969044685364e-001 6.9947081804275513e-001</leafValues></_>
        <_>
          <internalNodes>
            0 -1 82 541216770 1359118336 65536 -738066432 33620108
            1073872896 8421386 -1420508544</internalNodes>
          <leafValues>
            -5.8582699298858643e-001 4.2259559035301208e-001</leafValues></_>
        <_>
          <internalNodes>
            0 -1 49 -1690188668 1479575314 -907499975 -1741833511
            -1300847088 1446569301 1326570076 -969509610</internalNodes>
          <leafValues>
            -4.3045258522033691e-001 5.8563023805618286e-001</leafValues></_>
        <_>
          <internalNodes>
            0 -1 184 -939506604 1342177281 -2144829440 8527873 8552714
            -2113863680 -1879015414 1082851627</internalNodes>
          <leafValues>
            -5.3002369403839111e-001 5.2265805006027222e-001</leafValues></_>
        <_>
          <internalNodes>
            0 -1 161 268523737 1358987904 -1602158567 -1858076539
            -2138013404 182452256 -2130624479 742932810</internalNodes>
          <leafValues>
            -5.5359452962875366e-001 4.5449951291084290e-001</leafValues></_>
        <_>
          <internalNodes>
            0 -1 131 1347571752 16786752 16777472 -1342177280
            -1877966464 553648257 1073742344 -897515488</internalNodes>
          <leafValues>
            -5.6799346208572388e-001 4.5068415999412537e-001</leafValues></_>
        <_>
          <internalNodes>
            0 -1 183 -1721519352 997993206 -1149474839 -1523205512
            1021114575 1719599010 236911464 -1826863936</internalNodes>
          <leafValues>
            -4.2653077840805054e-001 6.2738549709320068e-001</leafValues></_>
        <_>
          <internalNodes>
            0 -1 157 1287559272 -1938883905 -1385005317 485473821
            778026212 855015290 240563895 333706406</internalNodes>
          <leafValues>
            -3.9612555503845215e-001 6.0827738046646118e-001</leafValues></_>
        <_>
          <internalNodes>
            0 -1 12 -1927282660 16785865 32768 1082359811 1091174529
            -2147483640 1702938662 -232980170</internalNodes>
          <leafValues>
            -4.7039934992790222e-001 5.6750625371932983e-001</leafValues></_>
        <_>
          <internalNodes>
            0 -1 63 -8258734 -1359073545 1929734121 136167078 -562187019
            -1518534785 1839316318 -1136987944</internalNodes>
          <leafValues>
            -3.7533244490623474e-001 7.2074753046035767e-001</leafValues></_>
        <_>
          <internalNodes>
            0 -1 141 2119006221 547905295 -51527878 922582143 1560262636
            206012206 1432031211 -1156949963</internalNodes>
          <leafValues>
            -3.0719149112701416e-001 7.0769745111465454e-001</leafValues></_>
        <_>
          <internalNodes>
            0 -1 41 -663796200 -559424980 -1493461720 151989924
            -839590202 -1754325130 618428246 297487099</internalNodes>
          <leafValues>
            -4.4610187411308289e-001 5.3352814912796021e-001</leafValues></_>
        <_>
          <internalNodes>
            0 -1 164 27301903 -1035191746 1333640631 243386105
            -1266895183 401592189 1719070025 -346843606</internalNodes>
          <leafValues>
            -3.3293208479881287e-001 6.8788707256317139e-001</leafValues></_>
        <_>
          <internalNodes>
            0 -1 175 268929090 17825792 1 -1073676288 40968 537395200
            -1879046142 1896939523</internalNodes>
          <leafValues>
            -6.8497055768966675e-001 2.9756894707679749e-001</leafValues></_>
        <_>
          <internalNodes>
            0 -1 122 -805285757 272695681 69632 335553537 33554573
            553648929 -2145386488 -232652221</internalNodes>
          <leafValues>
            -4.3497872352600098e-001 5.3627896308898926e-001</leafValues></_>
        <_>
          <internalNodes>
            0 -1 170 16875698 973144131 -2147450726 1962967040 1048587
            -2113929216 35692545 1546420780</internalNodes>
          <leafValues>
            -5.8598834276199341e-001 4.5305863022804260e-001</leafValues></_></weakClassifiers></_>
    <!-- stage 19 -->
    <_>
      <maxWeakCount>9</maxWeakCount>
      <stageThreshold>-2.4462668895721436e+000</stageThreshold>
      <weakClassifiers>
        <_>
          <internalNodes>
            0 -1 177 -1056845696 -1874853342 16384 16924672 -1878490872
            0 -1610579960 -2094989303</internalNodes>
          <leafValues>
            -6.9818603992462158e-001 1.</leafValues></_>
        <_>
          <internalNodes>
            0 -1 7 1073741840 1342177281 0 150994945 -2147442560
            -1610612736 8421512 -905822208</internalNodes>
          <leafValues>
            -5.4812109470367432e-001 7.6839530467987061e-001</leafValues></_>
        <_>
          <internalNodes>
            0 -1 11 148925072 2125096686 -1371627989 -2098237945
            796780352 1457027047 -1778047046 -1478462461</internalNodes>
          <leafValues>
            -5.1543611288070679e-001 8.3958697319030762e-001</leafValues></_>
        <_>
          <internalNodes>
            0 -1 135 -2147479543 -2147483648 0 -2130706432 128 32768
            16777347 -1341784062</internalNodes>
          <leafValues>
            -6.6550332307815552e-001 6.0729598999023438e-001</leafValues></_>
        <_>
          <internalNodes>
            0 -1 160 -938884608 205223796 459959653 -2146271820
            525612388 -581533868 357850809 -1870423577</internalNodes>
          <leafValues>
            -4.3030950427055359e-001 9.6927100419998169e-001</leafValues></_>
        <_>
          <internalNodes>
            0 -1 31 -1190253376 9022976 -1137775078 -1711251911
            -1268332912 1163720482 897429065 -968442749</internalNodes>
          <leafValues>
            -4.4800946116447449e-001 7.9429990053176880e-001</leafValues></_>
        <_>
          <internalNodes>
            0 -1 41 285344770 1342177792 0 150994944 -2139062142
            -2147352576 130 547487883</internalNodes>
          <leafValues>
            -5.7239365577697754e-001 7.0299905538558960e-001</leafValues></_>
        <_>
          <internalNodes>
            0 -1 129 -1394180470 1956577151 -201416914 411944828
            520080832 477854836 1342135802 -663929729</internalNodes>
          <leafValues>
            -4.6983519196510315e-001 8.6366730928421021e-001</leafValues></_>
        <_>
          <internalNodes>
            0 -1 15 -2122149760 1073741825 0 17367040 545292416 0
            402653322 1770135563</internalNodes>
          <leafValues>
            -5.7792061567306519e-001 6.2613469362258911e-001</leafValues></_></weakClassifiers></_></stages>
  <features>
    <_>
      <rect>
        0 0 1 2</rect></_>
    <_>
      <rect>
        0 0 1 4</rect></_>
    <_>
      <rect>
        0 0 2 2</rect></_>
    <_>
      <rect>
        0 0 3 1</rect></_>
    <_>
      <rect>
        0 0 3 3</rect></_>
    <_>
      <rect>
        0 0 4 4</rect></_>
    <_>
      <rect>
        0 0 5 2</rect></_>
    <_>
      <rect>
        0 0 6 1</rect></_>
    <_>
      <rect>
        0 0 7 2</rect></_>
    <_>
      <rect>
        0 1 1 1</rect></_>
    <_>
      <rect>
        0 1 1 2</rect></_>
    <_>
      <rect>
        0 1 2 1</rect></_>
    <_>
      <rect>
        0 1 2 2</rect></_>
    <_>
      <rect>
        0 1 3 4</rect></_>
    <_>
      <rect>
        0 1 4 4</rect></_>
    <_>
      <rect>
        0 2 1 1</rect></_>
    <_>
      <rect>
        0 2 5 4</rect></_>
    <_>
      <rect>
        0 3 1 1</rect></_>
    <_>
      <rect>
        0 3 3 4</rect></_>
    <_>
      <rect>
        0 3 8 4</rect></_>
    <_>
      <rect>
        0 5 1 1</rect></_>
    <_>
      <rect>
        0 5 1 2</rect></_>
    <_>
      <rect>
        0 5 2 3</rect></_>
    <_>
      <rect>
        0 6 1 1</rect></_>
    <_>
      <rect>
        0 6 1 2</rect></_>
    <_>
      <rect>
        0 6 3 3</rect></_>
    <_>
      <rect>
        0 6 8 2</rect></_>
    <_>
      <rect>
        0 9 2 2</rect></_>
    <_>
      <rect>
        1 0 1 2</rect></_>
    <_>
      <rect>
        1 0 2 1</rect></_>
    <_>
      <rect>
        1 0 2 2</rect></_>
    <_>
      <rect>
        1 0 3 1</rect></_>
    <_>
      <rect>
        1 0 3 3</rect></_>
    <_>
      <rect>
        1 0 4 3</rect></_>
    <_>
      <rect>
        1 0 5 1</rect></_>
    <_>
      <rect>
        1 0 5 2</rect></_>
    <_>
      <rect>
        1 0 7 2</rect></_>
    <_>
      <rect>
        1 1 1 2</rect></_>
    <_>
      <rect>
        1 1 6 1</rect></_>
    <_>
      <rect>
        1 2 1 1</rect></_>
    <_>
      <rect>
        1 2 1 2</rect></_>
    <_>
      <rect>
        1 3 1 1</rect></_>
    <_>
      <rect>
        1 4 1 1</rect></_>
    <_>
      <rect>
        1 5 3 1</rect></_>
    <_>
      <rect>
        1 6 2 3</rect></_>
    <_>
      <rect>
        1 8 1 1</rect></_>
    <_>
      <rect>
        1 8 2 1</rect></_>
    <_>
      <rect>
        1 10 2 1</rect></_>
    <_>
      <rect>
        1 11 1 1</rect></_>
    <_>
      <rect>
        2 0 2 1</rect></_>
    <_>
      <rect>
        2 0 4 2</rect></_>
    <_>
      <rect>
        2 1 2 2</rect></_>
    <_>
      <rect>
        2 3 2 3</rect></_>
    <_>
      <rect>
        2 3 3 4</rect></_>
    <_>
      <rect>
        2 4 3 1</rect></_>
    <_>
      <rect>
        2 4 4 3</rect></_>
    <_>
      <rect>
        2 8 1 2</rect></_>
    <_>
      <rect>
        2 11 1 1</rect></_>
    <_>
      <rect>
        2 12 1 1</rect></_>
    <_>
      <rect>
        3 0 1 1</rect></_>
    <_>
      <rect>
        3 0 2 1</rect></_>
    <_>
      <rect>
        3 0 2 2</rect></_>
    <_>
      <rect>
        3 0 4 2</rect></_>
    <_>
      <rect>
        3 1 1 1</rect></_>
    <_>
      <rect>
        3 6 3 3</rect></_>
    <_>
      <rect>
        3 7 1 1</rect></_>
    <_>
      <rect>
        4 0 7 2</rect></_>
    <_>
      <rect>
        4 6 1 1</rect></_>
    <_>
      <rect>
        5 0 1 1</rect></_>
    <_>
      <rect>
        5 0 1 3</rect></_>
    <_>
      <rect>
        5 1 4 1</rect></_>
    <_>
      <rect>
        5 3 5 4</rect></_>
    <_>
      <rect>
        5 9 1 2</rect></_>
    <_>
      <rect>
        6 0 1 1</rect></_>
    <_>
      <rect>
        6 0 2 1</rect></_>
    <_>
      <rect>
        6 0 3 1</rect></_>
    <_>
      <rect>
        6 0 4 1</rect></_>
    <_>
      <rect>
        6 0 6 2</rect></_>
    <_>
      <rect>
        6 0 6 3</rect></_>
    <_>
      <rect>
        6 1 6 1</rect></_>
    <_>
      <rect>
        6 1 6 4</rect></_>
    <_>
      <rect>
        6 7 1 1</rect></_>
    <_>
      <rect>
        6 7 1 2</rect></_>
    <_>
      <rect>
        6 10 1 1</rect></_>
    <_>
      <rect>
        6 11 1 1</rect></_>
    <_>
      <rect>
        6 12 1 1</rect></_>
    <_>
      <rect>
        6 12 3 1</rect></_>
    <_>
      <rect>
        7 0 4 2</rect></_>
    <_>
      <rect>
        7 0 6 4</rect></_>
    <_>
      <rect>
        7 1 3 2</rect></_>
    <_>
      <rect>
        7 2 1 1</rect></_>
    <_>
      <rect>
        7 6 6 3</rect></_>
    <_>
      <rect>
        7 7 1 1</rect></_>
    <_>
      <rect>
        7 7 6 2</rect></_>
    <_>
      <rect>
        7 9 1 1</rect></_>
    <_>
      <rect>
        7 10 1 1</rect></_>
    <_>
      <rect>
        7 12 1 1</rect></_>
    <_>
      <rect>
        8 0 3 1</rect></_>
    <_>
      <rect>
        8 1 2 1</rect></_>
    <_>
      <rect>
        8 2 1 1</rect></_>
    <_>
      <rect>
        8 10 1 1</rect></_>
    <_>
      <rect>
        8 11 1 1</rect></_>
    <_>
      <rect>
        9 0 4 1</rect></_>
    <_>
      <rect>
        9 2 1 1</rect></_>
    <_>
      <rect>
        9 5 2 3</rect></_>
    <_>
      <rect>
        9 6 1 1</rect></_>
    <_>
      <rect>
        10 0 4 3</rect></_>
    <_>
      <rect>
        10 1 2 1</rect></_>
    <_>
      <rect>
        10 5 3 3</rect></_>
    <_>
      <rect>
        10 9 1 1</rect></_>
    <_>
      <rect>
        10 12 1 1</rect></_>
    <_>
      <rect>
        11 0 4 3</rect></_>
    <_>
      <rect>
        11 1 1 1</rect></_>
    <_>
      <rect>
        11 1 2 1</rect></_>
    <_>
      <rect>
        11 5 3 3</rect></_>
    <_>
      <rect>
        11 6 1 1</rect></_>
    <_>
      <rect>
        12 1 1 1</rect></_>
    <_>
      <rect>
        12 1 4 3</rect></_>
    <_>
      <rect>
        12 2 4 2</rect></_>
    <_>
      <rect>
        12 6 1 2</rect></_>
    <_>
      <rect>
        12 10 1 1</rect></_>
    <_>
      <rect>
        12 11 1 1</rect></_>
    <_>
      <rect>
        13 0 2 1</rect></_>
    <_>
      <rect>
        13 0 4 4</rect></_>
    <_>
      <rect>
        13 1 2 2</rect></_>
    <_>
      <rect>
        13 1 3 3</rect></_>
    <_>
      <rect>
        13 2 1 1</rect></_>
    <_>
      <rect>
        13 2 4 3</rect></_>
    <_>
      <rect>
        13 6 2 2</rect></_>
    <_>
      <rect>
        14 0 2 1</rect></_>
    <_>
      <rect>
        14 0 3 4</rect></_>
    <_>
      <rect>
        14 1 2 1</rect></_>
    <_>
      <rect>
        14 2 1 1</rect></_>
    <_>
      <rect>
        14 7 1 1</rect></_>
    <_>
      <rect>
        14 12 1 1</rect></_>
    <_>
      <rect>
        15 3 1 1</rect></_>
    <_>
      <rect>
        15 4 3 3</rect></_>
    <_>
      <rect>
        15 8 1 1</rect></_>
    <_>
      <rect>
        15 9 1 1</rect></_>
    <_>
      <rect>
        15 9 1 2</rect></_>
    <_>
      <rect>
        15 12 1 1</rect></_>
    <_>
      <rect>
        16 0 2 1</rect></_>
    <_>
      <rect>
        16 1 1 2</rect></_>
    <_>
      <rect>
        16 4 1 1</rect></_>
    <_>
      <rect>
        16 5 3 3</rect></_>
    <_>
      <rect>
        16 6 1 2</rect></_>
    <_>
      <rect>
        16 9 1 2</rect></_>
    <_>
      <rect>
        16 12 1 1</rect></_>
    <_>
      <rect>
        16 12 2 1</rect></_>
    <_>
      <rect>
        17 0 1 1</rect></_>
    <_>
      <rect>
        17 0 2 1</rect></_>
    <_>
      <rect>
        17 1 1 1</rect></_>
    <_>
      <rect>
        17 6 1 1</rect></_>
    <_>
      <rect>
        17 9 1 1</rect></_>
    <_>
      <rect>
        18 0 1 2</rect></_>
    <_>
      <rect>
        18 0 2 1</rect></_>
    <_>
      <rect>
        18 1 1 1</rect></_>
    <_>
      <rect>
        18 2 1 1</rect></_>
    <_>
      <rect>
        18 10 1 1</rect></_>
    <_>
      <rect>
        19 0 1 1</rect></_>
    <_>
      <rect>
        19 0 1 2</rect></_>
    <_>
      <rect>
        19 0 2 1</rect></_>
    <_>
      <rect>
        19 0 2 2</rect></_>
    <_>
      <rect>
        19 0 2 3</rect></_>
    <_>
      <rect>
        19 1 2 2</rect></_>
    <_>
      <rect>
        19 6 2 3</rect></_>
    <_>
      <rect>
        19 8 2 2</rect></_>
    <_>
      <rect>
        19 9 2 2</rect></_>
    <_>
      <rect>
        20 0 1 1</rect></_>
    <_>
      <rect>
        20 0 1 2</rect></_>
    <_>
      <rect>
        20 1 1 1</rect></_>
    <_>
      <rect>
        20 2 1 1</rect></_>
    <_>
      <rect>
        21 0 1 1</rect></_>
    <_>
      <rect>
        21 1 1 2</rect></_>
    <_>
      <rect>
        21 5 1 1</rect></_>
    <_>
      <rect>
        21 12 1 1</rect></_>
    <_>
      <rect>
        22 0 1 2</rect></_>
    <_>
      <rect>
        22 0 1 3</rect></_>
    <_>
      <rect>
        22 1 1 1</rect></_>
    <_>
      <rect>
        22 1 1 2</rect></_>
    <_>
      <rect>
        22 2 1 3</rect></_>
    <_>
      <rect>
        22 3 1 1</rect></_>
    <_>
      <rect>
        22 5 1 2</rect></_>
    <_>
      <rect>
        22 6 1 1</rect></_>
    <_>
      <rect>
        22 7 1 2</rect></_>
    <_>
      <rect>
        22 8 1 2</rect></_>
    <_>
      <rect>
        22 12 1 1</rect></_></features></cascade>
</opencv_storage>
