<?xml version="1.0" encoding="utf-8"?>
<opencv_storage>
<cascade>
  <stageType>BOOST</stageType>
  <featureType>LBP</featureType>
  <height>15</height>
  <width>25</width>
  <stageParams>
    <boostType>GAB</boostType>
    <minHitRate>9.9900001287460327e-01</minHitRate>
    <maxFalseAlarm>5.0000000000000000e-01</maxFalseAlarm>
    <weightTrimRate>9.4999999999999996e-01</weightTrimRate>
    <maxDepth>1</maxDepth>
    <maxWeakCount>100</maxWeakCount></stageParams>
  <featureParams>
    <maxCatCount>256</maxCatCount>
    <featSize>1</featSize></featureParams>
  <stageNum>11</stageNum>
  <stages>
    <!-- stage 0 -->
    <_>
      <maxWeakCount>3</maxWeakCount>
      <stageThreshold>-1.0950812101364136e+00</stageThreshold>
      <weakClassifiers>
        <_>
          <internalNodes>
            0 -1 28 -586034883 -38415909 -238463489 -550170593
            -914301953 -1144487799 -1735803969 -7632501</internalNodes>
          <leafValues>
            -8.2850521802902222e-01 7.3551636934280396e-01</leafValues></_>
        <_>
          <internalNodes>
            0 -1 45 -3145963 -103809579 -1659660833 -547388209
            -1249772555 -1165451094 -1142246979 -137641841</internalNodes>
          <leafValues>
            -7.4830299615859985e-01 5.1462596654891968e-01</leafValues></_>
        <_>
          <internalNodes>
            0 -1 47 -1 -218630193 -683421232 -289889827 -120586259
            -21430053 -1694498928 -84083756</internalNodes>
          <leafValues>
            -7.6508951187133789e-01 4.8172697424888611e-01</leafValues></_></weakClassifiers></_>
    <!-- stage 1 -->
    <_>
      <maxWeakCount>5</maxWeakCount>
      <stageThreshold>-1.6424745321273804e+00</stageThreshold>
      <weakClassifiers>
        <_>
          <internalNodes>
            0 -1 3 -273811457 -74659686 -654058521 -7347201 -7605265
            -73260925 -83125345 -4195413</internalNodes>
          <leafValues>
            -7.9252779483795166e-01 6.1228173971176147e-01</leafValues></_>
        <_>
          <internalNodes>
            0 -1 63 -342 -69758561 -8326922 -12848703 -72680892
            -87850855 -622004012 -5242881</internalNodes>
          <leafValues>
            -8.0003720521926880e-01 4.3130412697792053e-01</leafValues></_>
        <_>
          <internalNodes>
            0 -1 58 260026351 -843199849 -56241963 -16798825 -276041161
            -173337629 -1159200907 -86185036</internalNodes>
          <leafValues>
            -7.1360230445861816e-01 3.5398778319358826e-01</leafValues></_>
        <_>
          <internalNodes>
            0 -1 71 -14680201 -272678745 -928525709 -310651699
            -834938029 1812039850 -3409229 2147480559</internalNodes>
          <leafValues>
            -8.3773767948150635e-01 3.2674017548561096e-01</leafValues></_>
        <_>
          <internalNodes>
            0 -1 26 -1343291557 -1903234608 1737675929 -1063474704
            -316677126 -427253609 -884347934 -17252632</internalNodes>
          <leafValues>
            -6.8253636360168457e-01 4.3384033441543579e-01</leafValues></_></weakClassifiers></_>
    <!-- stage 2 -->
    <_>
      <maxWeakCount>5</maxWeakCount>
      <stageThreshold>-1.3816862106323242e+00</stageThreshold>
      <weakClassifiers>
        <_>
          <internalNodes>
            0 -1 4 -979260945 -82722619 -553132577 -15347381 -1316964101
            -108429247 -1960133889 -74741629</internalNodes>
          <leafValues>
            -8.4766584634780884e-01 3.4920635819435120e-01</leafValues></_>
        <_>
          <internalNodes>
            0 -1 56 -33554561 -1752522621 -788409913 -439418725
            -1516187715 -1165918070 -343149059 -4201777</internalNodes>
          <leafValues>
            -5.6540894508361816e-01 4.6562212705612183e-01</leafValues></_>
        <_>
          <internalNodes>
            0 -1 43 -140520961 -302806741 -150867723 -285316685
            -609511437 -18902499 -206878476 -22222188</internalNodes>
          <leafValues>
            -7.2524124383926392e-01 3.7949663400650024e-01</leafValues></_>
        <_>
          <internalNodes>
            0 -1 11 -1011617281 -292887416 -1869769344 -1232036920
            -1601517429 -1920892728 -1727495253 -1072949</internalNodes>
          <leafValues>
            -6.7399138212203979e-01 4.1217049956321716e-01</leafValues></_>
        <_>
          <internalNodes>
            0 -1 59 -304359681 -82603557 -485455939 -319139369
            -919997865 -83131999 -1836335755 -18327356</internalNodes>
          <leafValues>
            -7.2961562871932983e-01 3.4445932507514954e-01</leafValues></_></weakClassifiers></_>
    <!-- stage 3 -->
    <_>
      <maxWeakCount>6</maxWeakCount>
      <stageThreshold>-1.8231673240661621e+00</stageThreshold>
      <weakClassifiers>
        <_>
          <internalNodes>
            0 -1 44 -204211841 -136477989 -745155109 -7368291 -645223425
            -1417117302 -645727237 -1324593</internalNodes>
          <leafValues>
            -7.6976650953292847e-01 5.1958525180816650e-01</leafValues></_>
        <_>
          <internalNodes>
            0 -1 14 -404294177 1338564298 -686800425 -75312894
            2064293979 -1148518245 -91651701 -4216145</internalNodes>
          <leafValues>
            -6.6430783271789551e-01 3.8669344782829285e-01</leafValues></_>
        <_>
          <internalNodes>
            0 -1 27 -1410336913 -1394043986 -236003361 -17500172
            -184321234 -1362194098 -39912970 -671288908</internalNodes>
          <leafValues>
            -6.5335035324096680e-01 3.9191153645515442e-01</leafValues></_>
        <_>
          <internalNodes>
            0 -1 34 -975225601 -378332277 -2011446118 -298925619
            -233665793 -1550221269 -1733559887 -51315404</internalNodes>
          <leafValues>
            -6.6398465633392334e-01 3.8332608342170715e-01</leafValues></_>
        <_>
          <internalNodes>
            0 -1 72 1548730167 -710950231 -664551349 -163513 -670858917
            -509376345 -332436797 2144332143</internalNodes>
          <leafValues>
            -8.2105153799057007e-01 2.9871186614036560e-01</leafValues></_>
        <_>
          <internalNodes>
            0 -1 62 -1563539362 -610565991 -1830826275 -1885699745
            -2134633984 -625307445 -2098664716 -93406560</internalNodes>
          <leafValues>
            -6.5982156991958618e-01 3.4534329175949097e-01</leafValues></_></weakClassifiers></_>
    <!-- stage 4 -->
    <_>
      <maxWeakCount>7</maxWeakCount>
      <stageThreshold>-1.6771808862686157e+00</stageThreshold>
      <weakClassifiers>
        <_>
          <internalNodes>
            0 -1 55 -69731457 -1853636453 -1711111713 -104267637
            -608978033 -2059173496 -108297537 -6567221</internalNodes>
          <leafValues>
            -6.8421053886413574e-01 3.5960045456886292e-01</leafValues></_>
        <_>
          <internalNodes>
            0 -1 15 -275252226 1657197018 -116657853 -69174288
            -1744187374 -150241144 -2105310577 -3177745</internalNodes>
          <leafValues>
            -7.3265212774276733e-01 3.7336483597755432e-01</leafValues></_>
        <_>
          <internalNodes>
            0 -1 29 -1364394113 -856757528 -1832658569 -88811184
            -907281921 -6061949 -1450463169 -285679184</internalNodes>
          <leafValues>
            -5.9203523397445679e-01 3.9243942499160767e-01</leafValues></_>
        <_>
          <internalNodes>
            0 -1 49 -70091777 -20735521 -780037693 -358715052 -653539186
            -638973813 883685825 -1124811804</internalNodes>
          <leafValues>
            -6.7579823732376099e-01 3.5524934530258179e-01</leafValues></_>
        <_>
          <internalNodes>
            0 -1 40 1039671060 -552483 -476744234 -12618317 -56059161
            -657878910 -1341597483 -4462532</internalNodes>
          <leafValues>
            -6.1635178327560425e-01 3.4169182181358337e-01</leafValues></_>
        <_>
          <internalNodes>
            0 -1 57 -454321308 -786718534 1367457853 -745160449
            2022238758 -1819684697 -1402188812 -289867347</internalNodes>
          <leafValues>
            -6.4266216754913330e-01 3.5125303268432617e-01</leafValues></_>
        <_>
          <internalNodes>
            0 -1 70 -212598785 -138423929 -784213541 -48398177 395878765
            1504478363 -490473325 1877717675</internalNodes>
          <leafValues>
            -9.1360682249069214e-01 1.9167050719261169e-01</leafValues></_></weakClassifiers></_>
    <!-- stage 5 -->
    <_>
      <maxWeakCount>7</maxWeakCount>
      <stageThreshold>-1.7692384719848633e+00</stageThreshold>
      <weakClassifiers>
        <_>
          <internalNodes>
            0 -1 13 -498663425 -40435439 -788164129 -543342437
            1359188443 -218038272 1392615563 -7143077</internalNodes>
          <leafValues>
            -7.5779968500137329e-01 4.9913841485977173e-01</leafValues></_>
        <_>
          <internalNodes>
            0 -1 12 -37488182 -493960756 -213864242 -1146175038
            -251532869 -83783509 -243033160 -8416325</internalNodes>
          <leafValues>
            -6.5241819620132446e-01 3.8474899530410767e-01</leafValues></_>
        <_>
          <internalNodes>
            0 -1 61 1725508653 -611860145 1103281789 -442770805
            -252814780 -103046942 -501155084 -4788523</internalNodes>
          <leafValues>
            -6.8879860639572144e-01 3.4208765625953674e-01</leafValues></_>
        <_>
          <internalNodes>
            0 -1 22 -1243619505 -1562110005 -83109685 -286490855
            -477241235 -73942742 -105317564 -25890092</internalNodes>
          <leafValues>
            -6.4487773180007935e-01 3.5482156276702881e-01</leafValues></_>
        <_>
          <internalNodes>
            0 -1 10 -10760321 -331352273 -83757661 -19217454 -58676757
            -38284887 -1209818518 2011168699</internalNodes>
          <leafValues>
            -8.4121400117874146e-01 3.0585384368896484e-01</leafValues></_>
        <_>
          <internalNodes>
            0 -1 42 -512011406 -901909581 -212762599 -25410234
            -669794803 -1682323173 -374766892 -18038795</internalNodes>
          <leafValues>
            -6.1547017097473145e-01 3.5958367586135864e-01</leafValues></_>
        <_>
          <internalNodes>
            0 -1 8 648931007 -495238229 -998127463 -964476029 -125329021
            1224966145 -1056186213 1661723299</internalNodes>
          <leafValues>
            -6.9048106670379639e-01 3.2668533921241760e-01</leafValues></_></weakClassifiers></_>
    <!-- stage 6 -->
    <_>
      <maxWeakCount>8</maxWeakCount>
      <stageThreshold>-1.5265089273452759e+00</stageThreshold>
      <weakClassifiers>
        <_>
          <internalNodes>
            0 -1 37 -170444291 -103288752 -788411971 -2501541
            -1610232833 -116752368 -359945489 -72633457</internalNodes>
          <leafValues>
            -6.9811320304870605e-01 3.8392856717109680e-01</leafValues></_>
        <_>
          <internalNodes>
            0 -1 9 625985998 -292567159 -237661246 -16844826 -2004239621
            -68447795 -1884769857 -14097</internalNodes>
          <leafValues>
            -6.2781524658203125e-01 3.5707339644432068e-01</leafValues></_>
        <_>
          <internalNodes>
            0 -1 48 -1143341841 -1647127605 -672353829 -23792769
            -73668511 -616708535 -1330915279 -16973840</internalNodes>
          <leafValues>
            -5.5486267805099487e-01 4.1456225514411926e-01</leafValues></_>
        <_>
          <internalNodes>
            0 -1 5 -828383813 -1001426454 -223633254 -20217649
            -745295445 -58358127 -135267702 2012979659</internalNodes>
          <leafValues>
            -8.2942062616348267e-01 2.8386583924293518e-01</leafValues></_>
        <_>
          <internalNodes>
            0 -1 30 -1930758613 -1404510080 -2076740713 -1058106814
            -339018689 -1381777333 -526251674 -56828931</internalNodes>
          <leafValues>
            -6.5203171968460083e-01 3.6830860376358032e-01</leafValues></_>
        <_>
          <internalNodes>
            0 -1 64 -216924933 -1082011364 -1862151744 -970539008
            -121914499 -1678603237 -1186366076 -1933248124</internalNodes>
          <leafValues>
            -6.7087280750274658e-01 2.6763966679573059e-01</leafValues></_>
        <_>
          <internalNodes>
            0 -1 7 -968092454 -490192690 -2130669170 -1617199030
            17137835 -1743683447 268437643 -41746293</internalNodes>
          <leafValues>
            -7.2420501708984375e-01 2.5993269681930542e-01</leafValues></_>
        <_>
          <internalNodes>
            0 -1 32 -504140369 -1566129915 -21397305 -292105771
            -259768079 1939063207 -1684293455 -156962332</internalNodes>
          <leafValues>
            -6.2499469518661499e-01 3.3873733878135681e-01</leafValues></_></weakClassifiers></_>
    <!-- stage 7 -->
    <_>
      <maxWeakCount>9</maxWeakCount>
      <stageThreshold>-1.5711047649383545e+00</stageThreshold>
      <weakClassifiers>
        <_>
          <internalNodes>
            0 -1 23 -237655305 -707686247 -720514945 -709639849
            -259918629 -778039286 -1426030373 -545038933</internalNodes>
          <leafValues>
            -6.2820512056350708e-01 3.5157644748687744e-01</leafValues></_>
        <_>
          <internalNodes>
            0 -1 0 -867172625 -301885309 -2147384319 -1023160182
            -1073512317 -2130050816 -2147358589 1945868935</internalNodes>
          <leafValues>
            -5.3751647472381592e-01 3.8728123903274536e-01</leafValues></_>
        <_>
          <internalNodes>
            0 -1 33 -1479569169 -1528851985 -233909297 -1363221538
            -285613883 -7892805 -272967563 -188949004</internalNodes>
          <leafValues>
            -6.8591964244842529e-01 3.5042676329612732e-01</leafValues></_>
        <_>
          <internalNodes>
            0 -1 66 -205790465 -607563351 1016106186 -551759660
            -1828411804 -1283334011 1217178340 -50538004</internalNodes>
          <leafValues>
            -6.6583567857742310e-01 3.2770645618438721e-01</leafValues></_>
        <_>
          <internalNodes>
            0 -1 18 -1278762610 -1364262641 -1562434782 -1225336094
            -229908133 -1716795237 -1415923037 -558426</internalNodes>
          <leafValues>
            -5.2853971719741821e-01 3.8826468586921692e-01</leafValues></_>
        <_>
          <internalNodes>
            0 -1 19 -1870630878 270598400 268441760 1604256015
            -2146918213 -1341521791 -1878357376 -1291116341</internalNodes>
          <leafValues>
            -8.1501054763793945e-01 2.5055187940597534e-01</leafValues></_>
        <_>
          <internalNodes>
            0 -1 39 -1464298709 -419507305 -669335901 -286327822
            1621883771 -1960656085 -2001804943 -151208964</internalNodes>
          <leafValues>
            -6.7251670360565186e-01 2.6465463638305664e-01</leafValues></_>
        <_>
          <internalNodes>
            0 -1 46 -1881171713 -376663789 -1600995182 -24189957
            1350773269 1996538554 -85013963 -755177524</internalNodes>
          <leafValues>
            -5.2307319641113281e-01 3.6836481094360352e-01</leafValues></_>
        <_>
          <internalNodes>
            0 -1 21 1656238001 -268566529 -143360799 1207828479
            2147254010 2147418111 -671286022 402128895</internalNodes>
          <leafValues>
            -3.7298566102981567e-01 5.4213422536849976e-01</leafValues></_></weakClassifiers></_>
    <!-- stage 8 -->
    <_>
      <maxWeakCount>9</maxWeakCount>
      <stageThreshold>-1.2929942607879639e+00</stageThreshold>
      <weakClassifiers>
        <_>
          <internalNodes>
            0 -1 35 -740566209 -640089635 -855516673 1438748767
            -662583047 -108887936 -1029666565 1795915786</internalNodes>
          <leafValues>
            -6.5315133333206177e-01 3.8552787899971008e-01</leafValues></_>
        <_>
          <internalNodes>
            0 -1 25 1761094832 1532953239 294671869 117720475 -259387240
            134348802 -559938647 1997471781</internalNodes>
          <leafValues>
            -7.6753103733062744e-01 2.3595112562179565e-01</leafValues></_>
        <_>
          <internalNodes>
            0 -1 60 -1410076553 -754345607 -752660162 -17918978
            1821635903 -1279811399 -337903627 -1465061196</internalNodes>
          <leafValues>
            -6.5292900800704956e-01 2.8268802165985107e-01</leafValues></_>
        <_>
          <internalNodes>
            0 -1 1 -824186977 1176162306 -1056800767 -326950646
            -687763239 -1862238208 -671039357 1984668555</internalNodes>
          <leafValues>
            -6.3609063625335693e-01 3.5024061799049377e-01</leafValues></_>
        <_>
          <internalNodes>
            0 -1 31 210599739 -1597090867 -459015474 -318846497
            -1549019817 -414017073 -550906077 -50535708</internalNodes>
          <leafValues>
            -6.2499922513961792e-01 3.1557220220565796e-01</leafValues></_>
        <_>
          <internalNodes>
            0 -1 67 -140517061 -100678177 1438901495 -414482305
            -926155913 580485264 -509937193 2146166526</internalNodes>
          <leafValues>
            -7.7559643983840942e-01 2.2836792469024658e-01</leafValues></_>
        <_>
          <internalNodes>
            0 -1 16 -2137796097 -322006778 1091847577 1070747984
            -1065353048 -1862270848 -1610577783 -136871529</internalNodes>
          <leafValues>
            -5.2394050359725952e-01 3.7658819556236267e-01</leafValues></_>
        <_>
          <internalNodes>
            0 -1 50 -1963062443 -1755526301 -1789354289 -1259688497
            -377475484 -286555941 -1162544143 -1090584587</internalNodes>
          <leafValues>
            -5.9950727224349976e-01 3.0720227956771851e-01</leafValues></_>
        <_>
          <internalNodes>
            0 -1 52 -1433068948 759534001 293763210 1021875015
            -353512857 1531107502 -660559819 -19613195</internalNodes>
          <leafValues>
            -6.5259432792663574e-01 2.5732445716857910e-01</leafValues></_></weakClassifiers></_>
    <!-- stage 9 -->
    <_>
      <maxWeakCount>6</maxWeakCount>
      <stageThreshold>-1.9655507802963257e+00</stageThreshold>
      <weakClassifiers>
        <_>
          <internalNodes>
            0 -1 2 -414723585 -182644349 16978179 -36732789 -1727954773
            -1157562240 -1844240245 -73432437</internalNodes>
          <leafValues>
            -7.1562135219573975e-01 5.3416150808334351e-01</leafValues></_>
        <_>
          <internalNodes>
            0 -1 6 -676350561 -455215365 1307177463 -676350109
            -1127891717 -1222475415 -70531142 2147212267</internalNodes>
          <leafValues>
            -7.8675436973571777e-01 3.3096140623092651e-01</leafValues></_>
        <_>
          <internalNodes>
            0 -1 24 -203841227 -241610541 -779759105 -1747762977
            -2013230860 -778915712 -2000629545 1940851243</internalNodes>
          <leafValues>
            -6.7780566215515137e-01 3.8739779591560364e-01</leafValues></_>
        <_>
          <internalNodes>
            0 -1 69 -1639392481 -1696628273 -2121744257 -141442687
            -640696461 -1316908416 -276305849 466616315</internalNodes>
          <leafValues>
            -6.9321107864379883e-01 3.3292126655578613e-01</leafValues></_>
        <_>
          <internalNodes>
            0 -1 65 -271320206 -754089839 -1790785101 -117014142
            -1585387148 277841039 -307442964 -67183188</internalNodes>
          <leafValues>
            -5.9550803899765015e-01 4.0649330615997314e-01</leafValues></_>
        <_>
          <internalNodes>
            0 -1 38 1690772799 -613297059 2039859710 -1555037985
            -1476162377 956317710 162105655 866765002</internalNodes>
          <leafValues>
            -6.4049839973449707e-01 3.4797492623329163e-01</leafValues></_></weakClassifiers></_>
    <!-- stage 10 -->
    <_>
      <maxWeakCount>9</maxWeakCount>
      <stageThreshold>-1.1390637159347534e+00</stageThreshold>
      <weakClassifiers>
        <_>
          <internalNodes>
            0 -1 36 -1366754513 -399707763 -204476465 -184773156
            -880030853 -41493751 -1215628063 -84871715</internalNodes>
          <leafValues>
            -6.3392430543899536e-01 1.6555023193359375e-01</leafValues></_>
        <_>
          <internalNodes>
            0 -1 53 -536611841 -153100015 -1860992253 -973086498
            -96734669 -108986349 -257193695 -1095960132</internalNodes>
          <leafValues>
            -6.6009145975112915e-01 2.4957789480686188e-01</leafValues></_>
        <_>
          <internalNodes>
            0 -1 17 -1350061122 -290805966 -2117021214 -609888
            -1736187773 -577036149 -796687744 -8920345</internalNodes>
          <leafValues>
            -5.3678703308105469e-01 3.4288188815116882e-01</leafValues></_>
        <_>
          <internalNodes>
            0 -1 20 -1534726193 -356085297 -97003050 1624776538
            -778830753 -968909013 -201348384 -1000279052</internalNodes>
          <leafValues>
            -6.3791286945343018e-01 2.6824980974197388e-01</leafValues></_>
        <_>
          <internalNodes>
            0 -1 54 -270837249 -549224448 -1073635063 -1069186941
            1082556433 -2147450816 -939472759 2043660971</internalNodes>
          <leafValues>
            -5.8337968587875366e-01 2.8747880458831787e-01</leafValues></_>
        <_>
          <internalNodes>
            0 -1 41 -388644391 -1310785067 -787111726 989761929
            -1062705049 -712572791 -102006171 1862073268</internalNodes>
          <leafValues>
            -6.6424959897994995e-01 2.6518684625625610e-01</leafValues></_>
        <_>
          <internalNodes>
            0 -1 68 -1197498820 -543964371 -2044427542 -594820847
            -91472332 -1146378051 -500516364 -1258511383</internalNodes>
          <leafValues>
            -5.0450038909912109e-01 3.1984409689903259e-01</leafValues></_>
        <_>
          <internalNodes>
            0 -1 73 321381143 -250413055 -2063540160 -48152569
            2040195155 -519403513 -362289053 2056750647</internalNodes>
          <leafValues>
            -6.3364130258560181e-01 2.3461654782295227e-01</leafValues></_>
        <_>
          <internalNodes>
            0 -1 51 540570477 566301144 -451350120 1707918801 -762359226
            1904804139 -173236636 -88416019</internalNodes>
          <leafValues>
            -5.3901922702789307e-01 3.1458264589309692e-01</leafValues></_></weakClassifiers></_></stages>
  <features>
    <_>
      <rect>
        0 0 1 4</rect></_>
    <_>
      <rect>
        0 0 2 3</rect></_>
    <_>
      <rect>
        0 0 3 4</rect></_>
    <_>
      <rect>
        0 0 4 3</rect></_>
    <_>
      <rect>
        0 0 6 2</rect></_>
    <_>
      <rect>
        0 1 1 1</rect></_>
    <_>
      <rect>
        0 3 1 1</rect></_>
    <_>
      <rect>
        0 3 4 4</rect></_>
    <_>
      <rect>
        0 6 1 3</rect></_>
    <_>
      <rect>
        0 12 2 1</rect></_>
    <_>
      <rect>
        1 0 1 1</rect></_>
    <_>
      <rect>
        1 6 3 3</rect></_>
    <_>
      <rect>
        1 8 2 2</rect></_>
    <_>
      <rect>
        2 0 4 3</rect></_>
    <_>
      <rect>
        2 4 2 2</rect></_>
    <_>
      <rect>
        2 5 2 2</rect></_>
    <_>
      <rect>
        2 7 2 2</rect></_>
    <_>
      <rect>
        2 9 1 2</rect></_>
    <_>
      <rect>
        2 11 1 1</rect></_>
    <_>
      <rect>
        4 9 7 2</rect></_>
    <_>
      <rect>
        4 10 1 1</rect></_>
    <_>
      <rect>
        5 4 5 3</rect></_>
    <_>
      <rect>
        5 9 1 1</rect></_>
    <_>
      <rect>
        6 0 4 2</rect></_>
    <_>
      <rect>
        6 0 5 2</rect></_>
    <_>
      <rect>
        6 2 4 4</rect></_>
    <_>
      <rect>
        6 5 1 1</rect></_>
    <_>
      <rect>
        6 6 1 1</rect></_>
    <_>
      <rect>
        7 0 6 2</rect></_>
    <_>
      <rect>
        7 4 1 1</rect></_>
    <_>
      <rect>
        7 5 1 1</rect></_>
    <_>
      <rect>
        7 6 1 1</rect></_>
    <_>
      <rect>
        7 8 1 1</rect></_>
    <_>
      <rect>
        7 9 1 1</rect></_>
    <_>
      <rect>
        7 11 1 1</rect></_>
    <_>
      <rect>
        8 2 5 1</rect></_>
    <_>
      <rect>
        8 4 1 1</rect></_>
    <_>
      <rect>
        9 0 3 2</rect></_>
    <_>
      <rect>
        9 1 3 1</rect></_>
    <_>
      <rect>
        9 5 1 1</rect></_>
    <_>
      <rect>
        10 2 1 1</rect></_>
    <_>
      <rect>
        11 11 1 1</rect></_>
    <_>
      <rect>
        12 8 1 1</rect></_>
    <_>
      <rect>
        12 10 1 1</rect></_>
    <_>
      <rect>
        13 0 4 3</rect></_>
    <_>
      <rect>
        13 0 4 4</rect></_>
    <_>
      <rect>
        13 8 1 1</rect></_>
    <_>
      <rect>
        13 11 1 1</rect></_>
    <_>
      <rect>
        14 7 1 1</rect></_>
    <_>
      <rect>
        14 12 1 1</rect></_>
    <_>
      <rect>
        15 4 1 1</rect></_>
    <_>
      <rect>
        15 6 1 1</rect></_>
    <_>
      <rect>
        15 7 1 1</rect></_>
    <_>
      <rect>
        15 9 1 2</rect></_>
    <_>
      <rect>
        16 0 1 3</rect></_>
    <_>
      <rect>
        16 0 3 4</rect></_>
    <_>
      <rect>
        16 0 3 5</rect></_>
    <_>
      <rect>
        16 7 1 2</rect></_>
    <_>
      <rect>
        16 9 1 1</rect></_>
    <_>
      <rect>
        16 10 1 1</rect></_>
    <_>
      <rect>
        16 11 1 1</rect></_>
    <_>
      <rect>
        17 5 1 1</rect></_>
    <_>
      <rect>
        17 6 1 1</rect></_>
    <_>
      <rect>
        17 7 2 2</rect></_>
    <_>
      <rect>
        17 12 1 1</rect></_>
    <_>
      <rect>
        18 7 1 2</rect></_>
    <_>
      <rect>
        18 9 1 2</rect></_>
    <_>
      <rect>
        20 1 1 1</rect></_>
    <_>
      <rect>
        20 12 1 1</rect></_>
    <_>
      <rect>
        21 1 1 2</rect></_>
    <_>
      <rect>
        22 0 1 1</rect></_>
    <_>
      <rect>
        22 0 1 2</rect></_>
    <_>
      <rect>
        22 1 1 2</rect></_>
    <_>
      <rect>
        22 7 1 2</rect></_></features></cascade>
</opencv_storage>
