<?xml version="1.0" encoding="utf-8"?>
<opencv_storage>
<cascade>
  <stageType>BOOST</stageType>
  <featureType>LBP</featureType>
  <height>15</height>
  <width>25</width>
  <stageParams>
    <boostType>GAB</boostType>
    <minHitRate>9.9900001287460327e-01</minHitRate>
    <maxFalseAlarm>5.0000000000000000e-01</maxFalseAlarm>
    <weightTrimRate>9.4999999999999996e-01</weightTrimRate>
    <maxDepth>1</maxDepth>
    <maxWeakCount>100</maxWeakCount></stageParams>
  <featureParams>
    <maxCatCount>256</maxCatCount>
    <featSize>1</featSize></featureParams>
  <stageNum>14</stageNum>
  <stages>
    <!-- stage 0 -->
    <_>
      <maxWeakCount>3</maxWeakCount>
      <stageThreshold>-1.1021778583526611e+00</stageThreshold>
      <weakClassifiers>
        <_>
          <internalNodes>
            0 -1 41 -586034883 -38415909 -238463489 -550170593
            -914301953 -1144487799 -1735803969 -7632501</internalNodes>
          <leafValues>
            -8.2921177148818970e-01 7.2709554433822632e-01</leafValues></_>
        <_>
          <internalNodes>
            0 -1 67 -3145963 -103809579 -1659660833 -547388209
            -1249772555 -1165451094 -1142246979 -137641841</internalNodes>
          <leafValues>
            -7.5353413820266724e-01 5.1079404354095459e-01</leafValues></_>
        <_>
          <internalNodes>
            0 -1 69 -1 -218630193 -683421232 -289889825 -120586259
            -21430053 -1694498928 -84083756</internalNodes>
          <leafValues>
            -7.7176684141159058e-01 4.8056802153587341e-01</leafValues></_></weakClassifiers></_>
    <!-- stage 1 -->
    <_>
      <maxWeakCount>5</maxWeakCount>
      <stageThreshold>-1.5783574581146240e+00</stageThreshold>
      <weakClassifiers>
        <_>
          <internalNodes>
            0 -1 3 -473763841 -34092925 -653796385 -3693633 -78922821
            -75423357 -16536901 -5525045</internalNodes>
          <leafValues>
            -8.2936012744903564e-01 5.5069124698638916e-01</leafValues></_>
        <_>
          <internalNodes>
            0 -1 88 -322 -69758561 -8326668 -12848703 -72680892
            -87850855 -622004012 -5243393</internalNodes>
          <leafValues>
            -7.8464347124099731e-01 4.1587552428245544e-01</leafValues></_>
        <_>
          <internalNodes>
            0 -1 22 -35652133 -339029514 1971419995 -118464782
            -493253937 2058584475 -410277126 -139068998</internalNodes>
          <leafValues>
            -6.0419344902038574e-01 4.6115934848785400e-01</leafValues></_>
        <_>
          <internalNodes>
            0 -1 99 -10485889 -272678745 -928525701 -310651697
            -834938029 1812039850 -3409357 2147480559</internalNodes>
          <leafValues>
            -8.2043278217315674e-01 3.5370460152626038e-01</leafValues></_>
        <_>
          <internalNodes>
            0 -1 84 -1887438873 -1933721449 -190459436 -18373738
            -159145417 -257322013 -1194852491 -388176972</internalNodes>
          <leafValues>
            -7.4638050794601440e-01 3.9491957426071167e-01</leafValues></_></weakClassifiers></_>
    <!-- stage 2 -->
    <_>
      <maxWeakCount>6</maxWeakCount>
      <stageThreshold>-1.0876867771148682e+00</stageThreshold>
      <weakClassifiers>
        <_>
          <internalNodes>
            0 -1 56 -35661475 -36322133 2030164447 -2897569 -360654341
            -391640944 -1869882437 -72643941</internalNodes>
          <leafValues>
            -7.8222221136093140e-01 3.9051678776741028e-01</leafValues></_>
        <_>
          <internalNodes>
            0 -1 13 -279774209 -286597398 -801521464 -3010552
            -1056208709 -142540671 -1727804485 -1055809</internalNodes>
          <leafValues>
            -7.1815937757492065e-01 3.5621708631515503e-01</leafValues></_>
        <_>
          <internalNodes>
            0 -1 85 -169869825 -631795489 -82733125 -18943522 -106177889
            -6577687 -91488267 -18031920</internalNodes>
          <leafValues>
            -5.9844177961349487e-01 4.5436000823974609e-01</leafValues></_>
        <_>
          <internalNodes>
            0 -1 43 -1368720513 -1400452894 -1856287361 -792948208
            -276367267 -1396620797 -307566028 -117902652</internalNodes>
          <leafValues>
            -6.4239358901977539e-01 4.2595493793487549e-01</leafValues></_>
        <_>
          <internalNodes>
            0 -1 50 751123253 -4910187 1495396831 -1146023793
            -1220487769 -1189609343 -845944781 2133821883</internalNodes>
          <leafValues>
            -6.7418527603149414e-01 3.3979418873786926e-01</leafValues></_>
        <_>
          <internalNodes>
            0 -1 40 -1562237457 -1366597289 -795705193 -822721548
            -376808839 1703646989 -359749563 -394986796</internalNodes>
          <leafValues>
            -8.0741441249847412e-01 2.7289825677871704e-01</leafValues></_></weakClassifiers></_>
    <!-- stage 3 -->
    <_>
      <maxWeakCount>7</maxWeakCount>
      <stageThreshold>-1.6069854497909546e+00</stageThreshold>
      <weakClassifiers>
        <_>
          <internalNodes>
            0 -1 80 -539230337 -1143242293 -788446757 -3288613 -75241041
            -1416904055 -340007173 -69233749</internalNodes>
          <leafValues>
            -7.1193093061447144e-01 4.9841672182083130e-01</leafValues></_>
        <_>
          <internalNodes>
            0 -1 19 -439625794 -489793062 -721366717 -79637616
            -1289361259 -116686711 -909925733 -1063957</internalNodes>
          <leafValues>
            -7.2501528263092041e-01 3.2760515809059143e-01</leafValues></_>
        <_>
          <internalNodes>
            0 -1 65 -35652117 -283282533 -58502456 -286198881 -503059145
            -206659399 -68437419 -18031644</internalNodes>
          <leafValues>
            -6.3990521430969238e-01 3.6798200011253357e-01</leafValues></_>
        <_>
          <internalNodes>
            0 -1 87 1893694590 -543195126 -929301249 -1619291521
            -936619440 -1038970278 -1297560844 -328712</internalNodes>
          <leafValues>
            -5.7373356819152832e-01 4.0841081738471985e-01</leafValues></_>
        <_>
          <internalNodes>
            0 -1 57 -1344520292 -233450283 -318737210 -21236537
            -1199005977 -605380598 -259104587 -7640</internalNodes>
          <leafValues>
            -5.4922521114349365e-01 4.2574545741081238e-01</leafValues></_>
        <_>
          <internalNodes>
            0 -1 39 -1516939485 -1528052819 -266690433 -925565989
            -459695521 -280540726 -775245401 -151475520</internalNodes>
          <leafValues>
            -6.0758078098297119e-01 3.8762661814689636e-01</leafValues></_>
        <_>
          <internalNodes>
            0 -1 8 -1524391766 -301311670 -2130620032 -822718006
            -1048526405 -1131872088 -754859333 -34366546</internalNodes>
          <leafValues>
            -7.8483343124389648e-01 2.5927993655204773e-01</leafValues></_></weakClassifiers></_>
    <!-- stage 4 -->
    <_>
      <maxWeakCount>6</maxWeakCount>
      <stageThreshold>-1.1425417661666870e+00</stageThreshold>
      <weakClassifiers>
        <_>
          <internalNodes>
            0 -1 66 -136970881 -640564485 -1717767681 -6717345
            -1995854081 -1727528824 -1654670097 -74739285</internalNodes>
          <leafValues>
            -7.5357145071029663e-01 3.5029146075248718e-01</leafValues></_>
        <_>
          <internalNodes>
            0 -1 44 -878732801 -1495346225 -1931812885 -358690050
            -1364605467 -69237861 -72625819 -185275916</internalNodes>
          <leafValues>
            -7.3445588350296021e-01 2.7722474932670593e-01</leafValues></_>
        <_>
          <internalNodes>
            0 -1 16 -903023122 -774565667 -1022803619 -14692086
            -610143301 -1819590517 -1819041285 -82066481</internalNodes>
          <leafValues>
            -6.7021048069000244e-01 3.7451890110969543e-01</leafValues></_>
        <_>
          <internalNodes>
            0 -1 98 -411840017 -141179641 -212532821 -6306313 1719645051
            -908552805 -472122409 2079325167</internalNodes>
          <leafValues>
            -8.3255457878112793e-01 2.6499000191688538e-01</leafValues></_>
        <_>
          <internalNodes>
            0 -1 72 -141010433 -10671983 1368732130 -27375205 -250892145
            -68681073 -122946587 -155390988</internalNodes>
          <leafValues>
            -6.1152565479278564e-01 4.1747674345970154e-01</leafValues></_>
        <_>
          <internalNodes>
            0 -1 42 -1406337153 -395911480 -95691937 -627779168
            -505061921 -13467511 -293359129 -220675</internalNodes>
          <leafValues>
            -5.7585155963897705e-01 4.1909322142601013e-01</leafValues></_></weakClassifiers></_>
    <!-- stage 5 -->
    <_>
      <maxWeakCount>7</maxWeakCount>
      <stageThreshold>-1.6141376495361328e+00</stageThreshold>
      <weakClassifiers>
        <_>
          <internalNodes>
            0 -1 1 -279456257 -774405739 -1861021431 -573882145
            -128744823 -217874431 -796819189 -73465845</internalNodes>
          <leafValues>
            -7.1240818500518799e-01 5.2987015247344971e-01</leafValues></_>
        <_>
          <internalNodes>
            0 -1 4 -958398753 -20463609 1140950169 -511459125 -527982437
            -749666303 -250953077 2140929995</internalNodes>
          <leafValues>
            -6.3289481401443481e-01 4.7148689627647400e-01</leafValues></_>
        <_>
          <internalNodes>
            0 -1 90 -53514657 -105524785 -297407009 -2253601 -1430266252
            -833912115 -320546187 -16778497</internalNodes>
          <leafValues>
            -5.6207293272018433e-01 4.6921703219413757e-01</leafValues></_>
        <_>
          <internalNodes>
            0 -1 12 -1516912434 -246300391 -774775690 1427206193
            -1333620487 688406672 -2138537687 -74760191</internalNodes>
          <leafValues>
            -7.8341114521026611e-01 3.1828603148460388e-01</leafValues></_>
        <_>
          <internalNodes>
            0 -1 62 -70127499 -405552249 -1862152061 -23984361
            -880674065 -38696701 -120864524 -18306128</internalNodes>
          <leafValues>
            -6.7755937576293945e-01 3.7282148003578186e-01</leafValues></_>
        <_>
          <internalNodes>
            0 -1 99 -635961569 -842576753 -786856957 -808520830
            -98704349 -1592864125 -393780957 1877985439</internalNodes>
          <leafValues>
            -8.5425704717636108e-01 2.5096109509468079e-01</leafValues></_>
        <_>
          <internalNodes>
            0 -1 25 -267204817 -498544308 -125183662 -78423654
            -267877957 -1933182 -1155290689 -170392646</internalNodes>
          <leafValues>
            -5.5138617753982544e-01 4.5370316505432129e-01</leafValues></_></weakClassifiers></_>
    <!-- stage 6 -->
    <_>
      <maxWeakCount>8</maxWeakCount>
      <stageThreshold>-1.2781974077224731e+00</stageThreshold>
      <weakClassifiers>
        <_>
          <internalNodes>
            0 -1 51 -1342652460 -69207073 -104598121 -2378913 -91239937
            -116800770 -70256181 -2101249</internalNodes>
          <leafValues>
            -6.5853661298751831e-01 4.0820190310478210e-01</leafValues></_>
        <_>
          <internalNodes>
            0 -1 0 -406074433 -337669753 -947284798 -390340381
            -1014762865 -385171455 -301206865 2145383087</internalNodes>
          <leafValues>
            -7.6953232288360596e-01 2.8980058431625366e-01</leafValues></_>
        <_>
          <internalNodes>
            0 -1 86 -739639297 -797187 -1325278537 -154098226 -627328257
            -71631443 -1544357132 -86208336</internalNodes>
          <leafValues>
            -5.8707022666931152e-01 3.9252606034278870e-01</leafValues></_>
        <_>
          <internalNodes>
            0 -1 37 -461570892 -1018232825 -786679619 -417529447 561827
            131075 -2146926148 1730875649</internalNodes>
          <leafValues>
            -5.3535401821136475e-01 4.3063846230506897e-01</leafValues></_>
        <_>
          <internalNodes>
            0 -1 54 -1425498325 -287517573 -91696911 -286334710
            -74727337 -1824292471 -1431381648 -16990212</internalNodes>
          <leafValues>
            -5.8281975984573364e-01 3.8282287120819092e-01</leafValues></_>
        <_>
          <internalNodes>
            0 -1 101 1392770322 -1651916785 -1878892539 -788232181
            1569348789 -671088503 -208942457 1669851787</internalNodes>
          <leafValues>
            -6.4333182573318481e-01 3.3435261249542236e-01</leafValues></_>
        <_>
          <internalNodes>
            0 -1 78 -1348489267 -1111770667 -141304331 -3253870
            2073819495 -1165305175 -122106635 -625415432</internalNodes>
          <leafValues>
            -5.5761134624481201e-01 3.6827775835990906e-01</leafValues></_>
        <_>
          <internalNodes>
            0 -1 6 215961847 144875688 -1566519080 1750009101 -410263385
            1216577792 -1576959846 1605354182</internalNodes>
          <leafValues>
            -7.8106182813644409e-01 2.9440200328826904e-01</leafValues></_></weakClassifiers></_>
    <!-- stage 7 -->
    <_>
      <maxWeakCount>8</maxWeakCount>
      <stageThreshold>-1.3431742191314697e+00</stageThreshold>
      <weakClassifiers>
        <_>
          <internalNodes>
            0 -1 35 -111301705 -103427631 -788414217 -144129569
            -536816997 -1073708927 -1996320311 -612171541</internalNodes>
          <leafValues>
            -6.7541128396987915e-01 2.6198083162307739e-01</leafValues></_>
        <_>
          <internalNodes>
            0 -1 33 -1353993361 -1427206207 -1126250115 -289875032
            -87298819 -811603477 -18185515 -16974876</internalNodes>
          <leafValues>
            -6.0224997997283936e-01 3.3255773782730103e-01</leafValues></_>
        <_>
          <internalNodes>
            0 -1 93 -1078723865 1528428473 1607910031 -552415842
            -735589820 -1177386939 143452868 -117638692</internalNodes>
          <leafValues>
            -6.7613017559051514e-01 3.0160579085350037e-01</leafValues></_>
        <_>
          <internalNodes>
            0 -1 9 553765742 -1362689718 -1810820926 -555843130
            1484951995 -1681456435 -223702593 -4201777</internalNodes>
          <leafValues>
            -6.0560441017150879e-01 3.3802649378776550e-01</leafValues></_>
        <_>
          <internalNodes>
            0 -1 48 -1431457825 579132615 -744832343 -352913429
            -794901913 -67393341 -611546828 -16987404</internalNodes>
          <leafValues>
            -6.3349813222885132e-01 3.2333296537399292e-01</leafValues></_>
        <_>
          <internalNodes>
            0 -1 73 -173001185 -779431713 -1199455997 -81813041
            -829830625 -1597455673 -609484963 2128263563</internalNodes>
          <leafValues>
            -5.8707219362258911e-01 2.9720959067344666e-01</leafValues></_>
        <_>
          <internalNodes>
            0 -1 17 -427824337 -290602309 -731524845 -1094198709
            -167601777 -1475854319 -1417442569 2140882318</internalNodes>
          <leafValues>
            -6.7029327154159546e-01 2.7226072549819946e-01</leafValues></_>
        <_>
          <internalNodes>
            0 -1 75 -1410127281 -1953376493 993969567 -1106225969
            -207925994 985877295 -31327564 -16974873</internalNodes>
          <leafValues>
            -5.5610418319702148e-01 3.3116462826728821e-01</leafValues></_></weakClassifiers></_>
    <!-- stage 8 -->
    <_>
      <maxWeakCount>8</maxWeakCount>
      <stageThreshold>-1.6438304185867310e+00</stageThreshold>
      <weakClassifiers>
        <_>
          <internalNodes>
            0 -1 10 -285737217 -144228029 -803941885 -284212109
            -262948729 -805255030 -804532221 2135946895</internalNodes>
          <leafValues>
            -6.4137345552444458e-01 2.7488687634468079e-01</leafValues></_>
        <_>
          <internalNodes>
            0 -1 52 -111203779 -745154603 -141435427 -11812579
            -911556609 -1601666918 -1182011457 -207044405</internalNodes>
          <leafValues>
            -4.8354181647300720e-01 4.3996644020080566e-01</leafValues></_>
        <_>
          <internalNodes>
            0 -1 64 -1409321649 -360711715 -711884065 -353578551
            -628404139 -5257870 -628561356 -196748</internalNodes>
          <leafValues>
            -6.0176318883895874e-01 3.6257347464561462e-01</leafValues></_>
        <_>
          <internalNodes>
            0 -1 95 -136335497 -68858687 -1005190713 -268500522
            -1065095305 -1316435769 -507862989 2079310299</internalNodes>
          <leafValues>
            -8.5869544744491577e-01 2.8207528591156006e-01</leafValues></_>
        <_>
          <internalNodes>
            0 -1 18 -481897505 -12009014 -721346145 -605892449
            -1039958016 -1908342744 1073840267 -208698161</internalNodes>
          <leafValues>
            -4.8372298479080200e-01 4.3909364938735962e-01</leafValues></_>
        <_>
          <internalNodes>
            0 -1 92 -678576466 -573566823 453150686 -147025463
            -1271096748 1969987917 -793995048 -187905544</internalNodes>
          <leafValues>
            -4.6014896035194397e-01 4.3807071447372437e-01</leafValues></_>
        <_>
          <internalNodes>
            0 -1 76 -1596024241 1020856286 -581758051 2019853821
            -628368798 -1141929846 -1192326428 -33625091</internalNodes>
          <leafValues>
            -4.5939531922340393e-01 4.0488785505294800e-01</leafValues></_>
        <_>
          <internalNodes>
            0 -1 45 -2094306081 1839194447 -1835101613 -285279943
            -2071841 -684187375 -3440315 -118162752</internalNodes>
          <leafValues>
            -6.2457984685897827e-01 3.1253111362457275e-01</leafValues></_></weakClassifiers></_>
    <!-- stage 9 -->
    <_>
      <maxWeakCount>6</maxWeakCount>
      <stageThreshold>-1.2267775535583496e+00</stageThreshold>
      <weakClassifiers>
        <_>
          <internalNodes>
            0 -1 11 -8391729 -10487459 -216483375 -2386863 -41815909
            -82804351 -798426677 2076161003</internalNodes>
          <leafValues>
            -7.8818565607070923e-01 4.7865679860115051e-01</leafValues></_>
        <_>
          <internalNodes>
            0 -1 2 1867895263 -49344368 1360335108 -687251184
            -1325334309 -1316814848 -1287651153 -7108469</internalNodes>
          <leafValues>
            -6.5523660182952881e-01 4.3266686797142029e-01</leafValues></_>
        <_>
          <internalNodes>
            0 -1 100 -936526317 -594615895 -1861844915 -314403963
            -83122089 -1333024625 -342934973 1809836283</internalNodes>
          <leafValues>
            -8.3260369300842285e-01 2.3909150063991547e-01</leafValues></_>
        <_>
          <internalNodes>
            0 -1 74 -95942331 -1616870077 -1252943649 -1364572157
            -1178582172 -473177949 -1130579212 -18945611</internalNodes>
          <leafValues>
            -6.2826007604598999e-01 3.9352929592132568e-01</leafValues></_>
        <_>
          <internalNodes>
            0 -1 89 -2112101417 -107900593 -1971191343 -1340550391
            -1735800417 -1199404629 -1684292987 -120534812</internalNodes>
          <leafValues>
            -6.1168843507766724e-01 3.5263207554817200e-01</leafValues></_>
        <_>
          <internalNodes>
            0 -1 7 8374159 180347019 67108998 -2066807962 1053580
            1073940608 1468109315 1534847979</internalNodes>
          <leafValues>
            -7.5438380241394043e-01 3.0308705568313599e-01</leafValues></_></weakClassifiers></_>
    <!-- stage 10 -->
    <_>
      <maxWeakCount>10</maxWeakCount>
      <stageThreshold>-1.6037023067474365e+00</stageThreshold>
      <weakClassifiers>
        <_>
          <internalNodes>
            0 -1 79 -397675521 -266415151 17006849 -574709477
            -1299727817 -1446445053 -961824219 -1360200724</internalNodes>
          <leafValues>
            -7.9158574342727661e-01 7.5910143554210663e-02</leafValues></_>
        <_>
          <internalNodes>
            0 -1 53 -1449608389 -19335683 -111553983 -51580676
            -651318949 -250417021 -504904939 -456268835</internalNodes>
          <leafValues>
            -5.2160859107971191e-01 3.5748159885406494e-01</leafValues></_>
        <_>
          <internalNodes>
            0 -1 34 -2130665154 -1929379389 285282768 -23195376
            -1039423265 1101562040 -938759276 1559005368</internalNodes>
          <leafValues>
            -7.2817909717559814e-01 2.5417473912239075e-01</leafValues></_>
        <_>
          <internalNodes>
            0 -1 97 -142395842 1469104579 -552555268 -138065918
            -1121781696 -70737760 -17913100 -118494289</internalNodes>
          <leafValues>
            -5.3608882427215576e-01 3.5138928890228271e-01</leafValues></_>
        <_>
          <internalNodes>
            0 -1 20 -1546155538 -1375222457 -200427166 -392154112
            -40199941 -1265922037 -359810910 -134812955</internalNodes>
          <leafValues>
            -5.9388887882232666e-01 3.5989910364151001e-01</leafValues></_>
        <_>
          <internalNodes>
            0 -1 38 -1544867825 -420949209 -136389660 -1895907595
            836727086 -1563434741 -523537817 -411243600</internalNodes>
          <leafValues>
            -5.7266241312026978e-01 3.2042628526687622e-01</leafValues></_>
        <_>
          <internalNodes>
            0 -1 77 -1014023378 -1378840302 -239316038 1965167071
            -911237113 1932040343 -128546716 -185534220</internalNodes>
          <leafValues>
            -6.3646996021270752e-01 2.8765562176704407e-01</leafValues></_>
        <_>
          <internalNodes>
            0 -1 60 -2006229707 -1966161083 -1696427829 -1566674535
            -693975757 -752517093 -637884064 -218326020</internalNodes>
          <leafValues>
            -6.3851284980773926e-01 2.3447909951210022e-01</leafValues></_>
        <_>
          <internalNodes>
            0 -1 36 1197450647 -174984175 -775835811 -317599663
            -2139045685 -393723896 -1337967885 2039922816</internalNodes>
          <leafValues>
            -5.1288783550262451e-01 3.6908742785453796e-01</leafValues></_>
        <_>
          <internalNodes>
            0 -1 24 -1344555217 -285289736 -1523599757 -562783248
            -198511345 1074380935 -342646349 2005137715</internalNodes>
          <leafValues>
            -5.4411244392395020e-01 3.0978062748908997e-01</leafValues></_></weakClassifiers></_>
    <!-- stage 11 -->
    <_>
      <maxWeakCount>11</maxWeakCount>
      <stageThreshold>-1.2821720838546753e+00</stageThreshold>
      <weakClassifiers>
        <_>
          <internalNodes>
            0 -1 81 -1929120929 -2147450848 130 -1484259198 -1979405681
            8388736 126001323 -2138341229</internalNodes>
          <leafValues>
            -6.1053073406219482e-01 2.5028833746910095e-01</leafValues></_>
        <_>
          <internalNodes>
            0 -1 23 -2134317620 -409173352 259 1393033928 4194314 136
            163848 1372553218</internalNodes>
          <leafValues>
            -7.0031350851058960e-01 2.2551868855953217e-01</leafValues></_>
        <_>
          <internalNodes>
            0 -1 83 -1567448253 -129739732 -619638015 -64618463
            -1836913899 -1584725608 -1048573899 -1191687700</internalNodes>
          <leafValues>
            -7.4819493293762207e-01 2.3120164871215820e-01</leafValues></_>
        <_>
          <internalNodes>
            0 -1 59 -1948741825 -1366633597 1125253395 -422082613
            -661993385 -239421427 -1207186841 -4670996</internalNodes>
          <leafValues>
            -4.5172220468521118e-01 4.1978871822357178e-01</leafValues></_>
        <_>
          <internalNodes>
            0 -1 29 -1585270526 -184479615 -787451507 -753593901
            -1073737560 -1475657726 -1878929399 1401520771</internalNodes>
          <leafValues>
            -6.7724883556365967e-01 2.6667335629463196e-01</leafValues></_>
        <_>
          <internalNodes>
            0 -1 26 -1357910565 -423567493 -1308509873 -84625680
            -1056874391 -654079998 -1165942527 -137965388</internalNodes>
          <leafValues>
            -5.0107669830322266e-01 3.5457825660705566e-01</leafValues></_>
        <_>
          <internalNodes>
            0 -1 71 -2126495236 -347795023 268521579 -33119989
            -2138642233 1134264707 -1997876683 -496195852</internalNodes>
          <leafValues>
            -6.0478723049163818e-01 2.9471892118453979e-01</leafValues></_>
        <_>
          <internalNodes>
            0 -1 96 -248570786 -939294568 1631813845 1224835077
            -13919198 -394026808 -1455363408 -1160801393</internalNodes>
          <leafValues>
            -5.3824454545974731e-01 3.1579330563545227e-01</leafValues></_>
        <_>
          <internalNodes>
            0 -1 14 8906414 1690456990 -670482140 -1020213818
            -1879048128 8912896 -1879015199 2070394027</internalNodes>
          <leafValues>
            -6.0699164867401123e-01 2.8987821936607361e-01</leafValues></_>
        <_>
          <internalNodes>
            0 -1 68 -1965157517 -1726414438 -116358754 -317406632
            -670563519 -1870528369 277539456 -117947771</internalNodes>
          <leafValues>
            -6.2401258945465088e-01 3.1051003932952881e-01</leafValues></_>
        <_>
          <internalNodes>
            0 -1 27 152160747 -494398772 -2146233609 1960624952
            -1333261233 -791957185 -1549301112 -1243563104</internalNodes>
          <leafValues>
            -5.4571509361267090e-01 3.3937039971351624e-01</leafValues></_></weakClassifiers></_>
    <!-- stage 12 -->
    <_>
      <maxWeakCount>11</maxWeakCount>
      <stageThreshold>-1.5814110040664673e+00</stageThreshold>
      <weakClassifiers>
        <_>
          <internalNodes>
            0 -1 82 -926271139 -1337293813 -2139037273 -1744285532
            -392001286 -2130672640 -1467972355 -68165393</internalNodes>
          <leafValues>
            -5.4996299743652344e-01 3.2210525870323181e-01</leafValues></_>
        <_>
          <internalNodes>
            0 -1 21 -1358991830 -1364197465 2122022818 -168902893 -32915
            -805830785 -1572921 -10485889</internalNodes>
          <leafValues>
            -4.1949748992919922e-01 4.5214924216270447e-01</leafValues></_>
        <_>
          <internalNodes>
            0 -1 46 -1433808598 -1069383101 1409388808 -863862237
            -1475686394 -2078637807 -779976189 -809832707</internalNodes>
          <leafValues>
            -4.6581658720970154e-01 4.2054638266563416e-01</leafValues></_>
        <_>
          <internalNodes>
            0 -1 94 9509130 -578813952 1543505024 -1743712256
            -2013190127 830996608 210239632 -72644437</internalNodes>
          <leafValues>
            -6.0128229856491089e-01 3.0916625261306763e-01</leafValues></_>
        <_>
          <internalNodes>
            0 -1 61 -1521905510 -377290749 285294594 -764509714
            -1064722303 -1551792117 -1866235392 1017684388</internalNodes>
          <leafValues>
            -7.1005994081497192e-01 3.0545577406883240e-01</leafValues></_>
        <_>
          <internalNodes>
            0 -1 5 -1472387385 -970897133 -1005574655 1226918913
            -2147458816 -2130706431 -2130538391 996868107</internalNodes>
          <leafValues>
            -7.3899829387664795e-01 2.7482935786247253e-01</leafValues></_>
        <_>
          <internalNodes>
            0 -1 70 17023407 353829377 -801111670 -41942959 1736789
            -2145353591 -2139092793 -123035431</internalNodes>
          <leafValues>
            -4.2973417043685913e-01 4.4668409228324890e-01</leafValues></_>
        <_>
          <internalNodes>
            0 -1 63 -487059436 9486866 -2118003325 -1714748399
            -1551728632 -1046134777 -1994356636 -1345845021</internalNodes>
          <leafValues>
            -4.9148458242416382e-01 4.2411658167839050e-01</leafValues></_>
        <_>
          <internalNodes>
            0 -1 28 -268368437 -531562112 -2147352167 -2145385680
            16777420 274858280 -2136438393 -512433436</internalNodes>
          <leafValues>
            -6.4730763435363770e-01 2.9549223184585571e-01</leafValues></_>
        <_>
          <internalNodes>
            0 -1 49 822936618 -49156091 5251185 1652949017 -2139060778
            578864258 1283457025 1666809990</internalNodes>
          <leafValues>
            -7.4696338176727295e-01 2.4901896715164185e-01</leafValues></_>
        <_>
          <internalNodes>
            0 -1 32 -1119415867 -1595734824 -2129950693 -195245364
            -796777973 -2147483575 -1073085841 -1075658742</internalNodes>
          <leafValues>
            -4.5073670148849487e-01 4.4626495242118835e-01</leafValues></_></weakClassifiers></_>
    <!-- stage 13 -->
    <_>
      <maxWeakCount>8</maxWeakCount>
      <stageThreshold>-1.3361371755599976e+00</stageThreshold>
      <weakClassifiers>
        <_>
          <internalNodes>
            0 -1 91 -779488994 -1979580416 -2130706153 16809985
            -2088206328 -1736441344 -2138406176 -1295351670</internalNodes>
          <leafValues>
            -6.4664924144744873e-01 2.5095680356025696e-01</leafValues></_>
        <_>
          <internalNodes>
            0 -1 58 -1584887254 -1735229056 -2097151869 1375735814
            -1879015101 -1862238207 -1048473568 -502562616</internalNodes>
          <leafValues>
            -5.0603652000427246e-01 4.6275514364242554e-01</leafValues></_>
        <_>
          <internalNodes>
            0 -1 47 99268 134348931 49153 -1610341885 268435554
            -804667391 -2147301337 -6518379</internalNodes>
          <leafValues>
            -5.4769521951675415e-01 3.8930612802505493e-01</leafValues></_>
        <_>
          <internalNodes>
            0 -1 15 805359774 -939524091 25235728 1174471048 16941057
            -1962405888 66050 965149827</internalNodes>
          <leafValues>
            -6.8568307161331177e-01 4.0980336070060730e-01</leafValues></_>
        <_>
          <internalNodes>
            0 -1 90 -453054631 2126476287 1874816895 -134217857
            -1228998056 -8390657 -185281802 -285884545</internalNodes>
          <leafValues>
            -4.4982337951660156e-01 5.6079071760177612e-01</leafValues></_>
        <_>
          <internalNodes>
            0 -1 31 -1484968221 -285343747 -704839944 1207762941
            2147287037 2147483647 -553844769 2012741631</internalNodes>
          <leafValues>
            -3.2954767346382141e-01 7.2654712200164795e-01</leafValues></_>
        <_>
          <internalNodes>
            0 -1 55 -2146398183 554893312 268501002 -267255679
            -2147434494 285212689 -268251104 -492660855</internalNodes>
          <leafValues>
            -4.4289863109588623e-01 5.7293480634689331e-01</leafValues></_>
        <_>
          <internalNodes>
            0 -1 30 1299480774 1090584585 16777225 16973849 -2147483647
            0 65537 196609</internalNodes>
          <leafValues>
            -5.3120255470275879e-01 4.2963334918022156e-01</leafValues></_></weakClassifiers></_></stages>
  <features>
    <_>
      <rect>
        0 0 1 2</rect></_>
    <_>
      <rect>
        0 0 3 4</rect></_>
    <_>
      <rect>
        0 0 4 3</rect></_>
    <_>
      <rect>
        0 0 5 3</rect></_>
    <_>
      <rect>
        0 1 1 3</rect></_>
    <_>
      <rect>
        0 6 1 1</rect></_>
    <_>
      <rect>
        0 8 1 2</rect></_>
    <_>
      <rect>
        0 9 1 2</rect></_>
    <_>
      <rect>
        0 9 2 2</rect></_>
    <_>
      <rect>
        0 12 2 1</rect></_>
    <_>
      <rect>
        1 0 1 3</rect></_>
    <_>
      <rect>
        1 0 2 1</rect></_>
    <_>
      <rect>
        1 2 7 1</rect></_>
    <_>
      <rect>
        1 5 3 3</rect></_>
    <_>
      <rect>
        1 8 1 2</rect></_>
    <_>
      <rect>
        1 9 1 1</rect></_>
    <_>
      <rect>
        2 0 4 3</rect></_>
    <_>
      <rect>
        2 2 1 1</rect></_>
    <_>
      <rect>
        2 3 2 3</rect></_>
    <_>
      <rect>
        2 5 2 2</rect></_>
    <_>
      <rect>
        2 11 1 1</rect></_>
    <_>
      <rect>
        2 12 1 1</rect></_>
    <_>
      <rect>
        3 5 2 1</rect></_>
    <_>
      <rect>
        4 3 2 4</rect></_>
    <_>
      <rect>
        4 5 1 1</rect></_>
    <_>
      <rect>
        4 5 2 1</rect></_>
    <_>
      <rect>
        4 7 1 1</rect></_>
    <_>
      <rect>
        4 10 1 1</rect></_>
    <_>
      <rect>
        4 11 1 1</rect></_>
    <_>
      <rect>
        5 0 3 2</rect></_>
    <_>
      <rect>
        5 2 4 4</rect></_>
    <_>
      <rect>
        5 3 4 4</rect></_>
    <_>
      <rect>
        5 5 1 1</rect></_>
    <_>
      <rect>
        5 8 1 1</rect></_>
    <_>
      <rect>
        5 11 4 1</rect></_>
    <_>
      <rect>
        6 0 4 2</rect></_>
    <_>
      <rect>
        6 1 4 1</rect></_>
    <_>
      <rect>
        6 3 4 4</rect></_>
    <_>
      <rect>
        6 6 1 1</rect></_>
    <_>
      <rect>
        6 7 1 1</rect></_>
    <_>
      <rect>
        6 10 1 1</rect></_>
    <_>
      <rect>
        7 0 6 2</rect></_>
    <_>
      <rect>
        7 4 1 1</rect></_>
    <_>
      <rect>
        7 5 1 1</rect></_>
    <_>
      <rect>
        7 9 1 1</rect></_>
    <_>
      <rect>
        7 12 1 1</rect></_>
    <_>
      <rect>
        8 5 1 1</rect></_>
    <_>
      <rect>
        8 7 1 1</rect></_>
    <_>
      <rect>
        8 8 1 1</rect></_>
    <_>
      <rect>
        9 0 2 1</rect></_>
    <_>
      <rect>
        9 1 3 1</rect></_>
    <_>
      <rect>
        9 2 1 1</rect></_>
    <_>
      <rect>
        9 2 3 1</rect></_>
    <_>
      <rect>
        9 3 1 1</rect></_>
    <_>
      <rect>
        9 5 1 1</rect></_>
    <_>
      <rect>
        9 7 1 1</rect></_>
    <_>
      <rect>
        10 0 5 3</rect></_>
    <_>
      <rect>
        10 2 1 1</rect></_>
    <_>
      <rect>
        10 3 1 1</rect></_>
    <_>
      <rect>
        10 5 1 1</rect></_>
    <_>
      <rect>
        10 7 1 1</rect></_>
    <_>
      <rect>
        11 9 1 1</rect></_>
    <_>
      <rect>
        11 10 1 1</rect></_>
    <_>
      <rect>
        12 3 1 1</rect></_>
    <_>
      <rect>
        12 7 1 1</rect></_>
    <_>
      <rect>
        12 8 1 1</rect></_>
    <_>
      <rect>
        13 0 4 3</rect></_>
    <_>
      <rect>
        13 0 4 4</rect></_>
    <_>
      <rect>
        13 5 1 2</rect></_>
    <_>
      <rect>
        13 11 1 1</rect></_>
    <_>
      <rect>
        14 8 1 1</rect></_>
    <_>
      <rect>
        14 9 1 1</rect></_>
    <_>
      <rect>
        14 12 1 1</rect></_>
    <_>
      <rect>
        15 2 1 1</rect></_>
    <_>
      <rect>
        15 4 1 1</rect></_>
    <_>
      <rect>
        15 5 1 1</rect></_>
    <_>
      <rect>
        15 6 1 1</rect></_>
    <_>
      <rect>
        15 7 1 1</rect></_>
    <_>
      <rect>
        15 8 1 1</rect></_>
    <_>
      <rect>
        15 9 1 2</rect></_>
    <_>
      <rect>
        16 0 3 4</rect></_>
    <_>
      <rect>
        16 0 3 5</rect></_>
    <_>
      <rect>
        16 4 1 1</rect></_>
    <_>
      <rect>
        16 8 1 2</rect></_>
    <_>
      <rect>
        16 9 1 1</rect></_>
    <_>
      <rect>
        16 10 1 1</rect></_>
    <_>
      <rect>
        16 12 1 1</rect></_>
    <_>
      <rect>
        17 6 1 1</rect></_>
    <_>
      <rect>
        17 7 2 2</rect></_>
    <_>
      <rect>
        17 11 1 1</rect></_>
    <_>
      <rect>
        18 5 1 1</rect></_>
    <_>
      <rect>
        18 7 1 1</rect></_>
    <_>
      <rect>
        18 8 1 1</rect></_>
    <_>
      <rect>
        18 9 1 2</rect></_>
    <_>
      <rect>
        18 12 2 1</rect></_>
    <_>
      <rect>
        20 0 1 1</rect></_>
    <_>
      <rect>
        20 8 1 2</rect></_>
    <_>
      <rect>
        20 9 1 2</rect></_>
    <_>
      <rect>
        22 0 1 1</rect></_>
    <_>
      <rect>
        22 0 1 2</rect></_>
    <_>
      <rect>
        22 1 1 2</rect></_>
    <_>
      <rect>
        22 1 1 4</rect></_></features></cascade>
</opencv_storage>
