<?xml version="1.0" encoding="utf-8"?>
<opencv_storage>
<cascade>
  <stageType>BOOST</stageType>
  <featureType>LBP</featureType>
  <height>15</height>
  <width>25</width>
  <stageParams>
    <boostType>GAB</boostType>
    <minHitRate>9.9900001287460327e-001</minHitRate>
    <maxFalseAlarm>5.0000000000000000e-001</maxFalseAlarm>
    <weightTrimRate>9.4999999999999996e-001</weightTrimRate>
    <maxDepth>1</maxDepth>
    <maxWeakCount>100</maxWeakCount></stageParams>
  <featureParams>
    <maxCatCount>256</maxCatCount>
    <featSize>1</featSize></featureParams>
  <stageNum>20</stageNum>
  <stages>
    <!-- stage 0 -->
    <_>
      <maxWeakCount>5</maxWeakCount>
      <stageThreshold>-1.5711348056793213e+000</stageThreshold>
      <weakClassifiers>
        <_>
          <internalNodes>
            0 -1 8 -439814657 -145516201 -183200385 -4335777 -106712577
            -73692533 -49833041 -237787161</internalNodes>
          <leafValues>
            -7.9517239332199097e-001 5.2168673276901245e-001</leafValues></_>
        <_>
          <internalNodes>
            0 -1 116 -673320704 -116068094 -721364517 -11800191
            -75433815 -7601893 -15795541 538245291</internalNodes>
          <leafValues>
            -7.3845094442367554e-001 3.5987684130668640e-001</leafValues></_>
        <_>
          <internalNodes>
            0 -1 156 -23200257 -106983341 1895863801 -358718013
            -502556461 -122142567 -377239707 -55772508</internalNodes>
          <leafValues>
            -7.5212138891220093e-001 2.7705022692680359e-001</leafValues></_>
        <_>
          <internalNodes>
            0 -1 176 -2243793 -774650909 -728971827 -1877225445
            -240258476 1887666378 -742117640 -453510425</internalNodes>
          <leafValues>
            -6.6818946599960327e-001 3.2586714625358582e-001</leafValues></_>
        <_>
          <internalNodes>
            0 -1 36 1895872994 -178700204 1092162020 -1844379440
            -2146953025 856227970 -1451030341 903938784</internalNodes>
          <leafValues>
            -5.2671349048614502e-001 3.5362777113914490e-001</leafValues></_></weakClassifiers></_>
    <!-- stage 1 -->
    <_>
      <maxWeakCount>5</maxWeakCount>
      <stageThreshold>-1.3730380535125732e+000</stageThreshold>
      <weakClassifiers>
        <_>
          <internalNodes>
            0 -1 105 -1312754371 1532559637 285315487 -551567201
            -930037573 -68517620 -1465337345 -393245665</internalNodes>
          <leafValues>
            -7.5695157051086426e-001 4.6448087692260742e-001</leafValues></_>
        <_>
          <internalNodes>
            0 -1 7 667087328 -225485225 1435731157 -840990339 -73270337
            -74865714 -1157109029 -438971919</internalNodes>
          <leafValues>
            -7.6902300119400024e-001 2.7767109870910645e-001</leafValues></_>
        <_>
          <internalNodes>
            0 -1 101 -204475585 -325676385 956961787 -362901318
            -387202661 -370507590 -225449225 -57606940</internalNodes>
          <leafValues>
            -7.0494031906127930e-001 2.5564125180244446e-001</leafValues></_>
        <_>
          <internalNodes>
            0 -1 129 -782769820 -749600736 286261532 -787671677
            -669278032 -1853144958 402753980 1962269587</internalNodes>
          <leafValues>
            -6.4200949668884277e-001 2.9543480277061462e-001</leafValues></_>
        <_>
          <internalNodes>
            0 -1 23 1671674656 -679739549 -524488 -537411593 2146959355
            536346622 -1073741989 -268959945</internalNodes>
          <leafValues>
            -3.3206811547279358e-001 5.6244212388992310e-001</leafValues></_></weakClassifiers></_>
    <!-- stage 2 -->
    <_>
      <maxWeakCount>6</maxWeakCount>
      <stageThreshold>-1.4030537605285645e+000</stageThreshold>
      <weakClassifiers>
        <_>
          <internalNodes>
            0 -1 42 -2129555977 -10550511 -1593503267 -10504765
            -1190696769 -5603173 -75372033 -4767081</internalNodes>
          <leafValues>
            -7.5856220722198486e-001 4.9472376704216003e-001</leafValues></_>
        <_>
          <internalNodes>
            0 -1 168 -543296001 -1970366469 -73966635 -290017282
            -640684681 -4137 -33694860 -50528268</internalNodes>
          <leafValues>
            -8.2436788082122803e-001 2.3163929581642151e-001</leafValues></_>
        <_>
          <internalNodes>
            0 -1 24 -1354498130 -518990903 -788280435 -404798945
            -83378002 -1618509686 -91227277 -50861193</internalNodes>
          <leafValues>
            -6.3353741168975830e-001 3.7817385792732239e-001</leafValues></_>
        <_>
          <internalNodes>
            0 -1 125 -1400962761 -522214409 -1261102753 -826514548
            -1818271947 -560090177 -86291850 -1393759520</internalNodes>
          <leafValues>
            -7.8364884853363037e-001 2.8996580839157104e-001</leafValues></_>
        <_>
          <internalNodes>
            0 -1 151 -250418130 -786871907 -2063007523 -736165749
            -1421633004 -228904781 -91025121 -253765201</internalNodes>
          <leafValues>
            -6.8271255493164062e-001 3.3106383681297302e-001</leafValues></_>
        <_>
          <internalNodes>
            0 -1 144 777193287 -1466723969 -1730082401 1855856843
            -39757002 -210614359 -962347996 -22495808</internalNodes>
          <leafValues>
            -7.5842690467834473e-001 2.0999152958393097e-001</leafValues></_></weakClassifiers></_>
    <!-- stage 3 -->
    <_>
      <maxWeakCount>5</maxWeakCount>
      <stageThreshold>-2.3059842586517334e+000</stageThreshold>
      <weakClassifiers>
        <_>
          <internalNodes>
            0 -1 130 -2146433 -2228225 -707420673 -9 -118554625 -4195141
            -335544321 -16974163</internalNodes>
          <leafValues>
            -7.2811800241470337e-001 5.7668286561965942e-001</leafValues></_>
        <_>
          <internalNodes>
            0 -1 33 -33816601 1878128479 -583806471 -262274 -33555473
            -4334161 -6620185 -134807577</internalNodes>
          <leafValues>
            -6.5943908691406250e-001 5.1195120811462402e-001</leafValues></_>
        <_>
          <internalNodes>
            0 -1 112 -404783233 -286457921 -536903681 -285409282
            -1056969 -6553601 -262411 -320012316</internalNodes>
          <leafValues>
            -7.9659789800643921e-001 4.2744362354278564e-001</leafValues></_>
        <_>
          <internalNodes>
            0 -1 178 -16384081 -153122853 -2119184145 -16801317
            -1362503563 -4670557 -75235596 -453517577</internalNodes>
          <leafValues>
            -7.8333473205566406e-001 3.2719612121582031e-001</leafValues></_>
        <_>
          <internalNodes>
            0 -1 97 -926096115 -45854305 1359315391 -537198307
            -668430149 -342310674 -133657861 -930756197</internalNodes>
          <leafValues>
            -5.6253600120544434e-001 4.8842784762382507e-001</leafValues></_></weakClassifiers></_>
    <!-- stage 4 -->
    <_>
      <maxWeakCount>9</maxWeakCount>
      <stageThreshold>-1.8942279815673828e+000</stageThreshold>
      <weakClassifiers>
        <_>
          <internalNodes>
            0 -1 41 -304350209 -82062381 -318696547 -2406405 -662440965
            -74915125 -8008725 -2624585</internalNodes>
          <leafValues>
            -7.1023100614547729e-001 4.6535947918891907e-001</leafValues></_>
        <_>
          <internalNodes>
            0 -1 196 -11863810 -671639165 474157394 -184612642
            -649334764 -267659207 -232543522 -186139905</internalNodes>
          <leafValues>
            -5.8646690845489502e-001 3.5469982028007507e-001</leafValues></_>
        <_>
          <internalNodes>
            0 -1 104 -371421948 -103428084 272887887 -707931797
            -1652315227 1761837197 -1742959635 205843179</internalNodes>
          <leafValues>
            -7.1645051240921021e-001 2.5348791480064392e-001</leafValues></_>
        <_>
          <internalNodes>
            0 -1 161 -505742337 -900022000 1350603787 -484785662
            -1024990655 -779485169 -75257295 -319499548</internalNodes>
          <leafValues>
            -8.2111734151840210e-001 2.6760980486869812e-001</leafValues></_>
        <_>
          <internalNodes>
            0 -1 34 -1041380960 1731039566 -2147417726 -570707968
            310478858 193628322 -1448378361 -405275933</internalNodes>
          <leafValues>
            -5.7544493675231934e-001 3.3369988203048706e-001</leafValues></_>
        <_>
          <internalNodes>
            0 -1 114 -101583395 -1017409268 -1325294575 -301694442
            -763242325 1115815960 -478099226 -55771928</internalNodes>
          <leafValues>
            -6.0779511928558350e-001 2.8449758887290955e-001</leafValues></_>
        <_>
          <internalNodes>
            0 -1 86 1216734368 -787414825 150995388 -715849447
            -759136018 -1216347776 -1459607109 272869719</internalNodes>
          <leafValues>
            -4.8680052161216736e-001 3.3712521195411682e-001</leafValues></_>
        <_>
          <internalNodes>
            0 -1 155 -1878929181 -644771557 268436631 -125501053
            -1426026427 -91748213 -1438410062 -459961677</internalNodes>
          <leafValues>
            -6.1754989624023438e-001 2.7279785275459290e-001</leafValues></_>
        <_>
          <internalNodes>
            0 -1 198 -726812440 2106557835 -1316181686 1744539851
            946569612 -1853554535 445201815 1907344379</internalNodes>
          <leafValues>
            -4.0252551436424255e-001 4.0583074092864990e-001</leafValues></_></weakClassifiers></_>
    <!-- stage 5 -->
    <_>
      <maxWeakCount>12</maxWeakCount>
      <stageThreshold>-1.8078782558441162e+000</stageThreshold>
      <weakClassifiers>
        <_>
          <internalNodes>
            0 -1 7 -272433169 -585531005 352323983 -6880049 -116405249
            -552894071 -876357137 -4719721</internalNodes>
          <leafValues>
            -6.8778979778289795e-001 1.7241379618644714e-001</leafValues></_>
        <_>
          <internalNodes>
            0 -1 174 -154469873 865720530 557467 -1865170229 -825509567
            -1198817120 -1601098833 -790648833</internalNodes>
          <leafValues>
            -5.9669280052185059e-001 2.2693091630935669e-001</leafValues></_>
        <_>
          <internalNodes>
            0 -1 146 281532279 -325092553 1763096751 -23930022 12263985
            -3849575 -5277131 -50799692</internalNodes>
          <leafValues>
            -6.8672651052474976e-001 2.0693302154541016e-001</leafValues></_>
        <_>
          <internalNodes>
            0 -1 76 1326641649 -653979440 -1996481743 -686059200
            -267896135 2038530195 -1196420677 -860522573</internalNodes>
          <leafValues>
            -4.2422416806221008e-001 3.2479894161224365e-001</leafValues></_>
        <_>
          <internalNodes>
            0 -1 114 -875564043 1751691610 -939412585 -295267908
            -13984033 -896071509 -274071945 -388175124</internalNodes>
          <leafValues>
            -6.2092548608779907e-001 2.4717600643634796e-001</leafValues></_>
        <_>
          <internalNodes>
            0 -1 38 -447496183 -414863265 150999330 -169537065
            -1098897137 967344281 -1031212397 -136074521</internalNodes>
          <leafValues>
            -4.0571960806846619e-001 2.8746959567070007e-001</leafValues></_>
        <_>
          <internalNodes>
            0 -1 103 1890681092 -1332383551 275782109 1833254933
            -838690779 945195038 203453103 545325087</internalNodes>
          <leafValues>
            -4.9120867252349854e-001 2.4221338331699371e-001</leafValues></_>
        <_>
          <internalNodes>
            0 -1 158 -994431219 1204946201 5332302 -1443557001
            -584660108 -1096480877 -624903764 -1440076459</internalNodes>
          <leafValues>
            -5.5823993682861328e-001 2.1140754222869873e-001</leafValues></_>
        <_>
          <internalNodes>
            0 -1 122 -1601754837 -666954613 268963860 -287436524
            -1198558869 983204016 -544633561 -118689348</internalNodes>
          <leafValues>
            -5.8773571252822876e-001 2.1429745852947235e-001</leafValues></_>
        <_>
          <internalNodes>
            0 -1 220 -43588778 -628389736 1476720919 1394987093
            -666068847 168067076 -1473590502 460806</internalNodes>
          <leafValues>
            -3.8282594084739685e-001 3.2315057516098022e-001</leafValues></_>
        <_>
          <internalNodes>
            0 -1 50 -1420455542 -199884779 -1853816809 -1940061947
            -645164369 -1442152318 134809641 540085122</internalNodes>
          <leafValues>
            -4.9918225407600403e-001 2.4753321707248688e-001</leafValues></_>
        <_>
          <internalNodes>
            0 -1 167 -2006241020 -2104452840 -207236147 2144864408
            -1299535872 -1417498589 -958285776 -20907356</internalNodes>
          <leafValues>
            -6.2575179338455200e-001 1.9241827726364136e-001</leafValues></_></weakClassifiers></_>
    <!-- stage 6 -->
    <_>
      <maxWeakCount>12</maxWeakCount>
      <stageThreshold>-1.5346404314041138e+000</stageThreshold>
      <weakClassifiers>
        <_>
          <internalNodes>
            0 -1 78 -988289545 -787398313 -1862200939 -1784983151
            -1878983446 -125630267 -1164932613 -676134781</internalNodes>
          <leafValues>
            -6.6084790229797363e-001 2.3673702776432037e-001</leafValues></_>
        <_>
          <internalNodes>
            0 -1 142 -35787945 -11828521 42500337 -175564769 -1416972101
            -1281654654 1493903563 -527056153</internalNodes>
          <leafValues>
            -4.9707269668579102e-001 3.1081411242485046e-001</leafValues></_>
        <_>
          <internalNodes>
            0 -1 55 51419617 1146130517 1493242774 -1210969264
            -2012296023 -16545638 -1744117578 -438269053</internalNodes>
          <leafValues>
            -6.1393213272094727e-001 2.0481948554515839e-001</leafValues></_>
        <_>
          <internalNodes>
            0 -1 162 -229379106 -837185071 -788463111 1258049770
            -2104910620 -502562653 -712250831 -186062160</internalNodes>
          <leafValues>
            -6.9649344682693481e-001 2.0918841660022736e-001</leafValues></_>
        <_>
          <internalNodes>
            0 -1 224 -1060385082 1452724426 -400979385 1343996045
            1780760832 1275759270 -866525590 -737721669</internalNodes>
          <leafValues>
            -3.7405887246131897e-001 3.2935652136802673e-001</leafValues></_>
        <_>
          <internalNodes>
            0 -1 71 -731816766 -305463120 -2147384316 -84438898
            -1870485461 -1031698816 -259358170 -442135882</internalNodes>
          <leafValues>
            -4.1320112347602844e-001 2.9276236891746521e-001</leafValues></_>
        <_>
          <internalNodes>
            0 -1 140 -658194345 -1785659164 1476640921 1060999177
            -1727280599 -671055870 1112204155 -91152305</internalNodes>
          <leafValues>
            -3.6744564771652222e-001 3.3208924531936646e-001</leafValues></_>
        <_>
          <internalNodes>
            0 -1 111 -2035031257 -2042485278 -1852706093 -1566281494
            -97812402 -234143547 -1734620941 -526611480</internalNodes>
          <leafValues>
            -6.7974835634231567e-001 1.9373837113380432e-001</leafValues></_>
        <_>
          <internalNodes>
            0 -1 51 -769342208 -43541861 -1745911578 826555044 356095625
            525129664 -1539530753 304047086</internalNodes>
          <leafValues>
            -3.4728309512138367e-001 3.8342824578285217e-001</leafValues></_>
        <_>
          <internalNodes>
            0 -1 118 194288160 -1170206276 -248423404 -107179500
            705077390 -234848253 -1534450950 16289800</internalNodes>
          <leafValues>
            -6.9437676668167114e-001 1.8860797584056854e-001</leafValues></_>
        <_>
          <internalNodes>
            0 -1 193 -529363446 -1217462402 -935530836 -572814114
            1018491611 222944868 1815796901 -540062618</internalNodes>
          <leafValues>
            -3.0835571885108948e-001 4.1134706139564514e-001</leafValues></_>
        <_>
          <internalNodes>
            0 -1 139 -1383711964 -1072213758 1107629265 -157626055
            -215556077 -1870331771 -1286956751 -5457676</internalNodes>
          <leafValues>
            -5.8442109823226929e-001 2.0560185611248016e-001</leafValues></_></weakClassifiers></_>
    <!-- stage 7 -->
    <_>
      <maxWeakCount>15</maxWeakCount>
      <stageThreshold>-1.9782414436340332e+000</stageThreshold>
      <weakClassifiers>
        <_>
          <internalNodes>
            0 -1 64 -852306447 1968260370 1091801563 1469813009
            -1157454878 -1429501624 -83793157 -370695501</internalNodes>
          <leafValues>
            -6.7925983667373657e-001 1.6378434002399445e-001</leafValues></_>
        <_>
          <internalNodes>
            0 -1 141 -548805793 2082445382 -2130607114 1384616015
            -1979012951 -1727889280 -1694263270 -520842229</internalNodes>
          <leafValues>
            -5.9475982189178467e-001 2.0042790472507477e-001</leafValues></_>
        <_>
          <internalNodes>
            0 -1 26 1530209988 320806940 509953073 1359952409 1323176415
            1124354317 1300229322 658456475</internalNodes>
          <leafValues>
            -3.1102111935615540e-001 4.4338816404342651e-001</leafValues></_>
        <_>
          <internalNodes>
            0 -1 59 -134218322 -964759569 -27395320 -105906215 -82102
            -402653341 -197163518 -134217825</internalNodes>
          <leafValues>
            -3.1720888614654541e-001 3.6611852049827576e-001</leafValues></_>
        <_>
          <internalNodes>
            0 -1 143 -485821611 548405420 587358555 1733460034
            -1047871439 834732169 -2132682620 -1146440755</internalNodes>
          <leafValues>
            -4.8114797472953796e-001 2.8965473175048828e-001</leafValues></_>
        <_>
          <internalNodes>
            0 -1 120 -1547457249 -268353205 -1869786941 1786122773
            -913661917 -268303992 -335887261 -85132804</internalNodes>
          <leafValues>
            -4.8535287380218506e-001 2.4967353045940399e-001</leafValues></_>
        <_>
          <internalNodes>
            0 -1 46 276893838 328270017 25184336 1157693456 -2147306350
            1493172368 1225427915 1628078217</internalNodes>
          <leafValues>
            -5.2911067008972168e-001 2.1124324202537537e-001</leafValues></_>
        <_>
          <internalNodes>
            0 -1 197 -494737842 1163153938 1073828082 1812410430
            816017924 1426822028 831138484 -262700233</internalNodes>
          <leafValues>
            -6.8569314479827881e-001 1.7509950697422028e-001</leafValues></_>
        <_>
          <internalNodes>
            0 -1 204 -2004831312 294719893 269357414 353052062
            -1423074908 979896648 458054499 20132841</internalNodes>
          <leafValues>
            -4.1852363944053650e-001 2.9079651832580566e-001</leafValues></_>
        <_>
          <internalNodes>
            0 -1 100 77162853 -368918182 -1006534593 -456478533
            -1027520469 1872396548 -611806781 -18302584</internalNodes>
          <leafValues>
            -5.5814522504806519e-001 2.1314975619316101e-001</leafValues></_>
        <_>
          <internalNodes>
            0 -1 13 1195880458 -786886590 168886272 1972961450
            1377239234 8486920 33652746 1267564545</internalNodes>
          <leafValues>
            -3.9841717481613159e-001 3.1635895371437073e-001</leafValues></_>
        <_>
          <internalNodes>
            0 -1 39 1082234412 1344622308 -1398778335 837799034
            2100459214 -1803792071 1823883151 34310091</internalNodes>
          <leafValues>
            -3.4764045476913452e-001 3.9737427234649658e-001</leafValues></_>
        <_>
          <internalNodes>
            0 -1 149 -32752516 294928415 26313944 -618692385 1635853280
            -1305640831 -1070962572 -1090987607</internalNodes>
          <leafValues>
            -5.1019942760467529e-001 2.4048388004302979e-001</leafValues></_>
        <_>
          <internalNodes>
            0 -1 77 2122590372 2006253777 1346470668 2075270279
            -637124374 -2054415099 963715896 845389928</internalNodes>
          <leafValues>
            -3.6833259463310242e-001 3.0941781401634216e-001</leafValues></_>
        <_>
          <internalNodes>
            0 -1 186 1675215791 -32433248 8697 -2012687589 -1429491577
            302620680 -910386896 -603676028</internalNodes>
          <leafValues>
            -6.9185233116149902e-001 1.4119997620582581e-001</leafValues></_></weakClassifiers></_>
    <!-- stage 8 -->
    <_>
      <maxWeakCount>15</maxWeakCount>
      <stageThreshold>-1.6875551939010620e+000</stageThreshold>
      <weakClassifiers>
        <_>
          <internalNodes>
            0 -1 98 -1656630985 -1819180643 285315551 1031868905
            545822905 -1180925822 210246079 -185925605</internalNodes>
          <leafValues>
            -6.7630904912948608e-001 2.2252596914768219e-001</leafValues></_>
        <_>
          <internalNodes>
            0 -1 56 -817118993 -511246309 169936896 -541769349
            -880170261 2077958321 -2138875789 -168584221</internalNodes>
          <leafValues>
            -5.4513955116271973e-001 3.3481919765472412e-001</leafValues></_>
        <_>
          <internalNodes>
            0 -1 63 1765973936 1962983712 -913709693 228033283
            1057526662 260769815 556619675 770667811</internalNodes>
          <leafValues>
            -3.8589116930961609e-001 3.5653755068778992e-001</leafValues></_>
        <_>
          <internalNodes>
            0 -1 60 -1862258193 520359953 287392016 -764407808
            -2013230453 -1207925880 -2004317537 -1319860046</internalNodes>
          <leafValues>
            -4.4410160183906555e-001 2.7349776029586792e-001</leafValues></_>
        <_>
          <internalNodes>
            0 -1 169 -1463522 -703495994 -763314166 1405323402
            -1073500995 671646123 151060993 -389137853</internalNodes>
          <leafValues>
            -4.2505925893783569e-001 3.0502215027809143e-001</leafValues></_>
        <_>
          <internalNodes>
            0 -1 16 -546818040 1442786539 41290146 1371036747 -660754532
            302320496 1104626062 912199562</internalNodes>
          <leafValues>
            -3.1429588794708252e-001 3.8883295655250549e-001</leafValues></_>
        <_>
          <internalNodes>
            0 -1 175 -1546973756 835420419 -2115992697 327325963
            -1050705308 -1735880559 -74913664 -1073954827</internalNodes>
          <leafValues>
            -6.2719804048538208e-001 2.0332036912441254e-001</leafValues></_>
        <_>
          <internalNodes>
            0 -1 191 1396999306 185230039 536937248 1932380993 201764239
            -1298685495 609723067 292490931</internalNodes>
          <leafValues>
            -3.7065950036048889e-001 3.5391926765441895e-001</leafValues></_>
        <_>
          <internalNodes>
            0 -1 92 703238387 -799899391 -1055895292 -183709292
            1761614488 -1727954813 134418617 13435079</internalNodes>
          <leafValues>
            -5.1132172346115112e-001 2.3001110553741455e-001</leafValues></_>
        <_>
          <internalNodes>
            0 -1 144 -1568929935 -1004629888 855720009 -426081678
            1652911109 -1315307389 -123628522 -151994128</internalNodes>
          <leafValues>
            -6.8218451738357544e-001 2.0556558668613434e-001</leafValues></_>
        <_>
          <internalNodes>
            0 -1 225 -502495378 2080854222 1208078797 -824999777
            1101172310 1401454602 -838094622 1359454366</internalNodes>
          <leafValues>
            -5.1619350910186768e-001 2.0098340511322021e-001</leafValues></_>
        <_>
          <internalNodes>
            0 -1 45 1728951715 -481324760 16777411 1561002130 285417869
            1360527360 991658159 2017977191</internalNodes>
          <leafValues>
            -2.9934179782867432e-001 4.1748365759849548e-001</leafValues></_>
        <_>
          <internalNodes>
            0 -1 96 -215955776 441351762 -1417778030 2064591602
            -323290806 219103088 -774613016 287047345</internalNodes>
          <leafValues>
            -3.2974222302436829e-001 3.6833569407463074e-001</leafValues></_>
        <_>
          <internalNodes>
            0 -1 179 1774448863 -1315691136 268472503 1783857826
            -1836217483 -74447862 -1608778796 -557260140</internalNodes>
          <leafValues>
            -5.5519700050354004e-001 2.2201746702194214e-001</leafValues></_>
        <_>
          <internalNodes>
            0 -1 73 1293984946 1921780708 1055209124 2098481916
            1600043214 126906356 1333644425 1099630287</internalNodes>
          <leafValues>
            -3.5783633589744568e-001 3.6552631855010986e-001</leafValues></_></weakClassifiers></_>
    <!-- stage 9 -->
    <_>
      <maxWeakCount>15</maxWeakCount>
      <stageThreshold>-1.7934402227401733e+000</stageThreshold>
      <weakClassifiers>
        <_>
          <internalNodes>
            0 -1 107 -246104393 -787398525 -2013249077 1171325215
            -649034753 1791631527 -1828445973 202214215</internalNodes>
          <leafValues>
            -6.5546876192092896e-001 1.1900000274181366e-001</leafValues></_>
        <_>
          <internalNodes>
            0 -1 41 -511002709 -52989695 -779716188 1833919169
            -1987339346 -111206245 964923849 -503848825</internalNodes>
          <leafValues>
            -5.2774196863174438e-001 2.3917508125305176e-001</leafValues></_>
        <_>
          <internalNodes>
            0 -1 37 18350538 -1324351471 17895450 2031223128 -1475864373
            725156016 8915135 -1309595470</internalNodes>
          <leafValues>
            -3.4750998020172119e-001 3.3879521489143372e-001</leafValues></_>
        <_>
          <internalNodes>
            0 -1 134 407676495 509603161 -2147366510 995737604
            -527873383 974749834 680217390 -127085111</internalNodes>
          <leafValues>
            -4.3759229779243469e-001 2.6402312517166138e-001</leafValues></_>
        <_>
          <internalNodes>
            0 -1 119 -1558310099 -1069366265 -718012129 -862690853
            1934794794 -1602026874 -342968142 -117909092</internalNodes>
          <leafValues>
            -5.6482130289077759e-001 2.6835787296295166e-001</leafValues></_>
        <_>
          <internalNodes>
            0 -1 0 2134226080 1496985510 595501090 -1255947617
            -1955611974 482044668 -387873064 323712746</internalNodes>
          <leafValues>
            -3.2769376039505005e-001 3.6930650472640991e-001</leafValues></_>
        <_>
          <internalNodes>
            0 -1 184 -108576897 -142094319 -1064919668 819706039
            -360021183 973091330 -1166497292 -11261003</internalNodes>
          <leafValues>
            -5.3760141134262085e-001 1.8118807673454285e-001</leafValues></_>
        <_>
          <internalNodes>
            0 -1 195 -1019690734 1895825418 545374474 33641480
            -125107944 -117342205 -2147239908 -527226873</internalNodes>
          <leafValues>
            -4.4403922557830811e-001 2.7068957686424255e-001</leafValues></_>
        <_>
          <internalNodes>
            0 -1 200 -1361278702 -1855748886 361505498 961926564
            1133605207 1706385551 499683631 388731421</internalNodes>
          <leafValues>
            -4.1388157010078430e-001 2.6002562046051025e-001</leafValues></_>
        <_>
          <internalNodes>
            0 -1 126 -250228650 -268168808 -1878813308 1954308270
            -2104786767 323469476 -1282479307 -1092553996</internalNodes>
          <leafValues>
            -5.7436335086822510e-001 1.8996192514896393e-001</leafValues></_>
        <_>
          <internalNodes>
            0 -1 109 16900978 1342275594 285283208 -939524096 162
            -1473642302 33753279 1820524674</internalNodes>
          <leafValues>
            -4.5363777875900269e-001 2.5826594233512878e-001</leafValues></_>
        <_>
          <internalNodes>
            0 -1 90 -787382112 760304079 1342259556 257294418 -536194320
            865548302 -1928709325 224723346</internalNodes>
          <leafValues>
            -4.9071076512336731e-001 2.0069403946399689e-001</leafValues></_>
        <_>
          <internalNodes>
            0 -1 158 -994507407 -510056635 -383180525 964764947
            -1097801596 -107479003 -878704468 -1092963321</internalNodes>
          <leafValues>
            -4.1337063908576965e-001 2.6530724763870239e-001</leafValues></_>
        <_>
          <internalNodes>
            0 -1 44 -383143544 1057474297 2096621476 1969837083
            1868694667 -1099071688 -465066721 1342645143</internalNodes>
          <leafValues>
            -2.7986806631088257e-001 4.0187546610832214e-001</leafValues></_>
        <_>
          <internalNodes>
            0 -1 121 -1020624321 -510521261 -721059766 -455704369
            -1500348331 -763264896 -1962333614 -694373644</internalNodes>
          <leafValues>
            -6.5025925636291504e-001 1.5487371385097504e-001</leafValues></_></weakClassifiers></_>
    <!-- stage 10 -->
    <_>
      <maxWeakCount>18</maxWeakCount>
      <stageThreshold>-1.6459234952926636e+000</stageThreshold>
      <weakClassifiers>
        <_>
          <internalNodes>
            0 -1 117 -120478473 -174641021 -2062512773 -552107755
            -1794860291 -247224914 445703071 -862635637</internalNodes>
          <leafValues>
            -5.9738373756408691e-001 1.1283186078071594e-001</leafValues></_>
        <_>
          <internalNodes>
            0 -1 35 2085847459 1762328975 16793628 -11288368 1477556766
            -1157397339 -1836479950 -135937721</internalNodes>
          <leafValues>
            -4.8357352614402771e-001 2.0131783187389374e-001</leafValues></_>
        <_>
          <internalNodes>
            0 -1 110 1695087474 713326938 -1828548136 1979711492
            151095351 1477484731 -1878259584 2028481184</internalNodes>
          <leafValues>
            -7.9218953847885132e-001 1.4020636677742004e-001</leafValues></_>
        <_>
          <internalNodes>
            0 -1 180 1358999911 286265473 269488208 268501264 -125568704
            -174522205 -1711163216 -457714701</internalNodes>
          <leafValues>
            -6.6517168283462524e-001 1.7293277382850647e-001</leafValues></_>
        <_>
          <internalNodes>
            0 -1 26 1532233742 306913289 562103330 -1022523227
            1750277007 1126171181 1805951215 121445050</internalNodes>
          <leafValues>
            -3.0529054999351501e-001 3.2293981313705444e-001</leafValues></_>
        <_>
          <internalNodes>
            0 -1 150 -19128016 823656835 -1304068045 2006581527
            -1342061970 -905363456 1109309837 -1355781600</internalNodes>
          <leafValues>
            -5.0051635503768921e-001 2.0564094185829163e-001</leafValues></_>
        <_>
          <internalNodes>
            0 -1 113 -2116954114 -493645431 -775647013 -295263858
            16355643 1647419535 -670332718 -454515720</internalNodes>
          <leafValues>
            -6.0225683450698853e-001 1.5901602804660797e-001</leafValues></_>
        <_>
          <internalNodes>
            0 -1 202 -200769075 -1183336387 -573712179 -1856881505
            1008924410 -1107537956 879875580 387384731</internalNodes>
          <leafValues>
            -2.7896097302436829e-001 4.1080909967422485e-001</leafValues></_>
        <_>
          <internalNodes>
            0 -1 66 1099109379 386968924 -1593782013 1493270800
            -670425917 -527773249 1480261785 639351729</internalNodes>
          <leafValues>
            -3.8751119375228882e-001 2.5712323188781738e-001</leafValues></_>
        <_>
          <internalNodes>
            0 -1 137 -270205099 805248551 -65665 805126007 -4100
            1879048063 -1073840411 805273380</internalNodes>
          <leafValues>
            -2.5923055410385132e-001 3.8633921742439270e-001</leafValues></_>
        <_>
          <internalNodes>
            0 -1 210 -1439716360 -629891443 1739075236 -109256747
            -1212830227 1987968881 1817327387 858499039</internalNodes>
          <leafValues>
            -2.6898729801177979e-001 3.6248928308486938e-001</leafValues></_>
        <_>
          <internalNodes>
            0 -1 128 -246890481 -1802502092 -654245538 1372389645
            -2146934620 683213000 134457815 943669839</internalNodes>
          <leafValues>
            -3.8729876279830933e-001 2.7319502830505371e-001</leafValues></_>
        <_>
          <internalNodes>
            0 -1 147 1405182291 -1794110702 268533891 1394132827
            -1996365774 -1937045344 -2004638169 -555965696</internalNodes>
          <leafValues>
            -5.0449180603027344e-001 2.1704298257827759e-001</leafValues></_>
        <_>
          <internalNodes>
            0 -1 222 1677904926 269128356 76622036 135129914 -624295376
            537476274 -233819584 1375823915</internalNodes>
          <leafValues>
            -4.6655687689781189e-001 2.2104381024837494e-001</leafValues></_>
        <_>
          <internalNodes>
            0 -1 20 759337411 -602800112 1090584585 1829437705
            -217470833 -1157103606 -2130640741 1101267110</internalNodes>
          <leafValues>
            -4.9180561304092407e-001 2.0972709357738495e-001</leafValues></_>
        <_>
          <internalNodes>
            0 -1 12 1231269387 -952299537 737607542 -1019846805
            -562262538 -1495367791 1585273999 -222321909</internalNodes>
          <leafValues>
            -1.7929412424564362e-001 5.9799176454544067e-001</leafValues></_>
        <_>
          <internalNodes>
            0 -1 131 176327943 1811616144 1358987722 -297901618
            -1568571325 -105774975 319513152 -51637388</internalNodes>
          <leafValues>
            -6.8906515836715698e-001 1.6154083609580994e-001</leafValues></_>
        <_>
          <internalNodes>
            0 -1 89 -76819580 2074713783 524053238 197902255 -1904230582
            1925709686 -933957841 890231413</internalNodes>
          <leafValues>
            -3.0328518152236938e-001 3.2147672772407532e-001</leafValues></_></weakClassifiers></_>
    <!-- stage 11 -->
    <_>
      <maxWeakCount>17</maxWeakCount>
      <stageThreshold>-1.6031913757324219e+000</stageThreshold>
      <weakClassifiers>
        <_>
          <internalNodes>
            0 -1 14 1139529930 2098660378 16842753 -811661297 -107247221
            -1686043520 -1987999597 -237796713</internalNodes>
          <leafValues>
            -6.8744099140167236e-001 6.5520065836608410e-003</leafValues></_>
        <_>
          <internalNodes>
            0 -1 130 -791659015 978422929 -536337441 -1148124781
            1017684637 864591305 1259039691 -1095199953</internalNodes>
          <leafValues>
            -4.6138396859169006e-001 2.6018795371055603e-001</leafValues></_>
        <_>
          <internalNodes>
            0 -1 185 -342756242 926941459 -1325154060 1343885361
            -879863468 823439593 -1314731868 347384243</internalNodes>
          <leafValues>
            -7.0263952016830444e-001 1.2297791242599487e-001</leafValues></_>
        <_>
          <internalNodes>
            0 -1 201 -1097753912 -809968973 1212906228 826538839
            -453581121 310885631 77578909 399498639</internalNodes>
          <leafValues>
            -2.2697773575782776e-001 4.0598714351654053e-001</leafValues></_>
        <_>
          <internalNodes>
            0 -1 94 -2019618549 -325269184 -753380845 -631459188
            822567475 -1878884037 2040660631 -791353468</internalNodes>
          <leafValues>
            -5.8393001556396484e-001 1.6660931706428528e-001</leafValues></_>
        <_>
          <internalNodes>
            0 -1 25 -720190736 1354906730 1874985384 466815977
            -1075652965 624478106 1577827322 331287946</internalNodes>
          <leafValues>
            -2.6379615068435669e-001 3.8712620735168457e-001</leafValues></_>
        <_>
          <internalNodes>
            0 -1 154 -1307418809 570475331 -1795129070 -42821362
            2097153061 -1859960693 -1025301963 -574960944</internalNodes>
          <leafValues>
            -4.6123647689819336e-001 2.1769794821739197e-001</leafValues></_>
        <_>
          <internalNodes>
            0 -1 19 -72809472 263116844 -1057505488 1441562414
            -985752173 2091352050 -193989185 -253772243</internalNodes>
          <leafValues>
            -3.0830773711204529e-001 3.2064428925514221e-001</leafValues></_>
        <_>
          <internalNodes>
            0 -1 118 -1156255265 -671088568 -1878982463 -212687992
            -570258230 827326600 -1113487224 1184174209</internalNodes>
          <leafValues>
            -4.1603937745094299e-001 2.4382527172565460e-001</leafValues></_>
        <_>
          <internalNodes>
            0 -1 190 -1341422058 -1177300516 136351787 1510007536
            -796014064 -1979617151 -1156997024 -391320860</internalNodes>
          <leafValues>
            -7.8763520717620850e-001 1.1933065950870514e-001</leafValues></_>
        <_>
          <internalNodes>
            0 -1 215 -885091703 -1220935760 -1637421245 -1088997921
            1341395585 1306618875 198079950 1138698958</internalNodes>
          <leafValues>
            -2.8339269757270813e-001 3.3358347415924072e-001</leafValues></_>
        <_>
          <internalNodes>
            0 -1 206 -1311593856 2081983131 -1769666008 273713168
            679526468 1057901146 -1098141344 374014032</internalNodes>
          <leafValues>
            -4.6440365910530090e-001 1.8471269309520721e-001</leafValues></_>
        <_>
          <internalNodes>
            0 -1 102 -686566369 -623869693 1084751971 -927956222
            1103298797 -1602158486 580468786 -724794712</internalNodes>
          <leafValues>
            -4.9716538190841675e-001 1.8117949366569519e-001</leafValues></_>
        <_>
          <internalNodes>
            0 -1 163 -37655422 1922285849 134299670 1595736081
            -2012118900 -1056824955 1804239501 -1095333345</internalNodes>
          <leafValues>
            -3.5455551743507385e-001 2.6641726493835449e-001</leafValues></_>
        <_>
          <internalNodes>
            0 -1 27 1518010641 992022371 798809024 1442705346 847172506
            2071244795 220706279 247934923</internalNodes>
          <leafValues>
            -2.1555268764495850e-001 4.5250940322875977e-001</leafValues></_>
        <_>
          <internalNodes>
            0 -1 220 -733953089 -201720255 -1615216729 1864744565
            -59385453 1525978615 762488504 -1775785234</internalNodes>
          <leafValues>
            -2.1225836873054504e-001 4.5171192288398743e-001</leafValues></_>
        <_>
          <internalNodes>
            0 -1 74 -385292256 -939054956 -1870612904 923950338
            -1811343584 -2063169408 -939394438 1696152081</internalNodes>
          <leafValues>
            -4.1872808337211609e-001 2.1303305029869080e-001</leafValues></_></weakClassifiers></_>
    <!-- stage 12 -->
    <_>
      <maxWeakCount>15</maxWeakCount>
      <stageThreshold>-1.5442150831222534e+000</stageThreshold>
      <weakClassifiers>
        <_>
          <internalNodes>
            0 -1 15 -2130591267 -40300257 1093222876 -318045796
            -536830848 2074812587 1207961615 -1752104927</internalNodes>
          <leafValues>
            -6.7619049549102783e-001 2.1656051278114319e-002</leafValues></_>
        <_>
          <internalNodes>
            0 -1 170 2072226575 -654065663 25231759 1505984643
            -1954307669 43616264 1929619987 -1192386377</internalNodes>
          <leafValues>
            -3.7720552086830139e-001 3.1644305586814880e-001</leafValues></_>
        <_>
          <internalNodes>
            0 -1 49 180539776 -78249964 -2147383286 -870383606
            1900775563 -1157430656 -1476165009 -573208025</internalNodes>
          <leafValues>
            -4.9860304594039917e-001 2.3247247934341431e-001</leafValues></_>
        <_>
          <internalNodes>
            0 -1 61 -796862052 2146095468 974371586 1396006353
            -468085048 1431747430 -1580949717 1398736363</internalNodes>
          <leafValues>
            -2.4246571958065033e-001 3.8444405794143677e-001</leafValues></_>
        <_>
          <internalNodes>
            0 -1 193 1484170886 191676156 -667095260 467373148 364690295
            -599007643 -38019541 -540832685</internalNodes>
          <leafValues>
            -2.3253463208675385e-001 4.2940962314605713e-001</leafValues></_>
        <_>
          <internalNodes>
            0 -1 181 -1869358626 -1306373941 16927193 2100744627
            -1332567885 -1683414887 -591201547 -121849436</internalNodes>
          <leafValues>
            -4.8181030154228210e-001 2.0084926486015320e-001</leafValues></_>
        <_>
          <internalNodes>
            0 -1 106 -804220752 -246345449 4456826 -1248258943 679936417
            -350158707 -2004311633 152144641</internalNodes>
          <leafValues>
            -3.1284135580062866e-001 3.2478839159011841e-001</leafValues></_>
        <_>
          <internalNodes>
            0 -1 99 -1604374249 -1473085302 -518881251 1780383824
            -2110899681 1620705352 140608742 -1931964428</internalNodes>
          <leafValues>
            -6.9355553388595581e-001 1.5639214217662811e-001</leafValues></_>
        <_>
          <internalNodes>
            0 -1 211 -1970503552 -485228542 270618098 496184262
            -2128346265 1441530245 1212889350 55416976</internalNodes>
          <leafValues>
            -4.1905704140663147e-001 2.1364434063434601e-001</leafValues></_>
        <_>
          <internalNodes>
            0 -1 173 -494189987 1463910401 1094746251 1897207315
            -778005879 -218035663 -1022467909 -98145777</internalNodes>
          <leafValues>
            -3.4693625569343567e-001 2.8032803535461426e-001</leafValues></_>
        <_>
          <internalNodes>
            0 -1 166 -1493169795 -1978990336 -1044315235 243929989
            -1064594907 -324973524 -374306316 -90137967</internalNodes>
          <leafValues>
            -5.9118121862411499e-001 1.3892827928066254e-001</leafValues></_>
        <_>
          <internalNodes>
            0 -1 10 -764048278 1638568740 1277209636 274211221
            1006865436 1402669658 827471275 405694751</internalNodes>
          <leafValues>
            -3.7641900777816772e-001 2.6363748311996460e-001</leafValues></_>
        <_>
          <internalNodes>
            0 -1 22 1225332258 1337829824 -1611694215 1475307499
            -13157157 2146598707 529923167 567771955</internalNodes>
          <leafValues>
            -2.3852200806140900e-001 4.3308013677597046e-001</leafValues></_>
        <_>
          <internalNodes>
            0 -1 87 -810639472 -18186498 -536903688 -545259566 434008031
            1023410165 -409207056 -675570735</internalNodes>
          <leafValues>
            -2.9715821146965027e-001 3.5844719409942627e-001</leafValues></_>
        <_>
          <internalNodes>
            0 -1 153 1610764918 1214464 1073938634 -1828585472
            -1475829722 -2129985280 -2105507663 -1280523575</internalNodes>
          <leafValues>
            -6.2563186883926392e-001 1.6931332647800446e-001</leafValues></_></weakClassifiers></_>
    <!-- stage 13 -->
    <_>
      <maxWeakCount>18</maxWeakCount>
      <stageThreshold>-1.6099563837051392e+000</stageThreshold>
      <weakClassifiers>
        <_>
          <internalNodes>
            0 -1 97 -792672833 822132885 159713503 -1751318310
            -2147479105 972554393 -1878995969 -1136181089</internalNodes>
          <leafValues>
            -6.1379307508468628e-001 8.3076924085617065e-002</leafValues></_>
        <_>
          <internalNodes>
            0 -1 30 1155121284 -2137390718 16810002 -675348210
            -1005997942 1250099342 -1710521690 -1244196221</internalNodes>
          <leafValues>
            -6.5504270792007446e-001 1.5248243510723114e-001</leafValues></_>
        <_>
          <internalNodes>
            0 -1 171 -2128193284 290455700 -2078146552 -1117846867
            1343144360 838909962 1678442665 -81650850</internalNodes>
          <leafValues>
            -5.2060329914093018e-001 1.7561526596546173e-001</leafValues></_>
        <_>
          <internalNodes>
            0 -1 101 1375957273 -467154869 12545 -361471834 -1450556857
            -1601666933 -1314678733 -321877780</internalNodes>
          <leafValues>
            -6.3820767402648926e-001 1.7040035128593445e-001</leafValues></_>
        <_>
          <internalNodes>
            0 -1 82 -148636206 -236753369 1874289653 1393536277
            -153844493 -322962050 -330058885 -807403869</internalNodes>
          <leafValues>
            -1.6082094609737396e-001 6.0045647621154785e-001</leafValues></_>
        <_>
          <internalNodes>
            0 -1 72 -1023025144 -362360830 -1874833376 -267898672
            25337863 453591097 -2004178425 -1060852857</internalNodes>
          <leafValues>
            -5.0582003593444824e-001 1.9481013715267181e-001</leafValues></_>
        <_>
          <internalNodes>
            0 -1 1 1078925512 1367753006 242237462 -2147401648
            1251475642 -753919872 1212836555 13258398</internalNodes>
          <leafValues>
            -3.8069429993629456e-001 2.5712421536445618e-001</leafValues></_>
        <_>
          <internalNodes>
            0 -1 198 -805045816 1579912651 369959274 1933596105
            1768661001 348193050 1317869716 88802171</internalNodes>
          <leafValues>
            -3.8133254647254944e-001 2.2977288067340851e-001</leafValues></_>
        <_>
          <internalNodes>
            0 -1 132 190188290 -1009483655 -251559675 -128057313
            1501562369 -1207434623 -1207230204 -318988068</internalNodes>
          <leafValues>
            -6.0586214065551758e-001 1.6013686358928680e-001</leafValues></_>
        <_>
          <internalNodes>
            0 -1 115 -1874739163 1003720852 1157976315 -1119813167
            -2143236872 1375740162 1091611065 940646409</internalNodes>
          <leafValues>
            -3.4958556294441223e-001 2.7910166978836060e-001</leafValues></_>
        <_>
          <internalNodes>
            0 -1 57 -2057469656 -486359038 -2147482493 -149479422
            9144360 570556419 671646998 902009587</internalNodes>
          <leafValues>
            -3.3752802014350891e-001 2.8279867768287659e-001</leafValues></_>
        <_>
          <internalNodes>
            0 -1 70 1204261504 1721270280 872419360 1963729025
            1073741979 2046919336 1208909834 -637219968</internalNodes>
          <leafValues>
            -4.6581870317459106e-001 1.9781674444675446e-001</leafValues></_>
        <_>
          <internalNodes>
            0 -1 69 -65743 -268500994 -16777481 -301990145 -65577
            1425932252 -65537 1476395002</internalNodes>
          <leafValues>
            -1.6177695989608765e-001 5.8686178922653198e-001</leafValues></_>
        <_>
          <internalNodes>
            0 -1 124 -1561975801 -325434099 -754331392 -536456117
            -2130128787 1099088010 -1870479310 -358025036</internalNodes>
          <leafValues>
            -5.7255005836486816e-001 1.7796608805656433e-001</leafValues></_>
        <_>
          <internalNodes>
            0 -1 188 -804989846 186617964 1342414412 865899202 332930768
            -2117364983 1642926179 153560258</internalNodes>
          <leafValues>
            -3.3536276221275330e-001 2.9083505272865295e-001</leafValues></_>
        <_>
          <internalNodes>
            0 -1 176 -1065110781 1358966786 65537 277020672 -1827952128
            -1727397376 -1304393686 -525735295</internalNodes>
          <leafValues>
            -5.8706408739089966e-001 1.7362117767333984e-001</leafValues></_>
        <_>
          <internalNodes>
            0 -1 6 17479008 872546363 285544722 1292507992 -1205092226
            1317175430 -645398377 563019909</internalNodes>
          <leafValues>
            -4.5415541529655457e-001 2.1395386755466461e-001</leafValues></_>
        <_>
          <internalNodes>
            0 -1 159 -1445263055 -1391902464 -1055813495 -601323353
            -2130662653 1780564633 1110213172 -4148828</internalNodes>
          <leafValues>
            -5.9224241971969604e-001 1.6159272193908691e-001</leafValues></_></weakClassifiers></_>
    <!-- stage 14 -->
    <_>
      <maxWeakCount>21</maxWeakCount>
      <stageThreshold>-1.5780196189880371e+000</stageThreshold>
      <weakClassifiers>
        <_>
          <internalNodes>
            0 -1 52 -447737714 1550909530 196609 -1927864317 139067523
            -1878261759 1216937994 1468366979</internalNodes>
          <leafValues>
            -6.2984216213226318e-001 -4.9817740917205811e-002</leafValues></_>
        <_>
          <internalNodes>
            0 -1 135 1091428687 -745959369 -2129575741 -784498477
            -1995930951 -1324875765 -376219477 2023870595</internalNodes>
          <leafValues>
            -4.3074393272399902e-001 2.0610131323337555e-001</leafValues></_>
        <_>
          <internalNodes>
            0 -1 133 1923895556 1142423808 805404801 -208926670
            -1073723801 1208090627 -628415903 -1896027396</internalNodes>
          <leafValues>
            -7.0661240816116333e-001 1.1629371345043182e-001</leafValues></_>
        <_>
          <internalNodes>
            0 -1 83 -1877949976 -1848262311 -1052679984 1325613137
            -1870118720 411041808 -1073586065 1610940713</internalNodes>
          <leafValues>
            -3.7637129426002502e-001 2.6841562986373901e-001</leafValues></_>
        <_>
          <internalNodes>
            0 -1 18 1241515658 1225198450 169681670 702626367 -868237877
            2064703259 1567661295 83574299</internalNodes>
          <leafValues>
            -2.7636268734931946e-001 3.4216734766960144e-001</leafValues></_>
        <_>
          <internalNodes>
            0 -1 216 -628059991 525570640 -337077728 -113676676
            1316791897 739180147 1080926074 37175402</internalNodes>
          <leafValues>
            -2.7214661240577698e-001 3.1716305017471313e-001</leafValues></_>
        <_>
          <internalNodes>
            0 -1 58 -209207030 1682374976 -1593769718 -652504947
            134742106 1627816337 344459860 -712801561</internalNodes>
          <leafValues>
            -3.9402729272842407e-001 2.1172471344470978e-001</leafValues></_>
        <_>
          <internalNodes>
            0 -1 80 -1807744995 1079666948 18104514 -120287104
            -1601535669 2144993442 -2137798094 1153749488</internalNodes>
          <leafValues>
            -6.1374783515930176e-001 1.2304348498582840e-001</leafValues></_>
        <_>
          <internalNodes>
            0 -1 2 889311452 403515547 605905548 -1944510159 185373832
            1865582725 305368363 2147332890</internalNodes>
          <leafValues>
            -2.8934776782989502e-001 2.8731125593185425e-001</leafValues></_>
        <_>
          <internalNodes>
            0 -1 223 667503374 -1289478056 -2113279743 13861517
            1107673680 1575046 1126431030 -2010676661</internalNodes>
          <leafValues>
            -3.4229600429534912e-001 2.5394257903099060e-001</leafValues></_>
        <_>
          <internalNodes>
            0 -1 93 1431228711 1073807360 1073807364 293601282
            -2147340158 -2138947453 537266338 798752904</internalNodes>
          <leafValues>
            -3.8362511992454529e-001 2.3105460405349731e-001</leafValues></_>
        <_>
          <internalNodes>
            0 -1 67 1089531536 1538228615 -532826212 -596555818
            -977165865 1367090076 302705422 1951074551</internalNodes>
          <leafValues>
            -3.0210798978805542e-001 2.7941387891769409e-001</leafValues></_>
        <_>
          <internalNodes>
            0 -1 165 -1415430619 -1862070006 -50265082 672219396
            -527581151 424247559 1219017248 -1173307296</internalNodes>
          <leafValues>
            -5.7629561424255371e-001 1.5443493425846100e-001</leafValues></_>
        <_>
          <internalNodes>
            0 -1 172 115730 -1878998571 -1048519808 830767128 1768799209
            731996301 1225543062 48740881</internalNodes>
          <leafValues>
            -2.9492449760437012e-001 3.0034193396568298e-001</leafValues></_>
        <_>
          <internalNodes>
            0 -1 136 -1068495275 620761645 -1039136484 -2095890367
            268488744 381698227 -1065328215 -1238883784</internalNodes>
          <leafValues>
            -5.6035614013671875e-001 1.3590012490749359e-001</leafValues></_>
        <_>
          <internalNodes>
            0 -1 209 -205421277 -843695613 1992013359 -1719183411
            528396593 1605756528 -973707485 2137902234</internalNodes>
          <leafValues>
            -2.5583025813102722e-001 3.2870912551879883e-001</leafValues></_>
        <_>
          <internalNodes>
            0 -1 112 -507419657 -535444511 144 1855762832 1694498850
            -1593734993 -922080637 -724770072</internalNodes>
          <leafValues>
            -5.6902647018432617e-001 1.5449668467044830e-001</leafValues></_>
        <_>
          <internalNodes>
            0 -1 85 2146107319 -2097158 -131120 -11 -1375944769
            1476395007 -304119811 1090516279</internalNodes>
          <leafValues>
            -2.0940528810024261e-001 4.5536234974861145e-001</leafValues></_>
        <_>
          <internalNodes>
            0 -1 108 1090654516 -2129657464 16843016 -1711210342 35
            -1576501110 196613 428343458</internalNodes>
          <leafValues>
            -4.6048074960708618e-001 2.0438949763774872e-001</leafValues></_>
        <_>
          <internalNodes>
            0 -1 4 1263502219 493490188 1090519174 130617413 2063827081
            1237319692 134795305 -1375155551</internalNodes>
          <leafValues>
            -3.7528398633003235e-001 2.2899480164051056e-001</leafValues></_>
        <_>
          <internalNodes>
            0 -1 182 268472430 1762726160 20616 1342177561 -2147442608
            -1339488256 134316768 -1810694013</internalNodes>
          <leafValues>
            -6.8713796138763428e-001 1.1778759211301804e-001</leafValues></_></weakClassifiers></_>
    <!-- stage 15 -->
    <_>
      <maxWeakCount>19</maxWeakCount>
      <stageThreshold>-1.4790357351303101e+000</stageThreshold>
      <weakClassifiers>
        <_>
          <internalNodes>
            0 -1 48 -777013590 -4456661 -881971292 -207506917 -631259741
            863665166 -277403809 -8409893</internalNodes>
          <leafValues>
            -4.1488325595855713e-001 5.9375000000000000e-001</leafValues></_>
        <_>
          <internalNodes>
            0 -1 9 536903824 289472785 268448055 1201013761 -931082062
            -670359541 -1610565255 -1356726267</internalNodes>
          <leafValues>
            -3.9402773976325989e-001 2.7072277665138245e-001</leafValues></_>
        <_>
          <internalNodes>
            0 -1 208 -2146905462 -145681916 102420 -936308718 42055755
            27295744 -517889566 -2143079677</internalNodes>
          <leafValues>
            -3.7666261196136475e-001 2.3873338103294373e-001</leafValues></_>
        <_>
          <internalNodes>
            0 -1 47 1966727352 -1807640564 1797489772 1510748757
            -1405145587 1090675309 -1202711862 388700207</internalNodes>
          <leafValues>
            -2.8733983635902405e-001 3.2125610113143921e-001</leafValues></_>
        <_>
          <internalNodes>
            0 -1 160 1090572336 -1877999360 65570 318832648 16941584
            -2147352440 302022784 1418231976</internalNodes>
          <leafValues>
            -7.2367238998413086e-001 1.5075035393238068e-001</leafValues></_>
        <_>
          <internalNodes>
            0 -1 54 1238335624 1129185302 200731 -1660219261 -268402548
            553648130 -389414781 685711507</internalNodes>
          <leafValues>
            -3.2726943492889404e-001 2.8801253437995911e-001</leafValues></_>
        <_>
          <internalNodes>
            0 -1 61 -904537980 2146932334 1058237286 593583443
            -297886486 1028666214 569712425 291188159</internalNodes>
          <leafValues>
            -2.8464388847351074e-001 3.2212167978286743e-001</leafValues></_>
        <_>
          <internalNodes>
            0 -1 91 -1196237 -268566529 -16777220 -16777217 -2 -33554433
            -16777236 31227630</internalNodes>
          <leafValues>
            -2.5499996542930603e-001 3.5758531093597412e-001</leafValues></_>
        <_>
          <internalNodes>
            0 -1 152 -473616623 23220225 319881219 856752409 -1156848860
            -1870462967 -2101239245 -100005887</internalNodes>
          <leafValues>
            -3.9037865400314331e-001 2.3337826132774353e-001</leafValues></_>
        <_>
          <internalNodes>
            0 -1 187 1173064770 -1290518463 -2130572260 2031293994
            1239482439 573098774 1177323667 368960511</internalNodes>
          <leafValues>
            -3.5508075356483459e-001 2.8714764118194580e-001</leafValues></_>
        <_>
          <internalNodes>
            0 -1 29 2014189708 -130467441 -1812316546 1707739120
            -558291121 620098559 -1711415341 -11721074</internalNodes>
          <leafValues>
            -2.0301790535449982e-001 4.4897884130477905e-001</leafValues></_>
        <_>
          <internalNodes>
            0 -1 127 1456481100 290701312 -1333788391 924078403
            -2121150287 1610678529 541589674 2115092745</internalNodes>
          <leafValues>
            -3.5314559936523438e-001 2.6993602514266968e-001</leafValues></_>
        <_>
          <internalNodes>
            0 -1 221 280607348 -921681856 815829498 305581104 948455490
            86573184 134498942 21119092</internalNodes>
          <leafValues>
            -5.3250092267990112e-001 1.8426533043384552e-001</leafValues></_>
        <_>
          <internalNodes>
            0 -1 95 -1056948025 1293484305 419496244 -593756079
            285278219 134217728 193 818415752</internalNodes>
          <leafValues>
            -5.5751979351043701e-001 1.4461298286914825e-001</leafValues></_>
        <_>
          <internalNodes>
            0 -1 79 -442985216 1078076417 1410671112 320537171
            -1849496445 1375832584 289507714 2730497</internalNodes>
          <leafValues>
            -4.1412380337715149e-001 2.2224608063697815e-001</leafValues></_>
        <_>
          <internalNodes>
            0 -1 207 170502730 268451842 16384 369198338 -267796480
            -1417568112 -922193248 -263116109</internalNodes>
          <leafValues>
            -4.5578747987747192e-001 2.1602620184421539e-001</leafValues></_>
        <_>
          <internalNodes>
            0 -1 191 1111507376 -586628965 223426 322588700 1487049605
            151750400 664265173 81767607</internalNodes>
          <leafValues>
            -3.4190371632575989e-001 2.9511281847953796e-001</leafValues></_>
        <_>
          <internalNodes>
            0 -1 75 -1214196324 480659873 393128769 -910196985
            -1535119487 -591397024 -394992567 -855933865</internalNodes>
          <leafValues>
            -2.2799798846244812e-001 4.4035351276397705e-001</leafValues></_>
        <_>
          <internalNodes>
            0 -1 123 -1334795758 -1051361280 -1073741824 -1048281085
            1881244558 -1610612736 688265 1225360132</internalNodes>
          <leafValues>
            -4.8091581463813782e-001 2.1720902621746063e-001</leafValues></_></weakClassifiers></_>
    <!-- stage 16 -->
    <_>
      <maxWeakCount>18</maxWeakCount>
      <stageThreshold>-1.4918208122253418e+000</stageThreshold>
      <weakClassifiers>
        <_>
          <internalNodes>
            0 -1 53 -16145658 -538485962 342893674 -6714705 -1210979702
            1914255131 1055811739 -212137073</internalNodes>
          <leafValues>
            -4.4205585122108459e-001 6.8031191825866699e-001</leafValues></_>
        <_>
          <internalNodes>
            0 -1 11 1295602010 901656292 -1669552680 1496519192
            2109225770 307962940 515448350 1988836283</internalNodes>
          <leafValues>
            -3.1043618917465210e-001 3.8605955243110657e-001</leafValues></_>
        <_>
          <internalNodes>
            0 -1 65 -2130520335 527982097 2116006517 -676632015
            -287933920 1463154173 -143283585 -301740265</internalNodes>
          <leafValues>
            -2.4086382985115051e-001 4.5701646804809570e-001</leafValues></_>
        <_>
          <internalNodes>
            0 -1 211 1344255428 1202919574 -566575249 -1894539645
            -1828802593 -167948553 -586991857 1073714350</internalNodes>
          <leafValues>
            -1.7998439073562622e-001 5.1755446195602417e-001</leafValues></_>
        <_>
          <internalNodes>
            0 -1 194 1175227835 1993268413 1031773877 426131108
            -1369004822 172031996 -137976157 440323656</internalNodes>
          <leafValues>
            -2.8100478649139404e-001 3.7476122379302979e-001</leafValues></_>
        <_>
          <internalNodes>
            0 -1 5 -592538144 699379623 -1149239367 -2085966021
            1878500804 1583511110 -312219067 -929399735</internalNodes>
          <leafValues>
            -3.2144722342491150e-001 3.5298135876655579e-001</leafValues></_>
        <_>
          <internalNodes>
            0 -1 217 70158447 461060757 -196961 361504382 1315200048
            1239309551 2081770779 1182641302</internalNodes>
          <leafValues>
            -2.8475302457809448e-001 3.8634034991264343e-001</leafValues></_>
        <_>
          <internalNodes>
            0 -1 145 -201177556 285212672 65538 1359085825 229379 2
            50364624 1357545480</internalNodes>
          <leafValues>
            -5.6629323959350586e-001 2.0433114469051361e-001</leafValues></_>
        <_>
          <internalNodes>
            0 -1 103 1347486041 286535696 1073762761 -213892991 12685473
            -2113683454 -528467768 -1140817895</internalNodes>
          <leafValues>
            -3.6601611971855164e-001 3.4917333722114563e-001</leafValues></_>
        <_>
          <internalNodes>
            0 -1 77 1955117987 -442679330 1095017460 453459620
            -809099788 -312535045 -1351534485 301929070</internalNodes>
          <leafValues>
            -2.6463747024536133e-001 4.5252618193626404e-001</leafValues></_>
        <_>
          <internalNodes>
            0 -1 205 -1694202239 276479893 637186734 -1692840171
            -2133583705 628981449 -1703776801 371689431</internalNodes>
          <leafValues>
            -2.8866943717002869e-001 4.3067818880081177e-001</leafValues></_>
        <_>
          <internalNodes>
            0 -1 138 -1602220026 -1006337791 1367621632 -1876901629
            -1071021568 -1475739135 8405123 -1428549016</internalNodes>
          <leafValues>
            -5.0875163078308105e-001 2.1330426633358002e-001</leafValues></_>
        <_>
          <internalNodes>
            0 -1 31 1394747980 268435842 82187 858603520 -1336344437
            -492830576 159424548 151522162</internalNodes>
          <leafValues>
            -4.1792568564414978e-001 2.6998773217201233e-001</leafValues></_>
        <_>
          <internalNodes>
            0 -1 28 -226342125 -32803698 242185807 -2059840143
            -151266317 1726316284 1404239327 -540310165</internalNodes>
          <leafValues>
            -2.0821589231491089e-001 6.0018324851989746e-001</leafValues></_>
        <_>
          <internalNodes>
            0 -1 192 159764694 9961861 -2129656531 1806090553
            -1946122946 -1950220288 707297575 1432403108</internalNodes>
          <leafValues>
            -3.3839979767799377e-001 3.5341471433639526e-001</leafValues></_>
        <_>
          <internalNodes>
            0 -1 3 656731280 199712363 138307912 -1578213881 -1537871646
            -1076076771 -881329397 -1288754174</internalNodes>
          <leafValues>
            -3.2671642303466797e-001 3.7000319361686707e-001</leafValues></_>
        <_>
          <internalNodes>
            0 -1 88 -801074903 -1039138800 268439688 1074807042
            -1862270966 -796882942 -2139041792 -764901248</internalNodes>
          <leafValues>
            -6.5747803449630737e-001 1.6243854165077209e-001</leafValues></_>
        <_>
          <internalNodes>
            0 -1 203 -1526419671 -2130573440 23091220 68190618
            -1543438259 -1459388262 26028291 23206021</internalNodes>
          <leafValues>
            -4.7226133942604065e-001 2.3870073258876801e-001</leafValues></_></weakClassifiers></_>
    <!-- stage 17 -->
    <_>
      <maxWeakCount>17</maxWeakCount>
      <stageThreshold>-1.7309811115264893e+000</stageThreshold>
      <weakClassifiers>
        <_>
          <internalNodes>
            0 -1 53 -687267066 -538486239 275784803 -140932593
            -1210979829 1914254107 -1628551013 -1143274613</internalNodes>
          <leafValues>
            -4.4891041517257690e-001 9.6279066801071167e-001</leafValues></_>
        <_>
          <internalNodes>
            0 -1 62 -10363688 -1682865405 -654760072 -1624409439
            1686107992 1610149335 1565709179 2115466687</internalNodes>
          <leafValues>
            -2.8941991925239563e-001 5.6080180406570435e-001</leafValues></_>
        <_>
          <internalNodes>
            0 -1 164 92401786 1393049856 4 286785793 -2147450752 262144
            65546 -1837006837</internalNodes>
          <leafValues>
            -2.7542427182197571e-001 4.8699480295181274e-001</leafValues></_>
        <_>
          <internalNodes>
            0 -1 219 -698773536 -626725705 -882442262 -1523345555
            2114381050 -2059051184 -1242768696 1091258095</internalNodes>
          <leafValues>
            -2.8687000274658203e-001 5.2352470159530640e-001</leafValues></_>
        <_>
          <internalNodes>
            0 -1 51 2020932379 1441237249 -943816606 -1612235700
            238607880 -582363840 -1542013171 1471138282</internalNodes>
          <leafValues>
            -2.1971695125102997e-001 6.0053324699401855e-001</leafValues></_>
        <_>
          <internalNodes>
            0 -1 183 1533542598 1843047549 -2031181335 445714241
            189844233 -1607355687 -882631509 -1915010649</internalNodes>
          <leafValues>
            -3.0059233307838440e-001 5.0487792491912842e-001</leafValues></_>
        <_>
          <internalNodes>
            0 -1 0 272696512 164499460 22536 -2104360878 -1576400757
            1212416 1397785288 41505959</internalNodes>
          <leafValues>
            -5.1756006479263306e-001 3.1204193830490112e-001</leafValues></_>
        <_>
          <internalNodes>
            0 -1 11 1160993234 96251885 511536632 -647953864 2098312058
            391867452 507068189 -1230011400</internalNodes>
          <leafValues>
            -3.3389642834663391e-001 4.5803815126419067e-001</leafValues></_>
        <_>
          <internalNodes>
            0 -1 84 -844446904 1550767722 450653222 482712836
            -1252963748 -865640491 884507804 608647109</internalNodes>
          <leafValues>
            -3.6647579073905945e-001 4.2837929725646973e-001</leafValues></_>
        <_>
          <internalNodes>
            0 -1 81 1368252765 100937187 -2908636 2141404834 803642668
            -424363906 -957996006 1390327307</internalNodes>
          <leafValues>
            -2.8073272109031677e-001 5.6537270545959473e-001</leafValues></_>
        <_>
          <internalNodes>
            0 -1 40 557946884 604307504 151061704 1560810754 1879101948
            -1761083390 268443654 -516912998</internalNodes>
          <leafValues>
            -4.3700763583183289e-001 3.8656207919120789e-001</leafValues></_>
        <_>
          <internalNodes>
            0 -1 1 -682889398 1369964095 536118103 1347104057
            -1537582032 -19005617 -1118286070 1003137219</internalNodes>
          <leafValues>
            -2.5714221596717834e-001 6.3965767621994019e-001</leafValues></_>
        <_>
          <internalNodes>
            0 -1 148 506809431 1605299686 -1367366791 1361585676
            -822687340 360074815 1280366249 476798659</internalNodes>
          <leafValues>
            -2.8143125772476196e-001 5.6405830383300781e-001</leafValues></_>
        <_>
          <internalNodes>
            0 -1 16 -1225067200 -1806713223 897550639 979951435
            -438442946 -698000394 -235595235 -189968968</internalNodes>
          <leafValues>
            -3.3389151096343994e-001 4.9148473143577576e-001</leafValues></_>
        <_>
          <internalNodes>
            0 -1 212 1108056380 2096328300 -1092682395 -717652364
            -572222381 1429625341 -856416708 -1815619997</internalNodes>
          <leafValues>
            -2.3053596913814545e-001 6.5759712457656860e-001</leafValues></_>
        <_>
          <internalNodes>
            0 -1 68 1132478726 16847104 17039428 278532422 -1073708928
            419430401 -2146958970 688474112</internalNodes>
          <leafValues>
            -5.5917042493820190e-001 2.8847101330757141e-001</leafValues></_>
        <_>
          <internalNodes>
            0 -1 77 -1803023467 1360072714 32791 1493499909 -2147483135
            1090519044 36768459 808128608</internalNodes>
          <leafValues>
            -4.0204897522926331e-001 3.9504906535148621e-001</leafValues></_></weakClassifiers></_>
    <!-- stage 18 -->
    <_>
      <maxWeakCount>10</maxWeakCount>
      <stageThreshold>-1.5473155975341797e+000</stageThreshold>
      <weakClassifiers>
        <_>
          <internalNodes>
            0 -1 17 1370592538 1512251921 948699777 -782694884 340797761
            -994814427 6615083 2075754655</internalNodes>
          <leafValues>
            -5.7535386085510254e-001 6.6144198179244995e-001</leafValues></_>
        <_>
          <internalNodes>
            0 -1 206 -2136702825 -2028914104 1248617488 -1052758432
            -1509898042 -950333456 -1811663701 1269507181</internalNodes>
          <leafValues>
            -3.5189035534858704e-001 7.1853113174438477e-001</leafValues></_>
        <_>
          <internalNodes>
            0 -1 73 -584744950 -82900252 249853485 -667678104
            -1017890617 -1005490190 -1892364641 -561302161</internalNodes>
          <leafValues>
            -2.3576183617115021e-001 9.3064886331558228e-001</leafValues></_>
        <_>
          <internalNodes>
            0 -1 213 479437012 1940520057 953292261 -1811788203
            -796981788 -1757841575 104863016 25757952</internalNodes>
          <leafValues>
            -4.2716041207313538e-001 4.7545152902603149e-001</leafValues></_>
        <_>
          <internalNodes>
            0 -1 32 -781695922 1287198438 1297022819 1108643629
            888380243 511147860 255749791 -1635811829</internalNodes>
          <leafValues>
            -2.8769087791442871e-001 7.6865047216415405e-001</leafValues></_>
        <_>
          <internalNodes>
            0 -1 177 301999137 -1056899072 1610678273 -1811939327
            142606401 -2145910782 -2105309056 -1308098400</internalNodes>
          <leafValues>
            -6.3902598619461060e-001 3.5495784878730774e-001</leafValues></_>
        <_>
          <internalNodes>
            0 -1 21 -1037000382 1415605817 148269410 592799908 266956388
            -2140922530 18006218 1002643097</internalNodes>
          <leafValues>
            -4.1148105263710022e-001 6.5167027711868286e-001</leafValues></_>
        <_>
          <internalNodes>
            0 -1 199 14992548 -1256572847 1723760397 545278212
            1417323635 -1764427275 -2007714324 1643751855</internalNodes>
          <leafValues>
            -3.5678520798683167e-001 6.6234201192855835e-001</leafValues></_>
        <_>
          <internalNodes>
            0 -1 157 -1073194880 0 8388608 -1862189055 1073774592 0 8
            839704577</internalNodes>
          <leafValues>
            -6.5760701894760132e-001 3.7679630517959595e-001</leafValues></_>
        <_>
          <internalNodes>
            0 -1 189 -2147446640 -2112880640 16773 1117782274 32
            -2113339392 35692938 -2133098461</internalNodes>
          <leafValues>
            -5.2028185129165649e-001 4.8454073071479797e-001</leafValues></_></weakClassifiers></_>
    <!-- stage 19 -->
    <_>
      <maxWeakCount>8</maxWeakCount>
      <stageThreshold>-1.4566408395767212e+000</stageThreshold>
      <weakClassifiers>
        <_>
          <internalNodes>
            0 -1 39 -754917373 1342177281 524296 16850961 1073782794 64
            2561 1461912075</internalNodes>
          <leafValues>
            -6.3043481111526489e-001 1.</leafValues></_>
        <_>
          <internalNodes>
            0 -1 74 1493200896 438962784 135832065 279590 -1771989496
            -1496032162 1148553112 -1843785201</internalNodes>
          <leafValues>
            -3.5526889562606812e-001 9.1461956501007080e-001</leafValues></_>
        <_>
          <internalNodes>
            0 -1 204 -725046911 2040528289 1753097057 338061049
            -1121150552 -1859330056 -715203124 1594890121</internalNodes>
          <leafValues>
            -3.7118285894393921e-001 7.4485683441162109e-001</leafValues></_>
        <_>
          <internalNodes>
            0 -1 58 285347848 -2130640895 268435456 1343225856 72
            142606336 -2147352573 -1442643773</internalNodes>
          <leafValues>
            -6.1790907382965088e-001 5.5032718181610107e-001</leafValues></_>
        <_>
          <internalNodes>
            0 -1 17 1074791683 1073807360 0 -805240316 2049 1073741824
            10 1111064716</internalNodes>
          <leafValues>
            -4.9582019448280334e-001 6.7475378513336182e-001</leafValues></_>
        <_>
          <internalNodes>
            0 -1 218 -1289732372 -2023207840 2020920119 405344061
            -1401678616 20873015 -1789632242 691049704</internalNodes>
          <leafValues>
            -4.4100829958915710e-001 7.5409692525863647e-001</leafValues></_>
        <_>
          <internalNodes>
            0 -1 214 252788869 212434460 520027632 221801928 3192372
            -1781826185 23379274 -1946053542</internalNodes>
          <leafValues>
            -4.4906219840049744e-001 7.6700019836425781e-001</leafValues></_>
        <_>
          <internalNodes>
            0 -1 43 -59721050 871051226 -1696653554 1787121535 318381641
            2004318197 -717986394 -1454675177</internalNodes>
          <leafValues>
            -3.8023048639297485e-001 8.7652665376663208e-001</leafValues></_></weakClassifiers></_></stages>
  <features>
    <_>
      <rect>
        0 0 1 1</rect></_>
    <_>
      <rect>
        0 0 1 2</rect></_>
    <_>
      <rect>
        0 0 2 1</rect></_>
    <_>
      <rect>
        0 0 2 2</rect></_>
    <_>
      <rect>
        0 0 3 3</rect></_>
    <_>
      <rect>
        0 0 4 1</rect></_>
    <_>
      <rect>
        0 0 4 2</rect></_>
    <_>
      <rect>
        0 0 4 4</rect></_>
    <_>
      <rect>
        0 0 5 3</rect></_>
    <_>
      <rect>
        0 0 6 1</rect></_>
    <_>
      <rect>
        0 1 1 1</rect></_>
    <_>
      <rect>
        0 1 1 2</rect></_>
    <_>
      <rect>
        0 1 1 4</rect></_>
    <_>
      <rect>
        0 1 2 4</rect></_>
    <_>
      <rect>
        0 1 4 4</rect></_>
    <_>
      <rect>
        0 1 6 1</rect></_>
    <_>
      <rect>
        0 2 1 1</rect></_>
    <_>
      <rect>
        0 2 1 2</rect></_>
    <_>
      <rect>
        0 2 1 3</rect></_>
    <_>
      <rect>
        0 2 2 2</rect></_>
    <_>
      <rect>
        0 2 5 3</rect></_>
    <_>
      <rect>
        0 3 1 1</rect></_>
    <_>
      <rect>
        0 3 1 4</rect></_>
    <_>
      <rect>
        0 3 2 4</rect></_>
    <_>
      <rect>
        0 3 3 4</rect></_>
    <_>
      <rect>
        0 4 1 1</rect></_>
    <_>
      <rect>
        0 4 1 2</rect></_>
    <_>
      <rect>
        0 4 1 3</rect></_>
    <_>
      <rect>
        0 5 1 1</rect></_>
    <_>
      <rect>
        0 5 1 2</rect></_>
    <_>
      <rect>
        0 5 3 2</rect></_>
    <_>
      <rect>
        0 6 1 1</rect></_>
    <_>
      <rect>
        0 7 1 2</rect></_>
    <_>
      <rect>
        0 7 3 1</rect></_>
    <_>
      <rect>
        0 8 2 2</rect></_>
    <_>
      <rect>
        0 9 2 2</rect></_>
    <_>
      <rect>
        0 9 5 2</rect></_>
    <_>
      <rect>
        0 10 5 1</rect></_>
    <_>
      <rect>
        0 12 2 1</rect></_>
    <_>
      <rect>
        1 0 1 2</rect></_>
    <_>
      <rect>
        1 0 2 1</rect></_>
    <_>
      <rect>
        1 0 4 3</rect></_>
    <_>
      <rect>
        1 0 5 2</rect></_>
    <_>
      <rect>
        1 1 1 1</rect></_>
    <_>
      <rect>
        1 1 1 2</rect></_>
    <_>
      <rect>
        1 1 2 3</rect></_>
    <_>
      <rect>
        1 1 8 1</rect></_>
    <_>
      <rect>
        1 2 1 1</rect></_>
    <_>
      <rect>
        1 2 1 3</rect></_>
    <_>
      <rect>
        1 2 3 4</rect></_>
    <_>
      <rect>
        1 2 5 4</rect></_>
    <_>
      <rect>
        1 3 1 1</rect></_>
    <_>
      <rect>
        1 3 4 4</rect></_>
    <_>
      <rect>
        1 6 1 1</rect></_>
    <_>
      <rect>
        1 6 1 2</rect></_>
    <_>
      <rect>
        1 6 3 1</rect></_>
    <_>
      <rect>
        1 7 2 2</rect></_>
    <_>
      <rect>
        1 9 1 2</rect></_>
    <_>
      <rect>
        1 11 1 1</rect></_>
    <_>
      <rect>
        1 12 1 1</rect></_>
    <_>
      <rect>
        1 12 4 1</rect></_>
    <_>
      <rect>
        2 0 1 1</rect></_>
    <_>
      <rect>
        2 0 2 1</rect></_>
    <_>
      <rect>
        2 0 3 2</rect></_>
    <_>
      <rect>
        2 0 4 2</rect></_>
    <_>
      <rect>
        2 1 2 1</rect></_>
    <_>
      <rect>
        2 1 2 2</rect></_>
    <_>
      <rect>
        2 2 1 1</rect></_>
    <_>
      <rect>
        2 3 1 1</rect></_>
    <_>
      <rect>
        2 3 7 4</rect></_>
    <_>
      <rect>
        2 6 1 2</rect></_>
    <_>
      <rect>
        2 10 1 1</rect></_>
    <_>
      <rect>
        2 12 1 1</rect></_>
    <_>
      <rect>
        3 0 1 1</rect></_>
    <_>
      <rect>
        3 0 2 1</rect></_>
    <_>
      <rect>
        3 0 3 1</rect></_>
    <_>
      <rect>
        3 0 4 2</rect></_>
    <_>
      <rect>
        3 1 1 1</rect></_>
    <_>
      <rect>
        3 1 5 1</rect></_>
    <_>
      <rect>
        3 2 1 1</rect></_>
    <_>
      <rect>
        3 11 1 1</rect></_>
    <_>
      <rect>
        4 0 1 1</rect></_>
    <_>
      <rect>
        4 0 3 1</rect></_>
    <_>
      <rect>
        4 0 5 1</rect></_>
    <_>
      <rect>
        4 1 1 1</rect></_>
    <_>
      <rect>
        4 1 3 2</rect></_>
    <_>
      <rect>
        4 1 5 1</rect></_>
    <_>
      <rect>
        4 4 1 1</rect></_>
    <_>
      <rect>
        4 12 1 1</rect></_>
    <_>
      <rect>
        5 0 1 1</rect></_>
    <_>
      <rect>
        5 0 4 1</rect></_>
    <_>
      <rect>
        5 0 4 5</rect></_>
    <_>
      <rect>
        5 1 3 2</rect></_>
    <_>
      <rect>
        5 3 4 4</rect></_>
    <_>
      <rect>
        5 7 1 1</rect></_>
    <_>
      <rect>
        5 9 2 1</rect></_>
    <_>
      <rect>
        6 0 1 1</rect></_>
    <_>
      <rect>
        6 0 6 2</rect></_>
    <_>
      <rect>
        6 1 6 1</rect></_>
    <_>
      <rect>
        6 6 1 1</rect></_>
    <_>
      <rect>
        6 9 1 1</rect></_>
    <_>
      <rect>
        6 11 1 1</rect></_>
    <_>
      <rect>
        6 12 1 1</rect></_>
    <_>
      <rect>
        7 0 4 1</rect></_>
    <_>
      <rect>
        7 0 5 3</rect></_>
    <_>
      <rect>
        7 0 6 2</rect></_>
    <_>
      <rect>
        7 1 3 1</rect></_>
    <_>
      <rect>
        7 1 4 2</rect></_>
    <_>
      <rect>
        7 3 5 3</rect></_>
    <_>
      <rect>
        7 3 6 4</rect></_>
    <_>
      <rect>
        7 5 5 3</rect></_>
    <_>
      <rect>
        7 8 1 1</rect></_>
    <_>
      <rect>
        7 10 1 1</rect></_>
    <_>
      <rect>
        7 11 1 1</rect></_>
    <_>
      <rect>
        7 12 1 1</rect></_>
    <_>
      <rect>
        8 0 4 1</rect></_>
    <_>
      <rect>
        8 0 5 3</rect></_>
    <_>
      <rect>
        8 1 3 1</rect></_>
    <_>
      <rect>
        8 2 1 1</rect></_>
    <_>
      <rect>
        8 6 1 1</rect></_>
    <_>
      <rect>
        8 7 1 1</rect></_>
    <_>
      <rect>
        8 9 1 1</rect></_>
    <_>
      <rect>
        8 10 1 1</rect></_>
    <_>
      <rect>
        9 2 1 1</rect></_>
    <_>
      <rect>
        9 5 1 1</rect></_>
    <_>
      <rect>
        9 9 1 1</rect></_>
    <_>
      <rect>
        9 12 1 1</rect></_>
    <_>
      <rect>
        10 0 3 1</rect></_>
    <_>
      <rect>
        10 0 5 2</rect></_>
    <_>
      <rect>
        10 0 5 5</rect></_>
    <_>
      <rect>
        10 1 2 1</rect></_>
    <_>
      <rect>
        10 8 1 1</rect></_>
    <_>
      <rect>
        10 9 1 1</rect></_>
    <_>
      <rect>
        10 9 1 2</rect></_>
    <_>
      <rect>
        11 0 4 2</rect></_>
    <_>
      <rect>
        11 0 4 3</rect></_>
    <_>
      <rect>
        11 1 2 1</rect></_>
    <_>
      <rect>
        11 2 2 2</rect></_>
    <_>
      <rect>
        11 4 1 1</rect></_>
    <_>
      <rect>
        11 7 1 1</rect></_>
    <_>
      <rect>
        12 0 3 2</rect></_>
    <_>
      <rect>
        12 0 4 3</rect></_>
    <_>
      <rect>
        12 0 4 4</rect></_>
    <_>
      <rect>
        12 4 2 3</rect></_>
    <_>
      <rect>
        12 6 1 1</rect></_>
    <_>
      <rect>
        12 6 2 3</rect></_>
    <_>
      <rect>
        12 8 1 1</rect></_>
    <_>
      <rect>
        12 11 1 1</rect></_>
    <_>
      <rect>
        13 0 3 1</rect></_>
    <_>
      <rect>
        13 1 1 1</rect></_>
    <_>
      <rect>
        13 2 1 1</rect></_>
    <_>
      <rect>
        13 2 4 3</rect></_>
    <_>
      <rect>
        13 4 1 1</rect></_>
    <_>
      <rect>
        13 5 2 3</rect></_>
    <_>
      <rect>
        13 7 1 1</rect></_>
    <_>
      <rect>
        13 9 4 2</rect></_>
    <_>
      <rect>
        13 11 1 1</rect></_>
    <_>
      <rect>
        14 2 1 1</rect></_>
    <_>
      <rect>
        14 3 1 1</rect></_>
    <_>
      <rect>
        14 6 1 1</rect></_>
    <_>
      <rect>
        14 6 2 3</rect></_>
    <_>
      <rect>
        14 8 1 2</rect></_>
    <_>
      <rect>
        14 12 1 1</rect></_>
    <_>
      <rect>
        15 2 1 1</rect></_>
    <_>
      <rect>
        15 2 2 2</rect></_>
    <_>
      <rect>
        15 4 1 1</rect></_>
    <_>
      <rect>
        15 5 1 1</rect></_>
    <_>
      <rect>
        15 7 1 1</rect></_>
    <_>
      <rect>
        15 12 1 1</rect></_>
    <_>
      <rect>
        16 0 3 4</rect></_>
    <_>
      <rect>
        16 0 3 5</rect></_>
    <_>
      <rect>
        16 1 1 2</rect></_>
    <_>
      <rect>
        16 1 2 1</rect></_>
    <_>
      <rect>
        16 3 1 1</rect></_>
    <_>
      <rect>
        16 3 3 3</rect></_>
    <_>
      <rect>
        16 5 1 2</rect></_>
    <_>
      <rect>
        16 5 3 3</rect></_>
    <_>
      <rect>
        16 6 1 1</rect></_>
    <_>
      <rect>
        16 8 3 2</rect></_>
    <_>
      <rect>
        16 9 1 1</rect></_>
    <_>
      <rect>
        16 9 3 2</rect></_>
    <_>
      <rect>
        16 12 1 1</rect></_>
    <_>
      <rect>
        16 12 3 1</rect></_>
    <_>
      <rect>
        17 0 2 1</rect></_>
    <_>
      <rect>
        17 6 1 1</rect></_>
    <_>
      <rect>
        17 8 2 1</rect></_>
    <_>
      <rect>
        17 12 1 1</rect></_>
    <_>
      <rect>
        18 0 1 1</rect></_>
    <_>
      <rect>
        18 0 2 2</rect></_>
    <_>
      <rect>
        18 2 2 1</rect></_>
    <_>
      <rect>
        18 9 1 2</rect></_>
    <_>
      <rect>
        19 0 1 1</rect></_>
    <_>
      <rect>
        19 0 2 2</rect></_>
    <_>
      <rect>
        19 0 2 3</rect></_>
    <_>
      <rect>
        19 2 1 1</rect></_>
    <_>
      <rect>
        19 6 2 3</rect></_>
    <_>
      <rect>
        19 8 2 2</rect></_>
    <_>
      <rect>
        19 9 2 2</rect></_>
    <_>
      <rect>
        20 0 1 1</rect></_>
    <_>
      <rect>
        20 0 1 2</rect></_>
    <_>
      <rect>
        20 1 1 1</rect></_>
    <_>
      <rect>
        20 2 1 1</rect></_>
    <_>
      <rect>
        20 3 1 1</rect></_>
    <_>
      <rect>
        21 1 1 1</rect></_>
    <_>
      <rect>
        21 2 1 1</rect></_>
    <_>
      <rect>
        21 3 1 1</rect></_>
    <_>
      <rect>
        21 4 1 1</rect></_>
    <_>
      <rect>
        21 9 1 2</rect></_>
    <_>
      <rect>
        21 12 1 1</rect></_>
    <_>
      <rect>
        22 0 1 2</rect></_>
    <_>
      <rect>
        22 1 1 1</rect></_>
    <_>
      <rect>
        22 1 1 2</rect></_>
    <_>
      <rect>
        22 1 1 3</rect></_>
    <_>
      <rect>
        22 2 1 1</rect></_>
    <_>
      <rect>
        22 2 1 2</rect></_>
    <_>
      <rect>
        22 3 1 1</rect></_>
    <_>
      <rect>
        22 3 1 2</rect></_>
    <_>
      <rect>
        22 3 1 3</rect></_>
    <_>
      <rect>
        22 4 1 1</rect></_>
    <_>
      <rect>
        22 5 1 1</rect></_>
    <_>
      <rect>
        22 5 1 2</rect></_>
    <_>
      <rect>
        22 6 1 1</rect></_>
    <_>
      <rect>
        22 6 1 2</rect></_>
    <_>
      <rect>
        22 8 1 2</rect></_>
    <_>
      <rect>
        22 9 1 2</rect></_>
    <_>
      <rect>
        22 11 1 1</rect></_></features></cascade>
</opencv_storage>
